FANN_FLO_2.1
num_layers=3
learning_rate=0.700000
connection_rate=1.000000
network_type=0
learning_momentum=0.000000
training_algorithm=2
train_error_function=1
train_stop_function=0
cascade_output_change_fraction=0.010000
quickprop_decay=-0.000100
quickprop_mu=1.750000
rprop_increase_factor=1.200000
rprop_decrease_factor=0.500000
rprop_delta_min=0.000000
rprop_delta_max=50.000000
rprop_delta_zero=0.100000
cascade_output_stagnation_epochs=12
cascade_candidate_change_fraction=0.010000
cascade_candidate_stagnation_epochs=12
cascade_max_out_epochs=150
cascade_min_out_epochs=50
cascade_max_cand_epochs=150
cascade_min_cand_epochs=50
cascade_num_candidate_groups=2
bit_fail_limit=3.49999999999999977796e-01
cascade_candidate_limit=1.00000000000000000000e+03
cascade_weight_multiplier=4.00000000000000022204e-01
cascade_activation_functions_count=10
cascade_activation_functions=3 5 7 8 10 11 14 15 16 17 
cascade_activation_steepnesses_count=4
cascade_activation_steepnesses=2.50000000000000000000e-01 5.00000000000000000000e-01 7.50000000000000000000e-01 1.00000000000000000000e+00 
layer_sizes=401 51 6 
scale_included=0
neurons (num_inputs, activation_function, activation_steepness)=(0, 0, 0.00000000000000000000e+00) (0, 0, 0.00000000000000000000e+00) (0, 0, 0.00000000000000000000e+00) (0, 0, 0.00000000000000000000e+00) (0, 0, 0.00000000000000000000e+00) (0, 0, 0.00000000000000000000e+00) (0, 0, 0.00000000000000000000e+00) (0, 0, 0.00000000000000000000e+00) (0, 0, 0.00000000000000000000e+00) (0, 0, 0.00000000000000000000e+00) (0, 0, 0.00000000000000000000e+00) (0, 0, 0.00000000000000000000e+00) (0, 0, 0.00000000000000000000e+00) (0, 0, 0.00000000000000000000e+00) (0, 0, 0.00000000000000000000e+00) (0, 0, 0.00000000000000000000e+00) (0, 0, 0.00000000000000000000e+00) (0, 0, 0.00000000000000000000e+00) (0, 0, 0.00000000000000000000e+00) (0, 0, 0.00000000000000000000e+00) (0, 0, 0.00000000000000000000e+00) (0, 0, 0.00000000000000000000e+00) (0, 0, 0.00000000000000000000e+00) (0, 0, 0.00000000000000000000e+00) (0, 0, 0.00000000000000000000e+00) (0, 0, 0.00000000000000000000e+00) (0, 0, 0.00000000000000000000e+00) (0, 0, 0.00000000000000000000e+00) (0, 0, 0.00000000000000000000e+00) (0, 0, 0.00000000000000000000e+00) (0, 0, 0.00000000000000000000e+00) (0, 0, 0.00000000000000000000e+00) (0, 0, 0.00000000000000000000e+00) (0, 0, 0.00000000000000000000e+00) (0, 0, 0.00000000000000000000e+00) (0, 0, 0.00000000000000000000e+00) (0, 0, 0.00000000000000000000e+00) (0, 0, 0.00000000000000000000e+00) (0, 0, 0.00000000000000000000e+00) (0, 0, 0.00000000000000000000e+00) (0, 0, 0.00000000000000000000e+00) (0, 0, 0.00000000000000000000e+00) (0, 0, 0.00000000000000000000e+00) (0, 0, 0.00000000000000000000e+00) (0, 0, 0.00000000000000000000e+00) (0, 0, 0.00000000000000000000e+00) (0, 0, 0.00000000000000000000e+00) (0, 0, 0.00000000000000000000e+00) (0, 0, 0.00000000000000000000e+00) (0, 0, 0.00000000000000000000e+00) (0, 0, 0.00000000000000000000e+00) (0, 0, 0.00000000000000000000e+00) (0, 0, 0.00000000000000000000e+00) (0, 0, 0.00000000000000000000e+00) (0, 0, 0.00000000000000000000e+00) (0, 0, 0.00000000000000000000e+00) (0, 0, 0.00000000000000000000e+00) (0, 0, 0.00000000000000000000e+00) (0, 0, 0.00000000000000000000e+00) (0, 0, 0.00000000000000000000e+00) (0, 0, 0.00000000000000000000e+00) (0, 0, 0.00000000000000000000e+00) (0, 0, 0.00000000000000000000e+00) (0, 0, 0.00000000000000000000e+00) (0, 0, 0.00000000000000000000e+00) (0, 0, 0.00000000000000000000e+00) (0, 0, 0.00000000000000000000e+00) (0, 0, 0.00000000000000000000e+00) (0, 0, 0.00000000000000000000e+00) (0, 0, 0.00000000000000000000e+00) (0, 0, 0.00000000000000000000e+00) (0, 0, 0.00000000000000000000e+00) (0, 0, 0.00000000000000000000e+00) (0, 0, 0.00000000000000000000e+00) (0, 0, 0.00000000000000000000e+00) (0, 0, 0.00000000000000000000e+00) (0, 0, 0.00000000000000000000e+00) (0, 0, 0.00000000000000000000e+00) (0, 0, 0.00000000000000000000e+00) (0, 0, 0.00000000000000000000e+00) (0, 0, 0.00000000000000000000e+00) (0, 0, 0.00000000000000000000e+00) (0, 0, 0.00000000000000000000e+00) (0, 0, 0.00000000000000000000e+00) (0, 0, 0.00000000000000000000e+00) (0, 0, 0.00000000000000000000e+00) (0, 0, 0.00000000000000000000e+00) (0, 0, 0.00000000000000000000e+00) (0, 0, 0.00000000000000000000e+00) (0, 0, 0.00000000000000000000e+00) (0, 0, 0.00000000000000000000e+00) (0, 0, 0.00000000000000000000e+00) (0, 0, 0.00000000000000000000e+00) (0, 0, 0.00000000000000000000e+00) (0, 0, 0.00000000000000000000e+00) (0, 0, 0.00000000000000000000e+00) (0, 0, 0.00000000000000000000e+00) (0, 0, 0.00000000000000000000e+00) (0, 0, 0.00000000000000000000e+00) (0, 0, 0.00000000000000000000e+00) (0, 0, 0.00000000000000000000e+00) (0, 0, 0.00000000000000000000e+00) (0, 0, 0.00000000000000000000e+00) (0, 0, 0.00000000000000000000e+00) (0, 0, 0.00000000000000000000e+00) (0, 0, 0.00000000000000000000e+00) (0, 0, 0.00000000000000000000e+00) (0, 0, 0.00000000000000000000e+00) (0, 0, 0.00000000000000000000e+00) (0, 0, 0.00000000000000000000e+00) (0, 0, 0.00000000000000000000e+00) (0, 0, 0.00000000000000000000e+00) (0, 0, 0.00000000000000000000e+00) (0, 0, 0.00000000000000000000e+00) (0, 0, 0.00000000000000000000e+00) (0, 0, 0.00000000000000000000e+00) (0, 0, 0.00000000000000000000e+00) (0, 0, 0.00000000000000000000e+00) (0, 0, 0.00000000000000000000e+00) (0, 0, 0.00000000000000000000e+00) (0, 0, 0.00000000000000000000e+00) (0, 0, 0.00000000000000000000e+00) (0, 0, 0.00000000000000000000e+00) (0, 0, 0.00000000000000000000e+00) (0, 0, 0.00000000000000000000e+00) (0, 0, 0.00000000000000000000e+00) (0, 0, 0.00000000000000000000e+00) (0, 0, 0.00000000000000000000e+00) (0, 0, 0.00000000000000000000e+00) (0, 0, 0.00000000000000000000e+00) (0, 0, 0.00000000000000000000e+00) (0, 0, 0.00000000000000000000e+00) (0, 0, 0.00000000000000000000e+00) (0, 0, 0.00000000000000000000e+00) (0, 0, 0.00000000000000000000e+00) (0, 0, 0.00000000000000000000e+00) (0, 0, 0.00000000000000000000e+00) (0, 0, 0.00000000000000000000e+00) (0, 0, 0.00000000000000000000e+00) (0, 0, 0.00000000000000000000e+00) (0, 0, 0.00000000000000000000e+00) (0, 0, 0.00000000000000000000e+00) (0, 0, 0.00000000000000000000e+00) (0, 0, 0.00000000000000000000e+00) (0, 0, 0.00000000000000000000e+00) (0, 0, 0.00000000000000000000e+00) (0, 0, 0.00000000000000000000e+00) (0, 0, 0.00000000000000000000e+00) (0, 0, 0.00000000000000000000e+00) (0, 0, 0.00000000000000000000e+00) (0, 0, 0.00000000000000000000e+00) (0, 0, 0.00000000000000000000e+00) (0, 0, 0.00000000000000000000e+00) (0, 0, 0.00000000000000000000e+00) (0, 0, 0.00000000000000000000e+00) (0, 0, 0.00000000000000000000e+00) (0, 0, 0.00000000000000000000e+00) (0, 0, 0.00000000000000000000e+00) (0, 0, 0.00000000000000000000e+00) (0, 0, 0.00000000000000000000e+00) (0, 0, 0.00000000000000000000e+00) (0, 0, 0.00000000000000000000e+00) (0, 0, 0.00000000000000000000e+00) (0, 0, 0.00000000000000000000e+00) (0, 0, 0.00000000000000000000e+00) (0, 0, 0.00000000000000000000e+00) (0, 0, 0.00000000000000000000e+00) (0, 0, 0.00000000000000000000e+00) (0, 0, 0.00000000000000000000e+00) (0, 0, 0.00000000000000000000e+00) (0, 0, 0.00000000000000000000e+00) (0, 0, 0.00000000000000000000e+00) (0, 0, 0.00000000000000000000e+00) (0, 0, 0.00000000000000000000e+00) (0, 0, 0.00000000000000000000e+00) (0, 0, 0.00000000000000000000e+00) (0, 0, 0.00000000000000000000e+00) (0, 0, 0.00000000000000000000e+00) (0, 0, 0.00000000000000000000e+00) (0, 0, 0.00000000000000000000e+00) (0, 0, 0.00000000000000000000e+00) (0, 0, 0.00000000000000000000e+00) (0, 0, 0.00000000000000000000e+00) (0, 0, 0.00000000000000000000e+00) (0, 0, 0.00000000000000000000e+00) (0, 0, 0.00000000000000000000e+00) (0, 0, 0.00000000000000000000e+00) (0, 0, 0.00000000000000000000e+00) (0, 0, 0.00000000000000000000e+00) (0, 0, 0.00000000000000000000e+00) (0, 0, 0.00000000000000000000e+00) (0, 0, 0.00000000000000000000e+00) (0, 0, 0.00000000000000000000e+00) (0, 0, 0.00000000000000000000e+00) (0, 0, 0.00000000000000000000e+00) (0, 0, 0.00000000000000000000e+00) (0, 0, 0.00000000000000000000e+00) (0, 0, 0.00000000000000000000e+00) (0, 0, 0.00000000000000000000e+00) (0, 0, 0.00000000000000000000e+00) (0, 0, 0.00000000000000000000e+00) (0, 0, 0.00000000000000000000e+00) (0, 0, 0.00000000000000000000e+00) (0, 0, 0.00000000000000000000e+00) (0, 0, 0.00000000000000000000e+00) (0, 0, 0.00000000000000000000e+00) (0, 0, 0.00000000000000000000e+00) (0, 0, 0.00000000000000000000e+00) (0, 0, 0.00000000000000000000e+00) (0, 0, 0.00000000000000000000e+00) (0, 0, 0.00000000000000000000e+00) (0, 0, 0.00000000000000000000e+00) (0, 0, 0.00000000000000000000e+00) (0, 0, 0.00000000000000000000e+00) (0, 0, 0.00000000000000000000e+00) (0, 0, 0.00000000000000000000e+00) (0, 0, 0.00000000000000000000e+00) (0, 0, 0.00000000000000000000e+00) (0, 0, 0.00000000000000000000e+00) (0, 0, 0.00000000000000000000e+00) (0, 0, 0.00000000000000000000e+00) (0, 0, 0.00000000000000000000e+00) (0, 0, 0.00000000000000000000e+00) (0, 0, 0.00000000000000000000e+00) (0, 0, 0.00000000000000000000e+00) (0, 0, 0.00000000000000000000e+00) (0, 0, 0.00000000000000000000e+00) (0, 0, 0.00000000000000000000e+00) (0, 0, 0.00000000000000000000e+00) (0, 0, 0.00000000000000000000e+00) (0, 0, 0.00000000000000000000e+00) (0, 0, 0.00000000000000000000e+00) (0, 0, 0.00000000000000000000e+00) (0, 0, 0.00000000000000000000e+00) (0, 0, 0.00000000000000000000e+00) (0, 0, 0.00000000000000000000e+00) (0, 0, 0.00000000000000000000e+00) (0, 0, 0.00000000000000000000e+00) (0, 0, 0.00000000000000000000e+00) (0, 0, 0.00000000000000000000e+00) (0, 0, 0.00000000000000000000e+00) (0, 0, 0.00000000000000000000e+00) (0, 0, 0.00000000000000000000e+00) (0, 0, 0.00000000000000000000e+00) (0, 0, 0.00000000000000000000e+00) (0, 0, 0.00000000000000000000e+00) (0, 0, 0.00000000000000000000e+00) (0, 0, 0.00000000000000000000e+00) (0, 0, 0.00000000000000000000e+00) (0, 0, 0.00000000000000000000e+00) (0, 0, 0.00000000000000000000e+00) (0, 0, 0.00000000000000000000e+00) (0, 0, 0.00000000000000000000e+00) (0, 0, 0.00000000000000000000e+00) (0, 0, 0.00000000000000000000e+00) (0, 0, 0.00000000000000000000e+00) (0, 0, 0.00000000000000000000e+00) (0, 0, 0.00000000000000000000e+00) (0, 0, 0.00000000000000000000e+00) (0, 0, 0.00000000000000000000e+00) (0, 0, 0.00000000000000000000e+00) (0, 0, 0.00000000000000000000e+00) (0, 0, 0.00000000000000000000e+00) (0, 0, 0.00000000000000000000e+00) (0, 0, 0.00000000000000000000e+00) (0, 0, 0.00000000000000000000e+00) (0, 0, 0.00000000000000000000e+00) (0, 0, 0.00000000000000000000e+00) (0, 0, 0.00000000000000000000e+00) (0, 0, 0.00000000000000000000e+00) (0, 0, 0.00000000000000000000e+00) (0, 0, 0.00000000000000000000e+00) (0, 0, 0.00000000000000000000e+00) (0, 0, 0.00000000000000000000e+00) (0, 0, 0.00000000000000000000e+00) (0, 0, 0.00000000000000000000e+00) (0, 0, 0.00000000000000000000e+00) (0, 0, 0.00000000000000000000e+00) (0, 0, 0.00000000000000000000e+00) (0, 0, 0.00000000000000000000e+00) (0, 0, 0.00000000000000000000e+00) (0, 0, 0.00000000000000000000e+00) (0, 0, 0.00000000000000000000e+00) (0, 0, 0.00000000000000000000e+00) (0, 0, 0.00000000000000000000e+00) (0, 0, 0.00000000000000000000e+00) (0, 0, 0.00000000000000000000e+00) (0, 0, 0.00000000000000000000e+00) (0, 0, 0.00000000000000000000e+00) (0, 0, 0.00000000000000000000e+00) (0, 0, 0.00000000000000000000e+00) (0, 0, 0.00000000000000000000e+00) (0, 0, 0.00000000000000000000e+00) (0, 0, 0.00000000000000000000e+00) (0, 0, 0.00000000000000000000e+00) (0, 0, 0.00000000000000000000e+00) (0, 0, 0.00000000000000000000e+00) (0, 0, 0.00000000000000000000e+00) (0, 0, 0.00000000000000000000e+00) (0, 0, 0.00000000000000000000e+00) (0, 0, 0.00000000000000000000e+00) (0, 0, 0.00000000000000000000e+00) (0, 0, 0.00000000000000000000e+00) (0, 0, 0.00000000000000000000e+00) (0, 0, 0.00000000000000000000e+00) (0, 0, 0.00000000000000000000e+00) (0, 0, 0.00000000000000000000e+00) (0, 0, 0.00000000000000000000e+00) (0, 0, 0.00000000000000000000e+00) (0, 0, 0.00000000000000000000e+00) (0, 0, 0.00000000000000000000e+00) (0, 0, 0.00000000000000000000e+00) (0, 0, 0.00000000000000000000e+00) (0, 0, 0.00000000000000000000e+00) (0, 0, 0.00000000000000000000e+00) (0, 0, 0.00000000000000000000e+00) (0, 0, 0.00000000000000000000e+00) (0, 0, 0.00000000000000000000e+00) (0, 0, 0.00000000000000000000e+00) (0, 0, 0.00000000000000000000e+00) (0, 0, 0.00000000000000000000e+00) (0, 0, 0.00000000000000000000e+00) (0, 0, 0.00000000000000000000e+00) (0, 0, 0.00000000000000000000e+00) (0, 0, 0.00000000000000000000e+00) (0, 0, 0.00000000000000000000e+00) (0, 0, 0.00000000000000000000e+00) (0, 0, 0.00000000000000000000e+00) (0, 0, 0.00000000000000000000e+00) (0, 0, 0.00000000000000000000e+00) (0, 0, 0.00000000000000000000e+00) (0, 0, 0.00000000000000000000e+00) (0, 0, 0.00000000000000000000e+00) (0, 0, 0.00000000000000000000e+00) (0, 0, 0.00000000000000000000e+00) (0, 0, 0.00000000000000000000e+00) (0, 0, 0.00000000000000000000e+00) (0, 0, 0.00000000000000000000e+00) (0, 0, 0.00000000000000000000e+00) (0, 0, 0.00000000000000000000e+00) (0, 0, 0.00000000000000000000e+00) (0, 0, 0.00000000000000000000e+00) (0, 0, 0.00000000000000000000e+00) (0, 0, 0.00000000000000000000e+00) (0, 0, 0.00000000000000000000e+00) (0, 0, 0.00000000000000000000e+00) (0, 0, 0.00000000000000000000e+00) (0, 0, 0.00000000000000000000e+00) (0, 0, 0.00000000000000000000e+00) (0, 0, 0.00000000000000000000e+00) (0, 0, 0.00000000000000000000e+00) (0, 0, 0.00000000000000000000e+00) (0, 0, 0.00000000000000000000e+00) (0, 0, 0.00000000000000000000e+00) (0, 0, 0.00000000000000000000e+00) (0, 0, 0.00000000000000000000e+00) (0, 0, 0.00000000000000000000e+00) (0, 0, 0.00000000000000000000e+00) (0, 0, 0.00000000000000000000e+00) (0, 0, 0.00000000000000000000e+00) (0, 0, 0.00000000000000000000e+00) (0, 0, 0.00000000000000000000e+00) (0, 0, 0.00000000000000000000e+00) (0, 0, 0.00000000000000000000e+00) (0, 0, 0.00000000000000000000e+00) (0, 0, 0.00000000000000000000e+00) (0, 0, 0.00000000000000000000e+00) (0, 0, 0.00000000000000000000e+00) (0, 0, 0.00000000000000000000e+00) (0, 0, 0.00000000000000000000e+00) (0, 0, 0.00000000000000000000e+00) (0, 0, 0.00000000000000000000e+00) (0, 0, 0.00000000000000000000e+00) (0, 0, 0.00000000000000000000e+00) (0, 0, 0.00000000000000000000e+00) (0, 0, 0.00000000000000000000e+00) (0, 0, 0.00000000000000000000e+00) (0, 0, 0.00000000000000000000e+00) (0, 0, 0.00000000000000000000e+00) (0, 0, 0.00000000000000000000e+00) (0, 0, 0.00000000000000000000e+00) (0, 0, 0.00000000000000000000e+00) (0, 0, 0.00000000000000000000e+00) (0, 0, 0.00000000000000000000e+00) (0, 0, 0.00000000000000000000e+00) (0, 0, 0.00000000000000000000e+00) (0, 0, 0.00000000000000000000e+00) (0, 0, 0.00000000000000000000e+00) (0, 0, 0.00000000000000000000e+00) (0, 0, 0.00000000000000000000e+00) (0, 0, 0.00000000000000000000e+00) (0, 0, 0.00000000000000000000e+00) (0, 0, 0.00000000000000000000e+00) (0, 0, 0.00000000000000000000e+00) (0, 0, 0.00000000000000000000e+00) (0, 0, 0.00000000000000000000e+00) (0, 0, 0.00000000000000000000e+00) (0, 0, 0.00000000000000000000e+00) (0, 0, 0.00000000000000000000e+00) (0, 0, 0.00000000000000000000e+00) (0, 0, 0.00000000000000000000e+00) (401, 6, 5.00000000000000000000e-01) (401, 6, 5.00000000000000000000e-01) (401, 6, 5.00000000000000000000e-01) (401, 6, 5.00000000000000000000e-01) (401, 6, 5.00000000000000000000e-01) (401, 6, 5.00000000000000000000e-01) (401, 6, 5.00000000000000000000e-01) (401, 6, 5.00000000000000000000e-01) (401, 6, 5.00000000000000000000e-01) (401, 6, 5.00000000000000000000e-01) (401, 6, 5.00000000000000000000e-01) (401, 6, 5.00000000000000000000e-01) (401, 6, 5.00000000000000000000e-01) (401, 6, 5.00000000000000000000e-01) (401, 6, 5.00000000000000000000e-01) (401, 6, 5.00000000000000000000e-01) (401, 6, 5.00000000000000000000e-01) (401, 6, 5.00000000000000000000e-01) (401, 6, 5.00000000000000000000e-01) (401, 6, 5.00000000000000000000e-01) (401, 6, 5.00000000000000000000e-01) (401, 6, 5.00000000000000000000e-01) (401, 6, 5.00000000000000000000e-01) (401, 6, 5.00000000000000000000e-01) (401, 6, 5.00000000000000000000e-01) (401, 6, 5.00000000000000000000e-01) (401, 6, 5.00000000000000000000e-01) (401, 6, 5.00000000000000000000e-01) (401, 6, 5.00000000000000000000e-01) (401, 6, 5.00000000000000000000e-01) (401, 6, 5.00000000000000000000e-01) (401, 6, 5.00000000000000000000e-01) (401, 6, 5.00000000000000000000e-01) (401, 6, 5.00000000000000000000e-01) (401, 6, 5.00000000000000000000e-01) (401, 6, 5.00000000000000000000e-01) (401, 6, 5.00000000000000000000e-01) (401, 6, 5.00000000000000000000e-01) (401, 6, 5.00000000000000000000e-01) (401, 6, 5.00000000000000000000e-01) (401, 6, 5.00000000000000000000e-01) (401, 6, 5.00000000000000000000e-01) (401, 6, 5.00000000000000000000e-01) (401, 6, 5.00000000000000000000e-01) (401, 6, 5.00000000000000000000e-01) (401, 6, 5.00000000000000000000e-01) (401, 6, 5.00000000000000000000e-01) (401, 6, 5.00000000000000000000e-01) (401, 6, 5.00000000000000000000e-01) (401, 6, 5.00000000000000000000e-01) (0, 6, 0.00000000000000000000e+00) (51, 6, 5.00000000000000000000e-01) (51, 6, 5.00000000000000000000e-01) (51, 6, 5.00000000000000000000e-01) (51, 6, 5.00000000000000000000e-01) (51, 6, 5.00000000000000000000e-01) (0, 6, 0.00000000000000000000e+00) 
connections (connected_to_neuron, weight)=(0, -3.03989894930349752178e-02) (1, -4.05132383350359365215e-02) (2, -1.82415791098104879131e-02) (3, 7.56957694645894463292e-02) (4, -3.62853840235697194805e-02) (5, 6.03570058699620659581e-02) (6, -2.57668741289602681865e-02) (7, 4.38687070961965019933e-02) (8, 2.94533759113324647427e-02) (9, -5.53131610397325917949e-02) (10, 6.34003892298711235753e-02) (11, 5.44396355505956108800e-02) (12, -8.47991409339775639720e-03) (13, -6.34191394094454213848e-02) (14, 1.24218346154309614016e-01) (15, 5.52212908621800835363e-02) (16, 8.83686689100394301422e-03) (17, 4.82182351312766127593e-03) (18, 8.71433332320226128331e-02) (19, -1.04786403719412286872e-02) (20, 1.07166753685094220949e-01) (21, 2.82759904619229798794e-02) (22, -8.83488955535759526438e-03) (23, -4.89156976584421560039e-02) (24, 8.12359913941396172277e-02) (25, -4.57421601060854360332e-02) (26, 1.04737894212819440676e-01) (27, 1.22734265005208356691e-01) (28, -4.32784021142946645488e-02) (29, 8.56471374388707573644e-02) (30, 5.07175564523709709874e-02) (31, -1.74780788459648686595e-03) (32, 1.17063494002438886477e-01) (33, 1.04405568515874250246e-01) (34, -5.41224539522158071270e-02) (35, -4.72923130039202138652e-02) (36, 3.66921514030469353429e-02) (37, -7.95973690786232548899e-03) (38, 6.85059740897191460363e-02) (39, -6.19248807672487661113e-02) (40, 8.65668950042853407867e-03) (41, 3.83594778738150649078e-03) (42, 6.44443496819508965245e-02) (43, 7.21063628550542290441e-02) (44, 1.23463958259595399380e-02) (45, 6.05922654028905327550e-02) (46, -7.42769265555043994853e-04) (47, 9.31128576155675347081e-02) (48, -6.26563191656099721660e-02) (49, -4.16698441151606008281e-02) (50, -4.54362020138727590313e-02) (51, 1.16440029418088300539e-01) (52, 5.85357263442052300206e-02) (53, 1.76584958787930970669e-02) (54, -6.05460837725626394024e-02) (55, 1.17013096567166810513e-02) (56, 4.38459157701505120031e-02) (57, 1.16121397888280256105e-01) (58, 1.16473339497551495181e-01) (59, 7.24971011038793022863e-02) (60, 7.36981197949422295324e-02) (61, -2.39467734115505592740e-01) (62, -9.85350959145756877255e-01) (63, -1.08032958046677385333e+00) (64, 1.05347441112614972902e-01) (65, -3.95139813665377065410e-02) (66, 8.73284503575337822667e-02) (67, 1.39691918846143250943e-02) (68, 2.44558691736234193326e-02) (69, 2.77640089150441651822e-02) (70, 2.39738985653890138150e-02) (71, 1.05042146122075422121e-01) (72, 1.03529544150449140383e-01) (73, -3.96521747354494497051e-02) (74, -8.78951750838490308837e-01) (75, -9.40224312388630578674e-01) (76, -8.35160158717366041259e-01) (77, 1.20264919077969892336e-01) (78, 6.29561617965551101328e-02) (79, 1.02142961299039228273e-01) (80, -4.94753405693994924297e-02) (81, -9.48688488596411416687e-01) (82, -1.05250820354702745441e+00) (83, 4.36651786688807275194e-02) (84, 6.89294352885259087316e-02) (85, 1.01896078860379560305e-01) (86, -3.53791252020822927227e-02) (87, -1.52950532976614400615e-02) (88, 8.99470612164510185949e-02) (89, -1.10010515735628877643e+00) (90, -1.08193173455810268124e-01) (91, -1.75006632766696798575e-03) (92, 6.53268451728847635018e-03) (93, -9.35847008701321675384e-02) (94, -1.17282525287153971405e+00) (95, -1.47345499711418526090e-01) (96, -1.92324312048340217984e-01) (97, -7.05464616660105153789e-02) (98, 2.17141486703857938823e-01) (99, 7.64639824780070087584e-01) (100, -1.39332892017746345914e-01) (101, -1.14008397446158182831e+00) (102, 1.21880998734476865553e-02) (103, -1.30350549687958894296e-01) (104, -9.97426183720599851545e-02) (105, -2.94794053081499501934e-02) (106, 6.43413975592626030675e-02) (107, 1.34795661939184074907e-05) (108, -1.18030566559317362518e+00) (109, 5.17941495303156640428e-02) (110, -2.59139821175562307110e-02) (111, -1.49787490238763032480e-01) (112, -1.94566932489491639657e-01) (113, -1.98428657819844422860e-01) (114, -1.20493186102392968451e+00) (115, -1.06177183822872911456e+00) (116, -5.81261977724078920948e-02) (117, -2.53606349472032949199e-02) (118, 2.42785685357209402024e-01) (119, 7.64329120668017170104e-01) (120, -7.89954677394870546925e-02) (121, -1.20407608733656701361e+00) (122, -5.75900146838185383880e-02) (123, -1.29685183038331208749e-01) (124, -4.53856274727808400860e-02) (125, 2.18598931785596375943e-02) (126, 9.83357593174947336445e-02) (127, -1.14032108918907892914e+00) (128, -1.40817904945370817038e-02) (129, 7.72986575718892510167e-02) (130, -5.28295696023928090801e-02) (131, -1.06370793481837880301e-02) (132, -4.78349834922777578106e-02) (133, -6.63438932796489438948e-02) (134, 8.55611240483621776631e-04) (135, -1.08371195034268175128e+00) (136, -1.03195765451672349933e+00) (137, -6.28734067324625417461e-02) (138, 2.36154102381821828782e-01) (139, 6.37806438060843250426e-01) (140, -7.03048870138171938526e-02) (141, -1.16575328470351946564e+00) (142, -1.49159814840713322859e+00) (143, 6.63878570062567563426e-01) (144, -1.42747633401380941143e-02) (145, 1.28252073880208497525e-02) (146, 6.36731251832021172277e-02) (147, -1.17501211376073610992e+00) (148, 2.20693429831507470507e-02) (149, 7.34861656781209404699e-02) (150, 1.12168700968839032961e-01) (151, -1.14148509671307726854e-01) (152, 8.43604221697820122472e-02) (153, -1.71123740245915589853e-01) (154, -3.69472848077785215315e-02) (155, -5.75756445697788027394e-02) (156, -1.08539819554569993976e+00) (157, 6.82748868819249565831e-02) (158, 2.90435873564835689287e-01) (159, 6.44893817754828235778e-01) (160, -1.50976905243778602994e-01) (161, -1.13838709728005182953e+00) (162, -1.54536036080280125837e+00) (163, -9.33591024776469907698e-02) (164, -5.48238218072878286113e-02) (165, 2.18297034259809022427e-02) (166, -2.71638766173349782695e-02) (167, -1.21485188440563973700e+00) (168, 3.08858841415418153287e-02) (169, -2.39824153725134298076e-02) (170, -5.41937411073671743145e-02) (171, -1.33966227044678864999e-01) (172, 2.52146512027753358365e-02) (173, -1.14414256980038805955e-01) (174, -1.65851958338247701397e-02) (175, 8.28694715853703911534e-02) (176, -4.04044520298145748427e-02) (177, 3.61214058734654785976e-01) (178, 4.27709945139046809892e-01) (179, 7.28719748707854053649e-01) (180, 2.23841076809951822213e+00) (181, 4.07443613095284595804e-01) (182, 9.45570601119519404953e-01) (183, 5.74107232255389066111e-01) (184, 2.11664616782257120065e+00) (185, 2.27327565569469491891e+00) (186, 2.17753474880048791817e+00) (187, 2.09570466962095203201e+00) (188, 2.21348011214324991158e+00) (189, 2.23499797005245248727e+00) (190, 3.18391791352264430515e+00) (191, 1.44380640204778654123e+00) (192, 1.45245480503669721628e+00) (193, 1.63279075141778928781e+00) (194, 3.12943497666351344577e+00) (195, 3.04166183986894633762e+00) (196, 1.50680938493576022097e+00) (197, 2.81301590369866261199e+00) (198, 3.04176030674211528293e+00) (199, 2.28847193438598672799e+00) (200, 2.10915301460811654977e+00) (201, 3.23864634640267101684e-01) (202, 2.71320218162463078215e+00) (203, 1.54719082977405530954e+00) (204, 3.15196830400459315769e+00) (205, 3.12973135330907847873e+00) (206, 2.92021040466185710649e-01) (207, -1.03478906694998595839e-01) (208, 3.38608340021725795488e-01) (209, 2.86758334037419460039e-01) (210, -1.29232810261249553285e-01) (211, -1.09937456818819057069e-01) (212, -1.74265143444157777353e-01) (213, -4.79378015045153066387e-02) (214, 6.27218201514256890050e-02) (215, -2.47100688759313985576e-02) (216, 1.23289929306126935793e-01) (217, -9.91161534663197590911e-02) (218, 3.20641267665855433933e+00) (219, 7.26820774527632496032e-01) (220, 1.81266911327347318705e-01) (221, -6.48611316242278634903e-01) (222, 1.19567856005481074066e-01) (223, -5.42848007579814634260e-02) (224, -5.67920701404582700667e-02) (225, -1.84977580775834260507e-01) (226, -1.02162917328175550935e+00) (227, -3.18133987107507731906e+00) (228, -2.58196489711772642073e-02) (229, -2.00948168506241975351e-01) (230, -1.86759506334878144784e-01) (231, 1.16242276107884748293e-01) (232, -1.56494774838305650277e-01) (233, -2.25840863615980147472e+00) (234, -1.47988410311127083219e-01) (235, 1.15387605106450422121e-01) (236, -4.62498977951053408253e-02) (237, 4.22152062777521874803e-02) (238, 3.34442332979794643144e-01) (239, 7.19964459689699909362e-01) (240, -6.66743055228220388164e-02) (241, -8.75786550485821546630e-01) (242, -1.07315639988663469317e+00) (243, -3.40530373398291036358e-02) (244, 7.62350871916783745519e-02) (245, -1.30441051890469728036e-01) (246, -1.11575381082591063020e+00) (247, -3.07165857025615718356e+00) (248, 1.46540194507611756802e-02) (249, 4.53639922104010634429e-03) (250, -2.18936935309397145977e-02) (251, -4.22576725725161000957e-02) (252, -2.30116868794670104137e+00) (253, -2.18032722205629347911e+00) (254, 1.10343949472524030520e-01) (255, 1.14875824725247724367e-01) (256, -6.09482690862659243214e-02) (257, -1.05345611111405168536e+00) (258, 2.53480934199448781907e-01) (259, 7.80697181972109577330e-01) (260, 9.55028846617711479894e-02) (261, -3.12943928185926839580e-02) (262, -1.06625036732437883380e+00) (263, -1.19712623790982064520e+00) (264, 1.08519052986147702955e-02) (265, -6.81332120772358967864e-02) (266, -1.20980904833557900702e+00) (267, -1.10068433568957124713e+00) (268, 1.20661200558759076906e-01) (269, 3.46814036127103264562e-02) (270, -2.26348200457477888303e-01) (271, -4.25635442308429506886e-02) (272, -2.09625744836712257779e-01) (273, -5.10310428043376645979e-02) (274, -3.62069815639482900371e-02) (275, 1.07018949067212446047e-01) (276, -2.08108881132984535611e-01) (277, -1.09413167671444688800e+00) (278, 3.55305359360333583574e-01) (279, 7.39053398521982929381e-01) (280, 1.25355081235982268595e-01) (281, 1.00439028417683942629e-01) (282, 7.66266599055303032628e-02) (283, -9.65963706516953179992e-01) (284, -1.10488490777397516118e-01) (285, -8.69129650437565626220e-01) (286, -9.79158304774494836487e-01) (287, -1.31027141230488197721e-01) (288, -1.48085610585594551480e-01) (289, -1.99100201594019310392e-01) (290, -1.70499013381386177457e-01) (291, -1.21731184665190179939e-02) (292, 1.00150197502149110318e-02) (293, -1.88275833596802888437e-01) (294, 5.65099862775931410797e-03) (295, -6.98786735776888295879e-02) (296, -1.80677851306581871427e-01) (297, -1.13222846971037638397e+00) (298, -1.01314468328108642226e-01) (299, 6.72491602750860950621e-01) (300, 1.17403285181142194582e-01) (301, 5.84487631674779350988e-02) (302, -2.17609837893473073711e-02) (303, -5.18128484729753896465e-02) (304, 1.43041178341878419400e-02) (305, -9.14068214738102624572e-01) (306, -4.13443461231235293019e-02) (307, 4.66048508640302117101e-02) (308, -6.52196988705622121563e-02) (309, 4.94683995600713188878e-02) (310, -3.45108121875749990215e-02) (311, -6.79350406173693105449e-02) (312, 2.18370049949658875943e-02) (313, 1.14045427715398176027e-01) (314, -3.39393154028879567852e-02) (315, -4.82418671492563649883e-02) (316, 4.48752060290349419347e-02) (317, -1.15615895600202334137e+00) (318, -8.45611971059940792372e-02) (319, -6.28007933739649221172e-02) (320, 2.81712203975690370084e-02) (321, -6.89487889651285573711e-02) (322, -3.04432066717018681712e-03) (323, 1.10115827595807416750e-01) (324, -5.03382146600710317363e-02) (325, 7.45362654086125786534e-02) (326, 1.12166734015561445070e-01) (327, 9.39355192146430068023e-03) (328, -4.27418560031877919902e-02) (329, 2.84836679454816346646e-02) (330, 6.17160960789693291417e-02) (331, -5.34089863542543813457e-02) (332, -4.11379993204103872051e-02) (333, 1.11884699737645490480e-01) (334, -3.32922511044966146221e-02) (335, 4.50957059618009026281e-02) (336, -2.22407879867424565501e-03) (337, -2.02707012759828941739e-01) (338, -3.63698512557970449199e-02) (339, 4.48580232820639662750e-03) (340, 8.71709897871983940831e-02) (341, 1.04891655407081049733e-03) (342, 8.48034915886054091461e-03) (343, -1.90624058488832875957e-02) (344, -1.29760638121591970195e-02) (345, 4.64706286545766289464e-02) (346, 4.62531444988379530914e-03) (347, 1.03828729664899213625e-01) (348, 1.05262012755490644289e-01) (349, -6.23044878486620351543e-02) (350, 1.12957523738957746340e-01) (351, 5.36282507143149428375e-03) (352, -5.93236968163477346172e-02) (353, -1.81572087351309224834e-02) (354, -1.25917554143892690410e-02) (355, -3.77323165778147145977e-02) (356, -2.40171389298820869840e-01) (357, -1.96975459920549766935e-01) (358, 4.35908227916730339757e-02) (359, -4.25036311391817495098e-02) (360, 7.19178184624684746495e-02) (361, -2.27634929362760946026e-02) (362, -2.39830263201223775615e-02) (363, 1.02709399139500959230e-01) (364, -3.89492124561296865215e-02) (365, 1.46543100234044557095e-02) (366, 1.97347044702542787076e-02) (367, 3.07562961932195191861e-02) (368, 5.23569077011121208898e-02) (369, 5.52944257613194878331e-02) (370, 1.07171685969449384523e-01) (371, 1.14574968572629456998e-02) (372, -7.17270657662378713360e-02) (373, -1.24183729533182581062e-02) (374, 6.43246784564031059972e-02) (375, -1.27735458556639119854e-02) (376, 1.05981843149281843020e-01) (377, -5.91204300765024587383e-02) (378, -3.70152279976831838360e-02) (379, 8.31734403725636894933e-02) (380, -4.94953304771410390606e-02) (381, -5.21281197909342214336e-02) (382, -3.95341426376329824199e-02) (383, -3.68894398454653188457e-02) (384, 1.64426264724860590749e-03) (385, 1.98036819454205995084e-02) (386, -2.69216152467598515696e-03) (387, 1.88248006067405146413e-03) (388, 6.32378473635686333409e-02) (389, 1.12828241264439924074e-01) (390, 3.13084363695157533169e-02) (391, 7.08524284324774794586e-03) (392, -3.80056634787546560039e-02) (393, 7.92550012227071221105e-02) (394, -1.82757698241697713604e-02) (395, -5.02528103628029423899e-03) (396, -3.41611005608068868389e-02) (397, 7.33885332699788506261e-02) (398, 9.76606026049626901875e-02) (399, 9.01253983136189873449e-02) (400, 2.19415744421863734281e-01) (0, 5.57837108791257474394e-01) (1, 4.54587719113017707517e-01) (2, 4.81890300929929404905e-01) (3, 4.17348327756311088255e-01) (4, 5.90841988742734525175e-01) (5, 5.41046346247579190702e-01) (6, 5.95259765804196927519e-01) (7, 6.03651146114255521269e-01) (8, 5.75960705697919461699e-01) (9, 5.50362790644551846952e-01) (10, 4.26085400104905753782e-01) (11, 5.95762173355008695097e-01) (12, 5.82758228004361722441e-01) (13, 4.61125547707463889768e-01) (14, 4.69336016744758277586e-01) (15, 4.74491509318734794309e-01) (16, 5.30362973630811307402e-01) (17, 5.43148080528165433378e-01) (18, 4.09658933699514060667e-01) (19, 5.15120799363042447538e-01) (20, 4.46386116266633659055e-01) (21, 4.88673763990785270384e-01) (22, 5.49044738233472440214e-01) (23, 5.97570697486783597441e-01) (24, 5.42327577889348599882e-01) (25, 4.15949034214402824094e-01) (26, 4.35339185119058280637e-01) (27, 4.87645695627118735960e-01) (28, 5.85539231717969510527e-01) (29, 5.97394163430120084257e-01) (30, 5.60187826574231717558e-01) (31, 5.34230689227964017363e-01) (32, 4.42836242437745719602e-01) (33, 4.32932468772317557981e-01) (34, 5.42433361232663724394e-01) (35, 4.24532564998056083372e-01) (36, 5.64833174169446561308e-01) (37, 5.28547475755597684355e-01) (38, 4.19038059831048637083e-01) (39, 5.31648228586103055449e-01) (40, 4.69764611393596320799e-01) (41, 4.35977804184343009641e-01) (42, 5.18264743209268186064e-01) (43, 4.43377191841985374143e-01) (44, 4.87957703590776115110e-01) (45, 5.78455115378285977812e-01) (46, 5.08723045409108731718e-01) (47, 4.09175033390905051878e-01) (48, 5.12457544625188443632e-01) (49, 5.09236330807592008085e-01) (50, 5.15150184452916715117e-01) (51, 5.49698020041371915312e-01) (52, 1.41884395141981811683e-01) (53, 8.16920887389059949268e-03) (54, 9.12430074409472519070e-02) (55, 7.50663217500674301297e-02) (56, 1.49726022378432327420e-02) (57, 1.17436551709555345169e-01) (58, 2.24068784360885758788e-01) (59, 4.38246237755204826048e-01) (60, 5.52565122664357755156e-01) (61, 1.04608544369124131790e-01) (62, -1.20376977085576375437e-01) (63, -7.87300761596854137281e-03) (64, 5.75275416195775601835e-01) (65, 4.96618996084119357359e-01) (66, 6.01642633498097989531e-01) (67, 5.30962939083959195585e-01) (68, 4.16020813107873588255e-01) (69, -3.53450242086422866672e-02) (70, 6.58545013227339673390e-03) (71, 2.97597136692034774930e-02) (72, -8.51286832533005438650e-03) (73, 1.15704559941672044387e-01) (74, -1.72836954652772295526e-01) (75, -1.66529017447934496454e-01) (76, -1.51814187824235280466e-01) (77, -3.64313486619961685031e-02) (78, 1.40830987339019914062e-01) (79, 5.56649832778476127970e-01) (80, 5.10539400101091001005e-01) (81, -2.60495091735825856638e-01) (82, -1.83703839387148182283e-02) (83, 8.06029385157582961563e-02) (84, 4.69116790861274390867e-01) (85, 5.04735747993375394316e-01) (86, 6.02958927572156522245e-01) (87, 5.21823796153451535673e-01) (88, 1.30266409710871750027e-02) (89, 1.30972305372401010004e-04) (90, 1.41369136256789929007e-01) (91, 1.93770932240104443167e-01) (92, 1.27047391814803845023e-01) (93, 9.55547636576650344375e-02) (94, -1.36924922074526111970e-02) (95, 5.58523472742068344266e-02) (96, 1.45703294535063476722e-01) (97, 5.72933206975843045683e-01) (98, 4.81720429110528564065e-02) (99, 8.10584654931071207917e-02) (100, 1.28442534466170044105e-01) (101, -1.25259166171714647620e-01) (102, 5.73973862656114303116e-02) (103, -1.89574153479691809299e-01) (104, -3.71809789296742743137e-01) (105, 5.68678299606229398222e-01) (106, 5.12577729940797421904e-01) (107, 9.81768753723132187039e-02) (108, -2.41473406161516468416e-02) (109, 1.10854676195142470840e-02) (110, 5.71117262065793607206e-01) (111, -3.22743182387706051273e-01) (112, -3.59410063680764446659e-01) (113, -2.56388352569695776584e-01) (114, -4.17410522307604114900e-02) (115, -9.94493379797190268921e-02) (116, -1.35600257321370001873e-02) (117, 5.46200926125432584257e-01) (118, 2.10263110510161721489e-01) (119, -3.43189606543538236472e-02) (120, 8.44349202112185531766e-02) (121, -4.49924558009355823884e-02) (122, 6.87063580580709182266e-02) (123, -3.35346334931012401981e-01) (124, 4.45100622892762809446e-01) (125, 4.49552184611941962888e-01) (126, 5.52358726680661771269e-01) (127, -1.65590399464532717078e-01) (128, 3.78449468097664942778e-03) (129, 5.67762757361318204374e-01) (130, 4.18851184368516593626e-01) (131, -2.14601607379075354221e-01) (132, 4.27486653149511008909e-01) (133, -3.17460120972749004764e-01) (134, 5.74915180623914334745e-01) (135, -1.53479205032750948279e-01) (136, -1.57937893232271059363e-01) (137, 4.78347259283448844602e-01) (138, 1.79466374031356179497e-01) (139, 7.86265065793040202058e-02) (140, 4.29622616962420517117e-02) (141, -5.55963158215730945955e-02) (142, -6.92339478537406183278e-01) (143, -7.37533335200478701310e-02) (144, 5.88560550265811333048e-01) (145, 6.02498019755269620390e-01) (146, 1.54058584232710571449e-01) (147, -1.02837645968362673132e-01) (148, 1.29998060149764782523e-01) (149, 5.99150518596555325956e-01) (150, 5.66226507246877286406e-01) (151, -3.32395677771922359867e-01) (152, 5.39141128480817410917e-01) (153, -3.58775833007451305789e-01) (154, -2.82769360896703014774e-01) (155, 1.28216036816023559730e-01) (156, -1.18379713555738314001e-01) (157, 4.54561999708797126463e-01) (158, 1.97394348493865334770e-01) (159, -3.84569535132405354583e-02) (160, -3.37009567423832839816e-02) (161, 1.00655764733106195541e-02) (162, -7.01281359896029687917e-01) (163, -3.62598189469929943485e-01) (164, 5.93150681608222374308e-01) (165, 5.37527522795699486124e-01) (166, 1.61439154640662246853e-02) (167, -9.53767239655703147339e-02) (168, 6.06729133778117546427e-01) (169, 5.51882988565467247355e-01) (170, 6.08076757543586143839e-01) (171, -2.28136346992608374240e-01) (172, 6.81269741409324058878e-01) (173, -2.57375032958146399142e-01) (174, 5.93685067050956138957e-01) (175, -2.90831539436352676242e-02) (176, 2.76728574645027203260e-01) (177, 9.30671356613488737208e-02) (178, 1.02847911230376565239e-01) (179, -5.78967737134453847014e-02) (180, 6.29707636925989300281e-01) (181, 2.66344157964692906937e-01) (182, 3.32504256801990527581e-01) (183, 3.40006357059976338508e-01) (184, 6.58888584617191463977e-01) (185, 5.90952119473034054309e-01) (186, 7.25653557721191555530e-01) (187, 7.88197611473491654976e-01) (188, 6.36368467155510098010e-01) (189, 7.10996671262794643908e-01) (190, 8.88915906222721430296e-01) (191, 3.38900395774674734195e-01) (192, 4.04543788277936300357e-01) (193, 3.35956336104703268131e-01) (194, 9.55402920516392084593e-01) (195, 1.06123301622476229333e+00) (196, 1.08751605544844354156e+00) (197, 1.15977488924422944550e+00) (198, 9.50839357944389673705e-01) (199, 7.20535485688263088733e-01) (200, 7.37948192897850185901e-01) (201, 5.27858493742105139290e-01) (202, 1.12049196381726945404e+00) (203, 3.87126886391473135074e-01) (204, 9.55924200387855860228e-01) (205, 1.03309385714139589929e+00) (206, 1.24516665748408625336e-01) (207, 1.20203973016243831351e-01) (208, 2.25928572929414220316e-02) (209, 1.53133345759423680765e-02) (210, 2.51332477207677318365e-01) (211, 2.55976472522513820440e-01) (212, -3.33833006527777920169e-01) (213, 6.85315153353713402140e-01) (214, -7.41051022253159247244e-03) (215, 8.74795701698290878445e-02) (216, 1.23129093308829026809e-01) (217, 1.70753630084609753226e-01) (218, 9.43332450958153101439e-01) (219, -9.68366557832715108001e-02) (220, 9.19068683406594866270e-01) (221, -1.86262164403830365877e-03) (222, 1.11659835564709236655e-01) (223, -3.66395914312955151004e-01) (224, -2.54962192234155005099e-01) (225, -2.39005075153466528537e-01) (226, -1.10556543905893045476e+00) (227, -5.52857766404713735220e-01) (228, -3.07164603230115185184e-01) (229, -3.09205078837033520145e-01) (230, -2.59659321364518469455e-01) (231, 4.40087641299153953245e-01) (232, -3.58319246527310619754e-01) (233, -1.09006355245271402410e+00) (234, 9.70217522577273422391e-02) (235, 5.14282482386018369169e-01) (236, 1.35789537091635437172e-01) (237, 4.68119887836930953506e-02) (238, 1.16621479204943978569e-01) (239, 7.48111834649088786042e-02) (240, 4.59629340738441138914e-01) (241, -1.19201335072026570749e-01) (242, -1.45482463350459917395e-01) (243, 5.10768982291604611845e-01) (244, 5.19232558727647397490e-01) (245, -3.15148138758298168582e-01) (246, -1.08109709907928186468e+00) (247, -6.71499426022137857473e-01) (248, 4.50133374601985603025e-01) (249, 5.01874643087770078154e-01) (250, 4.92513808131601005247e-01) (251, 5.47479028523351285429e-01) (252, -9.37838587059170780691e-01) (253, -9.56560823215634403738e-01) (254, 5.66055754840756986113e-01) (255, 5.09251909971620175810e-01) (256, 5.96067469910609298855e-02) (257, -2.57039755191057484041e-02) (258, 1.01749583891681039116e-01) (259, 6.58948054436686442292e-02) (260, 4.44192300260450034788e-01) (261, -2.27227348490727371066e-02) (262, -1.78891876300737245886e-01) (263, -1.23283015152379854529e-01) (264, 3.24729403682706627143e-02) (265, 1.40437768978690868948e-01) (266, -1.81461661662309925447e-02) (267, -1.78576575180456026404e-01) (268, 5.97214604437734219999e-01) (269, 4.80552780151750236204e-01) (270, 1.52737670798681945961e-01) (271, 8.18231363676747563973e-04) (272, -1.09660017891896124920e-02) (273, -3.54999968167897472782e-01) (274, 5.49321631610776517363e-01) (275, 5.46000967443372342558e-01) (276, 6.20627787307726913602e-02) (277, -1.79697811211794178377e-02) (278, 1.98569593942674108011e-02) (279, 3.15305074576380517382e-02) (280, 4.68887938827659278562e-01) (281, 5.34394767478930526883e-02) (282, 4.13838785485255294949e-02) (283, -2.44724507390961992792e-01) (284, 4.81306131639357495655e-03) (285, -2.38534222304330217890e-01) (286, -1.44618245720372518015e-01) (287, 1.02154218812369065872e-01) (288, 1.57573067803763122718e-01) (289, -1.80916849180233832439e-02) (290, 7.73034256295191818387e-02) (291, 4.39499783039476066282e-01) (292, 4.43800049543763786009e-01) (293, -2.63843619581815069797e-01) (294, 5.01199836552526090117e-01) (295, 4.76682590961839347532e-01) (296, 2.42419738666045242459e-02) (297, -1.26091992070838793127e-01) (298, -5.28599951555167035799e-03) (299, -5.92090668257233693206e-02) (300, 5.39443860471631619902e-01) (301, 4.73561170220758109739e-01) (302, 5.08635651663767868191e-02) (303, 1.19332202930830674759e-01) (304, 5.66537913278567367703e-02) (305, -2.45788666367040026239e-01) (306, 5.61875116423594528348e-02) (307, 6.03331039369489285917e-01) (308, 6.04932884395505521269e-01) (309, 5.10873305321122739286e-01) (310, 5.44115940750028226347e-01) (311, 4.64675171941901832273e-01) (312, 6.02047185123349759550e-01) (313, 4.23234234273816734007e-01) (314, 4.94513283193494468382e-01) (315, 4.44594661415006309202e-01) (316, 4.59262634337331443479e-01) (317, -1.69671060105726106970e-01) (318, 9.61081993193444311663e-02) (319, 5.76013981156848320353e-01) (320, 4.44100382447625785520e-01) (321, 4.99521123886491447141e-01) (322, 4.84924251854802756956e-01) (323, 4.78754783690358787229e-01) (324, 4.20650149405385642698e-01) (325, 5.76978440106298062773e-01) (326, 5.46291733801747891874e-01) (327, 4.82626537502195029905e-01) (328, 4.35869509995366721800e-01) (329, 4.20235174417878776243e-01) (330, 5.32671863854314420195e-01) (331, 5.66167722165967557402e-01) (332, 4.84650688887025504759e-01) (333, 4.21269836545373588255e-01) (334, 5.23234325170899960966e-01) (335, 5.79038898170377347441e-01) (336, 4.50043781370307593992e-01) (337, -2.97238070174229568332e-02) (338, 5.73224286258603665800e-01) (339, 4.45831018209840446165e-01) (340, 5.18883916259194943876e-01) (341, 5.08194575727368924589e-01) (342, 5.01360538125421140165e-01) (343, 5.11785457551862332792e-01) (344, 5.22283154249574277372e-01) (345, 5.86728165567304227324e-01) (346, 5.47234470665837857695e-01) (347, 5.72400147736455533476e-01) (348, 6.02040181577588651152e-01) (349, 5.22572110116864774199e-01) (350, 4.17824613571550040891e-01) (351, 4.36994905293370872190e-01) (352, 4.12947582722093253782e-01) (353, 4.93603217125322013548e-01) (354, 5.06604040682698819609e-01) (355, 4.24452083826448112180e-01) (356, 1.45559471444117599637e-02) (357, -3.12993560276154242361e-03) (358, 4.97932965577031760862e-01) (359, 4.88159867644693046262e-01) (360, 4.54839645594741492918e-01) (361, 4.21459178150083213499e-01) (362, 4.45181931078817039182e-01) (363, 5.30344682455445859404e-01) (364, 4.33583366394426017454e-01) (365, 5.59270615399266812773e-01) (366, 5.00237929344560239286e-01) (367, 4.74481503188993125608e-01) (368, 5.67281226337339017363e-01) (369, 4.64316549420739799192e-01) (370, 5.11166865647222135038e-01) (371, 4.77019483864690452268e-01) (372, 5.63365484297658536406e-01) (373, 6.03381762922193143339e-01) (374, 5.79659293115522000761e-01) (375, 4.76502987265969901731e-01) (376, 5.80964277208234403105e-01) (377, 5.17748105049516293974e-01) (378, 4.39757483721162467649e-01) (379, 5.73858792603398892851e-01) (380, 4.31174563885118156126e-01) (381, 4.48436456442262321165e-01) (382, 6.01708049595738980742e-01) (383, 4.34976505756761222532e-01) (384, 5.32894025266553494902e-01) (385, 4.99166446447755485227e-01) (386, 4.50282933831597953489e-01) (387, 5.85184375465299222441e-01) (388, 5.33770928800489041777e-01) (389, 5.39070258558179471464e-01) (390, 4.64198595554019599607e-01) (391, 5.79464922368909451933e-01) (392, 5.51383788407231900663e-01) (393, 5.00234882057096097441e-01) (394, 5.00663953543092343779e-01) (395, 5.75821499050046536894e-01) (396, 4.50359842449809699705e-01) (397, 5.91756234586621854277e-01) (398, 4.41157358408357291868e-01) (399, 7.29939273350737938273e-01) (400, -2.58020126023673523896e-01) (0, -3.43070467596227557383e-01) (1, -4.09879801457101733408e-01) (2, -2.85102089529211011332e-01) (3, -3.48834355955297381602e-01) (4, -4.39366163348132998667e-01) (5, -4.17744749819213778697e-01) (6, -3.77015744929487139903e-01) (7, -3.30763702874357135020e-01) (8, -3.87132910673791796885e-01) (9, -4.12302588706190020762e-01) (10, -3.08734779839689166270e-01) (11, -3.47842102532560260020e-01) (12, -4.19740190391714007578e-01) (13, -2.82903929834539380472e-01) (14, -4.24093735997850329600e-01) (15, -3.29719384794408709727e-01) (16, -4.41766647284204394541e-01) (17, -4.48055004363233477793e-01) (18, -4.05094114725763232432e-01) (19, -3.11842044477636248789e-01) (20, -3.93002060835534960948e-01) (21, -4.34774843638116748057e-01) (22, -3.69603907351667315684e-01) (23, -3.01912834530050189219e-01) (24, -3.43256538396055133067e-01) (25, -4.02928052132303149424e-01) (26, -4.60698639636213214121e-01) (27, -3.60645962541276843272e-01) (28, -3.70916342024976641856e-01) (29, -4.61348874156648547373e-01) (30, -3.22864478116208941660e-01) (31, -4.36883421276981265269e-01) (32, -3.94125280564004809580e-01) (33, -3.30863168125326068125e-01) (34, -3.08614378457242877207e-01) (35, -3.56388030235940844737e-01) (36, -4.71504522149736315928e-01) (37, -4.08526723866636187754e-01) (38, -4.10048341040784747324e-01) (39, -3.81534037773782641612e-01) (40, -3.43725924973661334239e-01) (41, -4.41679728810960681162e-01) (42, -4.52272740786249072276e-01) (43, -2.86362712865049329203e-01) (44, -4.47480259125406176768e-01) (45, -3.99263081734353930674e-01) (46, -3.38978683238202960215e-01) (47, -4.12143511359865100108e-01) (48, -3.70214676146680743418e-01) (49, -4.66969398443872363291e-01) (50, -4.46882156317407519541e-01) (51, -2.86113341932470288675e-01) (52, 1.31775251501631662787e-01) (53, 2.17033441090416834296e-01) (54, 2.45493317866158411444e-01) (55, 2.65622119331192896308e-01) (56, 9.12087735770463203799e-02) (57, 2.61898080730271265448e-01) (58, -3.71571750363811792450e-01) (59, -3.59020268206769854746e-01) (60, -2.78763478284055676859e-01) (61, 1.36318485164475367011e-01) (62, 4.41615835869145711978e-01) (63, 4.54210298600567663474e-01) (64, -4.73857378249341876231e-01) (65, -3.50311269645864398203e-01) (66, -4.75070004944974810801e-01) (67, -4.68258490448171527110e-01) (68, -2.81734591012174573343e-01) (69, 1.48401151323151514472e-01) (70, 1.83726969086956903876e-01) (71, 2.08058993244004175605e-01) (72, 1.83824825012516901435e-01) (73, 2.08557630801033899726e-01) (74, 4.02799696767163595279e-01) (75, 4.17447985255551656802e-01) (76, 2.90397972905469259342e-01) (77, 1.36924396180939600409e-01) (78, -2.75243454596504510956e-01) (79, -3.63129412417585284434e-01) (80, -4.09357694571191699229e-01) (81, 3.12629112148118337711e-01) (82, 4.77856295647991979880e-01) (83, 2.89100501957310074275e-01) (84, -3.10066258197004229746e-01) (85, -4.05958739702875048838e-01) (86, -3.70585715060407550059e-01) (87, -2.98170184378797442637e-01) (88, 1.33042744272780344428e-01) (89, 3.82176803889645422263e-01) (90, 2.65908595445526529932e-01) (91, 2.20962200584782053614e-01) (92, 2.35182579877746988917e-01) (93, 2.24211707982195307398e-01) (94, 5.06280268075836925590e-01) (95, 1.48849057876896784247e-01) (96, 2.61424298310112879218e-01) (97, -3.41681992297346026621e-01) (98, -3.95957336744770349579e-01) (99, 3.24354013083362702208e-01) (100, 8.38225510953187202823e-02) (101, 5.55687809827698497855e-01) (102, 2.75118936124218393946e-01) (103, 7.82462735029121225772e-01) (104, 7.85481248350997751650e-01) (105, -4.51389720325643450938e-01) (106, -4.33946145360643298350e-01) (107, 1.98438453399968045554e-01) (108, 4.56217641475571478171e-01) (109, 2.11144652488602091456e-01) (110, -4.44003669207269580088e-01) (111, 8.24511837514301126895e-01) (112, 7.45009567888637369570e-01) (113, 8.11504524501224344668e-01) (114, 4.44171602371109808249e-01) (115, 4.11498213651551092429e-01) (116, 8.85211330888985847842e-02) (117, -2.99306368117505938731e-01) (118, 2.32005998282588388193e-02) (119, 2.09812109945202052153e-01) (120, 2.66394267701935694159e-01) (121, 4.87447793128861273093e-01) (122, 2.83900704505813950007e-01) (123, 4.12388574080455039272e-02) (124, -3.07228391652280719004e-01) (125, -4.28706941788370043955e-01) (126, -3.54195115750009448252e-01) (127, 5.24878854396714000785e-01) (128, 3.52710102024448801661e-01) (129, -4.75813841109449298106e-01) (130, -3.47636392002279193125e-01) (131, 8.61768465789218729434e-01) (132, -2.93018286709958997172e-01) (133, 7.09134448619743174014e-01) (134, -3.79753699188405902110e-01) (135, 4.69017865600956762595e-01) (136, 4.34299638959540212912e-01) (137, -3.36596434598142535410e-01) (138, 2.09127798466838266123e-02) (139, 2.91606386778736237364e-01) (140, 2.62072066688370630683e-01) (141, 4.21243357005490148826e-01) (142, 1.12373827119031632904e+00) (143, 1.95315124550340002418e-01) (144, -2.90688519959623303812e-01) (145, -3.10020198707754046641e-01) (146, 1.72246846282315180243e-01) (147, 5.68515578749550609672e-01) (148, 3.13772473755253245020e-01) (149, -3.66630067711049945078e-01) (150, -4.18541593139345080576e-01) (151, 8.05402558596988504824e-01) (152, -4.52074540441209704600e-01) (153, 8.47011011393924539981e-01) (154, 8.58774479778667276797e-01) (155, 2.74216557764840052069e-01) (156, 3.94858981016053045554e-01) (157, -3.68861389939958483897e-01) (158, 1.52551880457893668241e-01) (159, 1.52658199546718775785e-01) (160, 1.88844266259503290595e-01) (161, 4.49249731841458166404e-01) (162, 1.22204672266402925018e+00) (163, 8.14836267130362723599e-02) (164, -3.65052221005136401377e-01) (165, -3.85641393845254809580e-01) (166, -1.43384108068561999527e-01) (167, 5.46350816729439525687e-01) (168, -4.45134428923303515635e-01) (169, -4.72109740262205035410e-01) (170, -3.58912078325921923838e-01) (171, 2.59528492855903847314e-03) (172, -4.23758638684923083506e-01) (173, 1.86211799549934609033e-03) (174, -4.08046861772710711680e-01) (175, -4.37343762849742800913e-01) (176, 1.53351024614636954890e-01) (177, 7.33032856596129711590e-02) (178, 4.10443752794421579111e-02) (179, 2.72832220075512055235e-01) (180, -5.05756660510657818364e-01) (181, 3.57938395526790353873e-01) (182, -2.13090207069102366422e-02) (183, -7.86392294044525874686e-03) (184, -5.10705641616939098881e-01) (185, -5.34966531355737240361e-01) (186, -4.85823928524612036473e-01) (187, -3.36453683129490199732e-01) (188, -4.26724522520659954594e-01) (189, -5.38933458884118588017e-01) (190, -1.01266806860128122381e+00) (191, -2.13534883170829165033e-01) (192, -1.58917921542630541376e-01) (193, -1.85183959960446703485e-01) (194, -9.53290003432423649343e-01) (195, -1.08023854632535654119e+00) (196, -5.61609173670376882193e-01) (197, -5.98063121095265493032e-01) (198, -1.10677999545493799260e+00) (199, -5.65411037911532909916e-01) (200, -4.28840308596251995610e-01) (201, 2.51458375431361902397e-01) (202, -7.14911850646104074514e-01) (203, -2.71837475656972249460e-01) (204, -9.74593478335530338796e-01) (205, -1.01133988340059000066e+00) (206, -1.98487855580206817852e-01) (207, 8.66919540632415386305e-02) (208, -1.82387411680575317607e-01) (209, -1.63104895588513321147e-01) (210, 2.68985953463317106760e-01) (211, 3.59657272977830066996e-01) (212, 1.59679444481610033346e-01) (213, -3.78805054013902575694e-01) (214, -4.48561278765375048838e-01) (215, -4.37775862996751696787e-01) (216, -3.35550909524137408457e-01) (217, -2.66584981467359927176e-01) (218, -9.79125115169674931082e-01) (219, 2.39922267971420466459e-01) (220, -6.55786590932962876188e-01) (221, 2.52645305531410235833e-01) (222, -5.09651067258059642384e-01) (223, 7.49311540575881784854e-01) (224, 7.86895055623908823428e-01) (225, 7.82161552759071176943e-01) (226, 9.81007429333587976927e-01) (227, 1.12222939450898850922e+00) (228, 7.26548269691129511294e-01) (229, 7.78161835225482767520e-01) (230, 7.80545365365405863223e-01) (231, -4.74615504627401263438e-01) (232, 6.97507586630245035586e-01) (233, 1.01208336886968264245e+00) (234, 8.45257294414757942569e-02) (235, -3.19695626979047686778e-01) (236, 1.10549825155568048896e-01) (237, 2.16590054604185511256e-01) (238, 7.74885028391040231455e-02) (239, 2.36695965407276331938e-01) (240, -3.51537843828374774180e-01) (241, 3.95517715358567556461e-01) (242, 3.93763849976433599753e-01) (243, -3.79725349729234606944e-01) (244, -4.66600043361360461436e-01) (245, 7.22854472996850794253e-01) (246, 1.01414636013116488122e+00) (247, 1.17999026645580018524e+00) (248, -3.06750794534856707774e-01) (249, -4.11588510160619647227e-01) (250, -4.31998902594024569712e-01) (251, -3.46524705772573382578e-01) (252, 9.67031309874912592406e-01) (253, 1.07662165400590548181e+00) (254, -4.70653919165307910166e-01) (255, -4.74058558826620013438e-01) (256, 1.87214377248120233954e-01) (257, 4.82908385339154089255e-01) (258, 1.03001242855087604688e-01) (259, 3.07882805941486481505e-01) (260, -4.62366183881933123789e-01) (261, 8.37571275470971321475e-02) (262, 5.36389345767868785941e-01) (263, 4.11696305963171804709e-01) (264, 3.07979274812115122462e-01) (265, 3.37602366032970835352e-01) (266, 5.69104070308579235160e-01) (267, 5.43216431978119640434e-01) (268, -4.60695458238298327647e-01) (269, -4.09064499323541552744e-01) (270, 1.39459214085173532904e-01) (271, 2.21286187791657373847e-01) (272, 2.59556601667237207831e-01) (273, 7.54458863588233774600e-01) (274, -4.37751853500778109751e-01) (275, -2.86356141452962842386e-01) (276, 2.09744523191285059394e-01) (277, 5.48949400427712230766e-01) (278, 1.48464536645904837675e-01) (279, 2.47658049343013886290e-01) (280, -4.35531375591928393565e-01) (281, 2.67220313572716638983e-01) (282, 1.10675814473462030829e-01) (283, 4.14475278103185018619e-01) (284, 2.66401181840729639472e-01) (285, 3.21125318401885351260e-01) (286, 4.17520121776891073306e-01) (287, 1.74302863800358698310e-01) (288, 2.27141435170006678046e-01) (289, 1.10859918320012018622e-01) (290, 1.35312060737442896308e-01) (291, -3.14537441020185382090e-01) (292, -4.41111741249734790049e-01) (293, 6.92937214227577036318e-01) (294, -4.75733397190744311533e-01) (295, -3.02024697547132403574e-01) (296, 2.67519290470909998358e-01) (297, 5.70474068167580394828e-01) (298, 3.73972534375576037835e-01) (299, 1.51488145468616663969e-01) (300, -4.11482682113820941172e-01) (301, -4.71554008906061083994e-01) (302, 2.25900719785523340644e-01) (303, 1.25177322798800394477e-01) (304, 1.65880198502373621405e-01) (305, 4.69252289378476461490e-01) (306, 1.15924584591221735419e-01) (307, -4.60104060952836901865e-01) (308, -3.15106695180112750254e-01) (309, -2.97688400035077960215e-01) (310, -3.59319625084573657237e-01) (311, -4.73534671251947314463e-01) (312, -3.09780781750852496348e-01) (313, -3.27956502919370562754e-01) (314, -3.42372094874555499278e-01) (315, -3.22692295198614031992e-01) (316, -2.90143897419149365824e-01) (317, 4.41830972674263799949e-01) (318, 2.16739148665118785964e-02) (319, -3.42315142636472613535e-01) (320, -3.76617459242517382823e-01) (321, -3.71702758257562548838e-01) (322, -3.79749199037725360117e-01) (323, -3.40625783090764910899e-01) (324, -3.52206287567788989268e-01) (325, -3.78379193728143603526e-01) (326, -3.65547096018964678965e-01) (327, -3.63999699835950762949e-01) (328, -3.80797369067842395030e-01) (329, -4.20144224201614291392e-01) (330, -3.59385167842084796153e-01) (331, -3.15176656131917865000e-01) (332, -4.14594834332639605723e-01) (333, -4.12797143345052630625e-01) (334, -4.69312024896318347178e-01) (335, -3.28027328138524920664e-01) (336, -4.26857569848472506724e-01) (337, 1.23715962195229456366e-01) (338, -3.11027994041616351328e-01) (339, -4.64860861783201129160e-01) (340, -4.53285125677759082041e-01) (341, -3.93244219606096179209e-01) (342, -4.61292130534822375498e-01) (343, -2.85962512378866162699e-01) (344, -4.44097323005372912608e-01) (345, -3.26560815458471209727e-01) (346, -3.31551408057386309824e-01) (347, -4.57137813453847796641e-01) (348, -4.57622108643228442393e-01) (349, -2.82150124793226209086e-01) (350, -3.22349568491155535899e-01) (351, -3.57136165385419757090e-01) (352, -3.76749483530694873057e-01) (353, -4.24995364283496768198e-01) (354, -4.20658560131961734019e-01) (355, -4.51852371578390032969e-01) (356, 2.30144943022560999335e-01) (357, 2.47313852333855554999e-01) (358, -3.38748668914014727793e-01) (359, -4.29965128784353167735e-01) (360, -4.52143070881540209971e-01) (361, -4.21030440961295993052e-01) (362, -4.68038377945596606455e-01) (363, -3.89634502713853747569e-01) (364, -3.56724178080732257090e-01) (365, -4.60246992891008288584e-01) (366, -4.40558431332284838877e-01) (367, -3.06478341703588397227e-01) (368, -4.15843726729328067027e-01) (369, -4.74483025853807360850e-01) (370, -2.94235800986463513773e-01) (371, -3.92025446181470782481e-01) (372, -3.90623835508996875010e-01) (373, -2.78424536471540418070e-01) (374, -4.00884559040243060313e-01) (375, -3.57617763464624316416e-01) (376, -3.27881952409917742930e-01) (377, -4.55332560126954943858e-01) (378, -3.37652166967565448008e-01) (379, -3.08400666003400714121e-01) (380, -4.60379285400087268076e-01) (381, -3.82898343389207751475e-01) (382, -3.88433431868726641856e-01) (383, -3.60025373881036669932e-01) (384, -3.30790301447088153086e-01) (385, -3.31988593225652606211e-01) (386, -3.34774335508520037852e-01) (387, -3.79958061163598925791e-01) (388, -3.63987443630868823252e-01) (389, -3.96419612353021533213e-01) (390, -3.32819779997045428477e-01) (391, -3.39027112012082965098e-01) (392, -3.40346654539281756602e-01) (393, -3.23754762892896563731e-01) (394, -4.51558215205842883311e-01) (395, -4.19967433099920184336e-01) (396, -3.06898360734159381114e-01) (397, -4.15013255213672549448e-01) (398, -4.49342382733995349131e-01) (399, -4.45638684218103320323e-01) (400, 6.84879586251818439635e-01) (0, -4.66474791650945574961e-01) (1, -3.60560727899248034678e-01) (2, -3.25913315301114947520e-01) (3, -4.67795921151811511240e-01) (4, -2.84341876988584485453e-01) (5, -4.06427671795064837656e-01) (6, -3.18574478511983782969e-01) (7, -4.62571045046026141367e-01) (8, -4.66976446693117053233e-01) (9, -3.49871744995290667735e-01) (10, -4.45846935396367938242e-01) (11, -3.72771380131418139658e-01) (12, -4.61201777343923480235e-01) (13, -3.28768899326497943125e-01) (14, -4.26458289508993060313e-01) (15, -3.16086968069250018321e-01) (16, -3.86439842765504748545e-01) (17, -3.29312940721685321055e-01) (18, -4.02971012180025012217e-01) (19, -3.05756052618200213633e-01) (20, -3.85029336099798114024e-01) (21, -4.64894724672014147959e-01) (22, -3.68999315087968737803e-01) (23, -4.31680692022020251475e-01) (24, -4.39349541102821261607e-01) (25, -3.11863338236982257090e-01) (26, -4.61475645785505206309e-01) (27, -3.77259393816167742930e-01) (28, -2.84102325921232190531e-01) (29, -4.30010923777992160044e-01) (30, -3.12548866157705218516e-01) (31, -4.73473718052083880625e-01) (32, -3.13468252902204425059e-01) (33, -3.61358774488145739756e-01) (34, -4.64166236703569323740e-01) (35, -3.20706730370695025645e-01) (36, -2.90683036332303967875e-01) (37, -3.05637305264646441660e-01) (38, -3.06174372916395098887e-01) (39, -2.80556087975675549906e-01) (40, -3.78405658190423876963e-01) (41, -4.74917916243249804698e-01) (42, -3.76224076037580401621e-01) (43, -3.62504033034021289073e-01) (44, -3.26583405618841082774e-01) (45, -3.25578963046247393809e-01) (46, -4.01487601583177478037e-01) (47, -4.35919856314832598887e-01) (48, -3.77788511698419482432e-01) (49, -3.27355211262876422129e-01) (50, -4.64572516863519580088e-01) (51, -2.85714437847310986918e-01) (52, 4.45269585692715963443e-01) (53, 4.03947682225537618717e-01) (54, 3.20124381327462514957e-01) (55, 4.83023435914349874576e-01) (56, 3.69187743508649190982e-01) (57, 3.35752138042283376773e-01) (58, -7.16457942782995793607e-01) (59, -3.98227294569188983164e-01) (60, -3.77571498637372882090e-01) (61, 3.47421982431245168765e-01) (62, 3.65818509006333669742e-01) (63, 4.36059313359631384177e-01) (64, -2.97249501233274371348e-01) (65, -3.81660436873609454356e-01) (66, -4.57539675419504077158e-01) (67, -3.10829152946645648203e-01) (68, -4.10194350068742663584e-01) (69, 4.73805458390546163638e-01) (70, 4.46134285175633749088e-01) (71, 4.48919505917859396060e-01) (72, 4.75990952098203023990e-01) (73, 3.47013608658147176822e-01) (74, 3.63518872403931936343e-01) (75, 4.26510945999455770572e-01) (76, 2.98538045131993612369e-01) (77, 4.39134673321080526431e-01) (78, -6.31630914568064194548e-01) (79, 2.61413847682857636290e-01) (80, -3.71533242647821337901e-01) (81, 4.80225370371175130924e-01) (82, 4.78821443858517492576e-01) (83, 4.40419281366242254538e-01) (84, -3.59555756335431964121e-01) (85, -3.34362541918928057871e-01) (86, -4.09865645353967578135e-01) (87, -4.73680732433969409190e-01) (88, 4.78492991173100790103e-01) (89, 5.39684752467049388969e-01) (90, 4.55191033425701940818e-01) (91, 4.67604445758236730857e-01) (92, 4.03794022741688574119e-01) (93, 5.37696833255661754691e-01) (94, 5.30771503689659862602e-01) (95, 2.94068374776673635562e-01) (96, 3.43560249650311788638e-01) (97, -2.99660434608632952891e-01) (98, -6.38982760070917588102e-01) (99, 2.74030213830852631407e-01) (100, 4.51248423302007040103e-01) (101, 5.12743751051796703422e-01) (102, 4.65655642094982946677e-01) (103, 1.03805472192372927331e+00) (104, 8.80993152531048151488e-01) (105, -3.04133837704831988535e-01) (106, -3.73291222040826708994e-01) (107, 3.02090429806542715152e-01) (108, 5.01683766487015514457e-01) (109, 4.61086208465470159812e-01) (110, -3.43785455112630755625e-01) (111, 9.11802435787578913207e-01) (112, 9.62547386558910700316e-01) (113, 9.16687904419561716551e-01) (114, 4.74780949297322119040e-01) (115, 3.75546509864701116843e-01) (116, 4.65300710046124776920e-01) (117, -3.07976951484853656016e-01) (118, 1.17383435158885385263e-02) (119, 3.24041908262157563048e-01) (120, 4.19231654250455221256e-01) (121, 4.61267965379132116599e-01) (122, 4.44772730114830816550e-01) (123, 3.27487668062925230128e-01) (124, -4.23923117702180773936e-01) (125, -4.47343682532483966074e-01) (126, -2.99527024512464434824e-01) (127, 4.86320073249710882468e-01) (128, 3.80094940307511175437e-01) (129, -3.22497104888135821543e-01) (130, -4.36518991028243930064e-01) (131, 1.05257916686143526697e+00) (132, -3.82645619695360095225e-01) (133, 1.01078856227006563806e+00) (134, -3.41351037507230670176e-01) (135, 4.70902415457142675681e-01) (136, 4.79209596755875433249e-01) (137, -4.37538856302673251353e-01) (138, 1.22449292221561756300e-01) (139, 1.81982470331573664701e-01) (140, 4.11071212136578878482e-01) (141, 4.22998084220064962668e-01) (142, 1.09740495402970994476e+00) (143, 1.53852043756720846535e-01) (144, 2.36226578829670130766e-01) (145, -3.05744176392728717051e-01) (146, 2.98832074844670614322e-01) (147, 4.44233218672646368308e-01) (148, 5.13377944472206859672e-01) (149, -4.55507112329179675303e-01) (150, -4.28594158624584109507e-01) (151, 9.53845391543766352171e-01) (152, -3.67131402378255755625e-01) (153, 9.97830482693573328490e-01) (154, 9.20666097225805613036e-01) (155, 4.46464986646008810123e-01) (156, 5.23041690233124523246e-01) (157, -4.56301701848680407725e-01) (158, 8.22415187745250131357e-02) (159, 3.04225733158970002012e-01) (160, 4.58720699989629110416e-01) (161, 4.90056770387066686911e-01) (162, 1.16042493750014985565e+00) (163, 2.30532733763933045390e-01) (164, 1.97385927317524134672e-01) (165, 2.15116498647117793119e-01) (166, 7.54953393735948580234e-03) (167, 5.29721910598648815238e-01) (168, 2.54681033668899658995e-01) (169, 2.31537429271125971830e-01) (170, 3.38812132952594879942e-01) (171, 1.96232890750646482569e-01) (172, 2.81643261788272980528e-01) (173, 2.22076015587329728129e-01) (174, 1.95304656056547343290e-01) (175, -1.36203793491935065685e-01) (176, 5.04092209226376930520e-03) (177, -2.47369896160942598362e-02) (178, 1.01124985495106067823e-01) (179, 3.20127581832790497618e-01) (180, -4.92673977424262610203e-01) (181, 5.72126451886083575715e-01) (182, -2.95708614974204142545e-02) (183, 9.01619056594845508235e-02) (184, -5.13858161081431896733e-01) (185, -4.85336772312282171971e-01) (186, -4.19549687911628277348e-01) (187, -4.11423496357143703150e-01) (188, -4.64535071660636511570e-01) (189, -5.42969591130374462651e-01) (190, -9.36070340766102848562e-01) (191, -1.85469011723504412226e-01) (192, -1.22146996616826375437e-01) (193, -1.70208032190308916620e-01) (194, -9.48975044383198795828e-01) (195, -1.10500650395312982610e+00) (196, -5.69852376833523854849e-01) (197, -6.15614528313244924185e-01) (198, -9.48176848782689152273e-01) (199, -4.97815787006972876316e-01) (200, -5.66721557785628826664e-01) (201, 1.11008691252531599414e-01) (202, -6.26479031994904733693e-01) (203, -1.28293844818578084421e-01) (204, -1.09482927162805276922e+00) (205, -9.43532544268757877859e-01) (206, -7.05812686053475801806e-02) (207, 1.81460649538684459792e-02) (208, -2.12620366450901931987e-01) (209, -1.75117705103512710796e-01) (210, 2.47735418660641831812e-01) (211, 3.42506997568608417826e-01) (212, 1.70494696165799985987e-01) (213, 2.15659586367988764799e-01) (214, -5.09087198039048505205e-02) (215, -8.61361452003472499728e-02) (216, 1.34349832334582780513e-03) (217, -5.49129216698629879501e-02) (218, -1.01923221637168603948e+00) (219, 2.22229106007003962553e-01) (220, 1.09001173058048572706e-01) (221, 2.89135920988706607293e-01) (222, -4.99278354049861150532e-01) (223, 9.33196122320553156371e-01) (224, 1.04236161944474825525e+00) (225, 1.00084924188460955286e+00) (226, 9.36124040307661386962e-01) (227, 1.16545273829856599335e+00) (228, 9.27684544148107859129e-01) (229, 8.95881610484978052611e-01) (230, 8.95363973947426172728e-01) (231, -4.15360504423553378306e-01) (232, 1.04757769641484865808e+00) (233, 1.01133479413594851160e+00) (234, 2.91324363195729574283e-01) (235, -2.93861319904500928324e-01) (236, 3.81608598971200307925e-01) (237, 5.51295275333298473441e-01) (238, 3.47769245295680429209e-02) (239, 2.73521771309757355528e-01) (240, -4.32845456187898547373e-01) (241, 3.31555602246356329044e-01) (242, 4.13439384194983328147e-01) (243, -4.23017723148042590342e-01) (244, -3.60074532811815173350e-01) (245, 1.02740557727422365808e+00) (246, 1.00571669873799929285e+00) (247, 1.10663316865125382904e+00) (248, -4.59049937908822924815e-01) (249, -4.60125272755796344004e-01) (250, -3.23049163108045489512e-01) (251, -3.55710183863813311778e-01) (252, 9.54985166462322565550e-01) (253, 9.95944099994560572142e-01) (254, -2.99954836850339801035e-01) (255, -4.34638155286485583506e-01) (256, 3.25224516087603887637e-01) (257, 4.08724101724995458884e-01) (258, 1.85644975283638297148e-01) (259, 2.39029204128170191801e-01) (260, -4.22830721025640399180e-01) (261, 4.81219486439061483463e-01) (262, 5.26790732982529430473e-01) (263, 3.97301877382172430320e-01) (264, 5.04693055990113048637e-01) (265, 5.34802401903046398246e-01) (266, 3.80543949547184789939e-01) (267, 4.02988942804707372947e-01) (268, -3.36790239100629718028e-01) (269, -4.40336195414239794932e-01) (270, 4.40057546937299093326e-01) (271, 4.67883811437917074283e-01) (272, 3.68322813057732900699e-01) (273, 1.07473273810948977136e+00) (274, -4.38446623866731555186e-01) (275, -4.75064439361268908701e-01) (276, 4.30569485866856893619e-01) (277, 5.39824957492722301566e-01) (278, 8.63991290121234323252e-02) (279, 3.12183862207317475157e-01) (280, -2.93192570691282239359e-01) (281, 3.18104663038087209781e-01) (282, 3.70016166114640554508e-01) (283, 3.44767940336299261173e-01) (284, 4.36608002626729330142e-01) (285, 3.47164743685555776675e-01) (286, 3.87233191275430044254e-01) (287, 4.78519813263249715884e-01) (288, 3.82996582531762441715e-01) (289, 3.67216752016377767642e-01) (290, 3.70675393485856374820e-01) (291, -3.23146840219671160899e-01) (292, -3.95292592828447253428e-01) (293, 9.18701934190651270384e-01) (294, -2.98737233166868121348e-01) (295, -4.63491802697355181895e-01) (296, 2.86484011554551443179e-01) (297, 5.58910126331223278129e-01) (298, 2.72277939306882876824e-01) (299, 2.90358071802044037657e-01) (300, -4.54318327491456896983e-01) (301, -4.76650280540162951670e-01) (302, 4.11368266784978231509e-01) (303, 3.91107880616021474918e-01) (304, 4.81057793938947042545e-01) (305, 4.50025052869153341373e-01) (306, 3.93146843755078634342e-01) (307, -3.32101529126340777598e-01) (308, -3.43458359723264605723e-01) (309, -2.86531557922536816996e-01) (310, -3.66791298275167376719e-01) (311, -3.59547523443872363291e-01) (312, -4.51739599590474993906e-01) (313, -2.80087833886320081156e-01) (314, -2.98092281108076007090e-01) (315, -2.98444306140119464121e-01) (316, -4.16235817258531481944e-01) (317, 4.55823855939282263083e-01) (318, 1.46138832794492301570e-01) (319, 3.07425072071933869200e-01) (320, -3.10267766599828631602e-01) (321, -4.15874531154806048594e-01) (322, -3.62595392053300769053e-01) (323, -4.28456959908182055674e-01) (324, -3.74613357370073229990e-01) (325, -3.84229218249494464121e-01) (326, -4.14845360105211169444e-01) (327, -3.71442054991895587168e-01) (328, -3.98211350326711566172e-01) (329, -3.71137072925741107188e-01) (330, -4.27957592194253833018e-01) (331, -3.75426267867261798106e-01) (332, -3.70683958416158587656e-01) (333, -2.99902027135068804942e-01) (334, -4.67631106858426959239e-01) (335, -3.72938861732656390391e-01) (336, -3.33189686422521502696e-01) (337, 4.02619146847558340152e-01) (338, -4.27937006240064532481e-01) (339, -3.99544639175111682139e-01) (340, -3.67225123231584460459e-01) (341, -3.17624902014905841074e-01) (342, -2.81988745217496838968e-01) (343, -3.41861312871152789317e-01) (344, -3.20609336381132037364e-01) (345, -3.02977626805478961192e-01) (346, -3.63202241842920214854e-01) (347, -4.59741761570150286875e-01) (348, -4.20046032999927432261e-01) (349, -3.89336047356302172862e-01) (350, -2.99190302972967059336e-01) (351, -4.53210396354371936045e-01) (352, -3.28107168560201556406e-01) (353, -3.84682295506173999033e-01) (354, -4.04563961212808520518e-01) (355, -4.25617130135471255503e-01) (356, 4.68607992970776876529e-01) (357, 4.18110207760167440494e-01) (358, -3.19955771451169879160e-01) (359, -4.12916062061960131846e-01) (360, -4.36339588498050601206e-01) (361, -4.70809979026491076670e-01) (362, -3.11238934879476458750e-01) (363, -3.29920133238012225352e-01) (364, -2.93608611111814465922e-01) (365, -3.01766639237577349864e-01) (366, -4.25755602901155383311e-01) (367, -3.49694883113080889903e-01) (368, -3.82460204546625048838e-01) (369, -3.76589206640893847666e-01) (370, -4.72136122768098742686e-01) (371, -4.72581935708696276865e-01) (372, -4.17110705410415560923e-01) (373, -4.77021475916082293711e-01) (374, -3.37339853530103594981e-01) (375, -4.60616653447324664317e-01) (376, -3.02895700221235186778e-01) (377, -4.23438692127639682017e-01) (378, -4.43255019967729479990e-01) (379, -4.45838344876939685069e-01) (380, -3.35671325807744891367e-01) (381, -4.65341923420602709971e-01) (382, -4.21945342456275851450e-01) (383, -3.86675102298433215342e-01) (384, -3.72920823877031237803e-01) (385, -3.49405889992887408457e-01) (386, -3.35188826208288104258e-01) (387, -3.87625535612279803477e-01) (388, -4.14608409290487200938e-01) (389, -3.78041213040525347910e-01) (390, -3.23438187723333270274e-01) (391, -3.73844599013502032481e-01) (392, -3.71747789566690356455e-01) (393, -3.57573723082715899668e-01) (394, -4.26661332731420428477e-01) (395, -3.88252986257249743662e-01) (396, -3.82236955349618823252e-01) (397, -3.75313533132249743662e-01) (398, -4.60844477300817401133e-01) (399, 3.36383243677997711973e-01) (400, 6.22473120840632221373e-01) (0, -1.39100191797828010021e-01) (1, 3.37047077158934282881e-02) (2, -9.80296411176675014376e-02) (3, -1.39018265213584235607e-01) (4, -2.65317462941163338674e-02) (5, -8.15428920646660976290e-02) (6, 3.51894296149260210615e-02) (7, 2.71329678038603402945e-02) (8, -4.76945169826501202959e-02) (9, -1.33545508291339209972e-01) (10, -3.14349733849519086260e-02) (11, -3.59330304523461652177e-02) (12, -7.83874519725793056368e-02) (13, -1.41006676163291266857e-01) (14, -1.31750447358702948986e-01) (15, -1.50689942445372870861e-01) (16, 9.07892678166079269975e-04) (17, -4.22725804706567120927e-02) (18, -8.81949492355340175509e-02) (19, -1.00029920842265432346e-01) (20, -8.86073686738961391329e-02) (21, 1.50638617018705942008e-02) (22, 5.32568464078967546138e-03) (23, 3.09223032931334185225e-02) (24, -1.34494071509455970226e-01) (25, -1.05823898371075933444e-01) (26, -7.42112525363915614962e-02) (27, -3.27042095919602704424e-02) (28, -8.95649694462769679904e-02) (29, -8.47016104122155361056e-02) (30, -3.04001473446839608206e-02) (31, -6.83387645145409755587e-02) (32, -9.06705089469903163790e-02) (33, 3.18966008166319536787e-02) (34, -4.70306404491418195146e-02) (35, -1.56875861491774848400e-01) (36, -8.93198900481217555880e-02) (37, -5.15148170848840070146e-02) (38, 3.05834955910689043623e-02) (39, 2.33119971493727304312e-02) (40, -2.47339211960786141409e-02) (41, -4.05250765939706159013e-02) (42, -5.22946321030610394853e-02) (43, -1.42794979419326117931e-01) (44, -2.12053560276978768362e-02) (45, -2.37186901827805794729e-02) (46, -1.33158525135134986339e-01) (47, -5.99710696002000165361e-02) (48, -1.05664876904105489719e-01) (49, -6.10270776411050153154e-02) (50, 3.25406287098574387162e-04) (51, -3.39458488484376263994e-02) (52, 3.58363207791234206212e-01) (53, 4.09977529559518050206e-01) (54, 4.01302878175164412511e-01) (55, 3.84195533011342238439e-01) (56, 4.64480016742135237706e-01) (57, 2.87418019388104628575e-01) (58, -7.87868598758337590482e-01) (59, -1.08758577760075872409e-01) (60, -8.09572242756837062716e-02) (61, 6.81383063041997472098e-01) (62, 1.37150602186045933450e+00) (63, 1.59196656163564664865e+00) (64, -1.00330614109986580862e-02) (65, -1.03475192244862859714e-01) (66, -7.85081615648205652369e-03) (67, -1.39026550259208014904e-01) (68, 5.33639857568805192622e-03) (69, 4.27059118066216658605e-01) (70, 2.88611870620633315099e-01) (71, 3.84928886208916853917e-01) (72, 3.46860427770997237218e-01) (73, 3.96643627796555708898e-01) (74, 1.34673724466882038797e+00) (75, 1.23025840664229679788e+00) (76, 1.27752827623806286539e+00) (77, 4.29628167663003157628e-01) (78, -7.13349523305056187894e-01) (79, -5.60871787925713849443e-02) (80, -1.15072535034035985935e-01) (81, 1.29126554125867176737e+00) (82, 1.47356125678649885202e+00) (83, 2.88835678520573013728e-01) (84, 2.92924589852339434248e-02) (85, -1.20773815175050057424e-02) (86, -1.39861067440127662120e-01) (87, 1.00988394955641366812e-02) (88, 4.35667027149583052648e-01) (89, 1.49155091088047964121e+00) (90, 1.90885294499767710352e-01) (91, 2.00254801931751658106e-01) (92, 1.75571989539040018702e-01) (93, 3.34440741958988596583e-01) (94, 1.62332911010614378000e+00) (95, 6.80285816037488499930e-01) (96, 5.45712423467469731619e-01) (97, -2.74631880780213631643e-02) (98, -6.37739735006449204313e-01) (99, 2.77360923031813241812e-02) (100, 5.99561412775350133231e-01) (101, 1.62615268643728239084e+00) (102, 2.58209977569950510645e-01) (103, 7.44102478112459442272e-01) (104, 7.00848169709921364756e-01) (105, -1.52221990432357123790e-01) (106, -1.85830794831269539846e-02) (107, 4.29432515416527937901e-01) (108, 1.59700044210782987619e+00) (109, 2.13298715922010828638e-01) (110, -1.10328295882558172214e-01) (111, 8.03979799236536285534e-01) (112, 7.12388433601141235485e-01) (113, 6.85284853066683297129e-01) (114, 1.56219774450889570261e+00) (115, 1.54028178717723829294e+00) (116, 5.52179587030244389823e-01) (117, -2.06048243304246224417e-02) (118, -7.48247148751375767972e-01) (119, 2.05338693598753549430e-02) (120, 7.11643715345693150809e-01) (121, 1.53270009126296979929e+00) (122, 1.81115065040958811426e-01) (123, 7.99677744592905304089e-01) (124, -1.05019306447123830783e-01) (125, 3.22840459088331865889e-02) (126, -8.34255447587902917994e-03) (127, 1.52064828540912611032e+00) (128, 2.94365886869800919001e-01) (129, -3.00696246882432259573e-02) (130, -9.45571192165368251681e-02) (131, 6.06389321471930031748e-01) (132, -4.68584500809663129228e-02) (133, 7.59754017080545684948e-01) (134, -1.91685759087556160940e-02) (135, 1.45259062167039854074e+00) (136, 1.60613291676870328928e+00) (137, -7.74252616425507717013e-02) (138, -6.60604672788736801969e-01) (139, -4.30760212799065900224e-02) (140, 6.50620331013036290457e-01) (141, 1.44834759797683698679e+00) (142, 3.13160593428842570773e+00) (143, -1.95984044423821501812e-01) (144, -7.43024327417367153048e-02) (145, -1.24506963100051229465e-01) (146, 4.16042972717667769444e-01) (147, 1.55783232267728788401e+00) (148, 3.44433252039326120997e-01) (149, -1.60191518869017890392e-01) (150, -6.45753048916810346025e-02) (151, 7.68538981761217376842e-01) (152, -7.04329290052407436251e-02) (153, 7.12640903975248596325e-01) (154, 7.63549730266809723034e-01) (155, 6.68513272845578709891e-01) (156, 1.54352584447494489694e+00) (157, -4.94598277469628644365e-02) (158, -7.93105336188433263089e-01) (159, -1.34268393423175147472e-01) (160, 5.64436064058375874808e-01) (161, 1.53161811794868452097e+00) (162, 3.04282308736078288547e+00) (163, 7.59258285249948761120e-01) (164, -1.16562762912129705417e-01) (165, 8.61174831190172213047e-03) (166, 3.91400823392932389888e-03) (167, 1.44989655133119565988e+00) (168, -1.08487123306607549655e-01) (169, -4.06779774089806867021e-02) (170, -3.61209713479035687822e-02) (171, 7.83813878978967926159e-01) (172, -3.52718733807557416338e-02) (173, 6.45435605283260827036e-01) (174, -1.46150467600440314708e-01) (175, -1.49247912373160651622e-01) (176, 1.37016403178207776814e-02) (177, -8.95904585078324600111e-01) (178, -6.90043362139818650114e-01) (179, -1.08197355326031988132e-01) (180, -8.03540541400074026512e-01) (181, -1.30215601446628581606e-01) (182, -4.35228428044814596998e-01) (183, -4.40783223496628406846e-01) (184, -8.20526389946102163719e-01) (185, -7.75336919893383047508e-01) (186, -7.68446533550380728173e-01) (187, -7.67656802049816899824e-01) (188, -8.64470353891014120506e-01) (189, -9.45539190043567678856e-01) (190, -3.15870609128109958164e+00) (191, -1.08807666436913286212e+00) (192, -1.12159221456530344696e+00) (193, -1.13083335594418299408e+00) (194, -3.13357778259746577731e+00) (195, -3.07792097696296718112e+00) (196, -2.28482460261096953502e+00) (197, -2.29217435822596549144e+00) (198, -3.07096593448154475681e+00) (199, -8.45326280762313864159e-01) (200, -7.84866883029102346825e-01) (201, -4.40405177651582990794e-01) (202, -2.25383844257106780162e+00) (203, -1.12454201863291514130e+00) (204, -3.10599188872806575290e+00) (205, -3.11682552465431239597e+00) (206, -1.30644761760392880134e+00) (207, 5.82711579703158344401e-01) (208, -1.36317193125048374824e+00) (209, -1.38047830749908184700e+00) (210, -2.43172850882957536367e-01) (211, -8.94981477915745143870e-02) (212, 6.53843518431663994761e-01) (213, -1.06557404305552785861e-01) (214, 3.11689895007992934239e-01) (215, 4.62544475112343977941e-01) (216, 3.12326405558968733800e-01) (217, -1.13211151841066601231e-01) (218, -3.20589325198165919772e+00) (219, -4.59232755561822247881e-02) (220, -8.01540734528658482816e-01) (221, 7.18855866008191513039e-01) (222, -6.22450640947759037402e-01) (223, 7.12497077967405578747e-01) (224, 7.54270166243791839733e-01) (225, 7.27408774282217285290e-01) (226, 2.69880982430503735259e+00) (227, 3.01770107069246318332e+00) (228, 7.73114174689531585827e-01) (229, 7.93695673431635162487e-01) (230, 7.12219722654104492321e-01) (231, -2.65254133006089486135e-02) (232, 6.61977928216934685679e-01) (233, 2.84545200632737049773e+00) (234, 5.47522035384011784842e-01) (235, 6.03539714613025163326e-03) (236, 6.13123987757993260672e-01) (237, 2.94588361206425064509e-01) (238, -6.64011972307322007048e-01) (239, -2.57526241799348153128e-02) (240, -7.17413952550824060572e-03) (241, 1.41771923148951817240e+00) (242, 1.56895791705480558420e+00) (243, -1.57997620906447699962e-01) (244, -1.16788757648085897434e-01) (245, 7.58699685420274994030e-01) (246, 2.83505759702847370818e+00) (247, 3.08723316707841899387e+00) (248, 3.49671611585681413326e-03) (249, 3.00227350930220293623e-02) (250, 2.62671358326918222281e-02) (251, 1.79686642626768686148e-02) (252, 2.70969326736257443144e+00) (253, 2.68172830657885441497e+00) (254, -7.42012464066498927950e-02) (255, -1.54887934829806617198e-01) (256, 6.73924838149381200125e-01) (257, 1.57401848550668699289e+00) (258, -8.07915905772802922513e-01) (259, -4.12671097179406476396e-02) (260, -4.02207203765862775224e-02) (261, 3.99323147151852797521e-01) (262, 1.49580176513424856211e+00) (263, 1.62035810168615324045e+00) (264, 2.76135776462925364161e-01) (265, 2.45961819115055491114e-01) (266, 1.58671989258161527658e+00) (267, 1.63999629732004148508e+00) (268, -1.57560689057921698986e-01) (269, -6.45472981592171979326e-02) (270, 6.54941295230222264578e-01) (271, 6.79230679714513341239e-01) (272, 6.08860467517209569266e-01) (273, 6.62311986173868660899e-01) (274, -2.07965603074963117924e-03) (275, -3.12410049696915902151e-02) (276, 5.34990397238565007498e-01) (277, 1.58238785680166227365e+00) (278, -8.14736889957544896390e-01) (279, 1.51743985156065561148e-02) (280, -3.05309199353211678518e-02) (281, 4.71542958531762312901e-01) (282, 4.37469501409913252843e-01) (283, 1.41358134293875981058e+00) (284, 5.39052379274201909354e-01) (285, 1.26787157872638989176e+00) (286, 1.41901980483851719583e+00) (287, 6.89664502584767857840e-01) (288, 6.94310729348493138602e-01) (289, 7.22478722178769627860e-01) (290, 6.08723794066739598563e-01) (291, -6.92227311988824062228e-02) (292, -4.55108859201424909013e-02) (293, 7.42938339795351287975e-01) (294, -9.18061264415734462618e-02) (295, -1.38267350997542670665e-01) (296, 5.38653646552396336844e-01) (297, 1.45524015988937360788e+00) (298, 6.30178727865228910376e-02) (299, -1.42219764794921210704e-01) (300, -5.22486322184556317705e-02) (301, -9.58397021493847742213e-03) (302, 4.57698230061913680089e-01) (303, 4.77299142990494917882e-01) (304, 2.92061057303334425939e-01) (305, 1.36022190893016148294e+00) (306, 6.46023620807958165457e-01) (307, -1.40261297728633216320e-01) (308, -8.86087246795647792696e-02) (309, -3.63397129436486554521e-02) (310, 3.52394975165373491865e-02) (311, -1.58813258316134742198e-01) (312, -4.84703906436913800615e-02) (313, -1.09646373053544320120e-02) (314, 2.68175102213865854117e-02) (315, -3.27307336588853192705e-02) (316, 2.89563632945067095381e-02) (317, 1.62115462835660917307e+00) (318, 4.91020115517443678232e-01) (319, -4.56475277894261011191e-05) (320, 1.70527345875746347281e-02) (321, 1.90321303347593881461e-02) (322, -1.08941970076178853977e-01) (323, -6.81317575832360439181e-02) (324, -4.26965334077828717607e-02) (325, -4.04216997881882977861e-02) (326, -4.60727193017953229326e-02) (327, -2.73556016942017830862e-02) (328, -2.81230263968461312307e-02) (329, -2.69588731785767830862e-02) (330, -9.24897721013958826197e-03) (331, -1.20045272316550558078e-01) (332, -7.62164421936028652071e-02) (333, -3.52243833800309491533e-02) (334, -1.26419765557860663829e-01) (335, -6.78290181418412380099e-02) (336, -1.02953070457791631687e-01) (337, 6.79930244529080907157e-01) (338, -4.77639191409104657549e-02) (339, -3.12353872319215096487e-02) (340, -7.97221787830346279025e-02) (341, -5.21980278750413251299e-02) (342, -2.97222637196534432424e-02) (343, 3.21338273028380083662e-02) (344, -1.02836267705773656833e-01) (345, -4.25783522983544659990e-02) (346, -4.02705200572961163896e-02) (347, -1.13553510661935155857e-01) (348, -6.43652208705895734209e-02) (349, -1.46323075201129249034e-01) (350, -1.53272760715102485118e-01) (351, -8.69860999842637233614e-02) (352, 3.30354369620329546553e-02) (353, -1.01888334061717336643e-01) (354, 5.20853171148364518794e-03) (355, -4.93347026964181256670e-02) (356, 7.01655481898618260672e-01) (357, 6.03101332628560582449e-01) (358, -1.16363918091868703830e-01) (359, -4.97802846690171552080e-02) (360, -1.47170258369063666759e-01) (361, 3.47135163287169146162e-02) (362, -9.49915280542309656275e-03) (363, -6.30602963825219464677e-02) (364, -4.01844807525628400224e-02) (365, 2.44074858168608285758e-02) (366, 2.94370747546202349287e-02) (367, 1.71888417939192392203e-02) (368, -1.89749949236863411917e-02) (369, -5.80004431863778424638e-02) (370, -5.37201591392510724443e-02) (371, -1.38370787407969764171e-01) (372, -1.49872069861506751476e-01) (373, -1.23116029109572713840e-01) (374, -1.45910566355799964366e-01) (375, -9.23819371124261073946e-02) (376, -5.36798467836316003932e-03) (377, -2.58546822329514779104e-02) (378, -4.56090547700875592607e-02) (379, -1.09406808074330633151e-01) (380, -1.18513607045167244924e-02) (381, -3.85554187556260419267e-02) (382, -3.60665076037400555986e-02) (383, -1.84895299931519783987e-02) (384, 1.98826439122206308219e-02) (385, -7.05315821429246120333e-02) (386, -1.07497835214948003757e-01) (387, -1.77459945878918196049e-03) (388, 9.25702819624010103672e-03) (389, -6.35353528519624066728e-02) (390, -9.12284829278939418673e-02) (391, 2.24131591061598398062e-02) (392, -6.84954576750748805880e-02) (393, -1.40401241983985236583e-01) (394, -8.03207360764496974825e-02) (395, -1.48353552128886512218e-01) (396, -1.55667369868373206554e-01) (397, -9.05572601219170741915e-02) (398, 2.91616863945967363936e-02) (399, -1.43159680624955452932e-02) (400, 4.45765524732686491127e-01) (0, -5.65366939343599217427e-02) (1, 1.53350263200613262660e-02) (2, 2.99183904491277935511e-02) (3, -1.93263114132074115270e-02) (4, 2.97508566938253643519e-02) (5, -1.02137149188676251699e-01) (6, -6.43679023422387974751e-02) (7, -3.57774392403749225133e-02) (8, 1.25801890455099346644e-02) (9, -1.34483248628762958043e-02) (10, -8.73023987449792759907e-02) (11, -6.56488285102037327778e-02) (12, -8.91884312667039769185e-02) (13, -1.45465534988799466420e-01) (14, -8.54397908486513035786e-02) (15, 6.06375869354844332371e-04) (16, -9.26369734741834538472e-02) (17, -1.26887996558108701040e-01) (18, -2.98102021850732562536e-02) (19, 4.15407412870848202768e-03) (20, -5.77900827564386265767e-02) (21, -4.70706344284204381001e-02) (22, -1.04014993522324933339e-01) (23, -3.78649354614404437536e-02) (24, 3.29350262246938946253e-02) (25, -9.20421451963571446431e-02) (26, -3.32059011496690509313e-02) (27, -9.72958513237623112690e-02) (28, -1.02554068777718915273e-01) (29, -8.71954829134134190571e-02) (30, -1.25200767878451718618e-01) (31, -6.45975476876771426138e-03) (32, -1.19229440454402341176e-01) (33, -1.42651361290374173452e-01) (34, -7.31550574936059849751e-02) (35, -1.36847575072207822133e-01) (36, -9.21574988104490178120e-02) (37, 1.51080518327566387660e-02) (38, -1.99940026439813373083e-02) (39, -1.26946297351279629995e-01) (40, -4.57092643417505162251e-02) (41, 4.53345953784796001917e-02) (42, -3.99641141928819415563e-02) (43, 1.77333086095663311488e-02) (44, -1.47499923471370114614e-01) (45, 2.72271066270681622035e-02) (46, -2.90292993821290729040e-02) (47, -8.75058815516618626607e-02) (48, -1.47029888693251981069e-01) (49, -1.06208489153542889882e-01) (50, -1.30720806185164822866e-01) (51, -5.21889597810892003071e-02) (52, -4.05000203272268544108e-01) (53, -4.86456871947214375407e-01) (54, -5.41774966737196272959e-01) (55, -4.19434168359205494792e-01) (56, -4.25868012925550709635e-01) (57, -4.22349863668844471842e-01) (58, 3.04512737158892710099e-01) (59, 2.85610138736578228480e-02) (60, -1.52562250260272397329e-01) (61, -5.36668770929739302744e-01) (62, -5.76197743024080555330e-02) (63, -2.41092289745316851191e-01) (64, -1.22337040368476285268e-01) (65, -1.45791766110816373159e-01) (66, -1.03377249900260342885e-01) (67, -6.18635237850335972798e-02) (68, 2.19472973905416729457e-02) (69, -3.75092321058676014811e-01) (70, -4.40530897101328144938e-01) (71, -4.75483038445875416667e-01) (72, -3.77126702090666066081e-01) (73, -5.27864002605840987314e-01) (74, -1.33118686785861833899e-01) (75, 4.40184219185901781657e-06) (76, -1.76005871554777010290e-01) (77, -3.81516986509725819499e-01) (78, 1.61741254691241342911e-01) (79, -1.38052691582599057485e-01) (80, -1.30742390517154111196e-01) (81, -1.12960258087083681433e-01) (82, -1.59542242943749773554e-01) (83, -4.72691120922075047606e-01) (84, -1.00819886364129779333e-02) (85, -2.24025071300653216833e-02) (86, -4.12105665244249103063e-02) (87, -7.89668903388170140278e-02) (88, -4.92121369561121235758e-01) (89, -1.70258100091920244745e-01) (90, -5.91706490486369807158e-01) (91, -5.81632154404626566802e-01) (92, -5.21943794905648905669e-01) (93, -4.64343207299218907469e-01) (94, -1.76161798595891344599e-01) (95, -4.02070277353689442545e-01) (96, -3.67924400588438282877e-01) (97, -4.97643357888734316763e-03) (98, 1.57308948997614939103e-01) (99, 4.59806032510839901573e-01) (100, -4.27437745949194203288e-01) (101, -1.12430113315091451121e-01) (102, -6.01425590335832316313e-01) (103, -1.00504812778529117878e+00) (104, -9.23198277071084594247e-01) (105, -5.56295857466844456685e-02) (106, -5.82417965568689244282e-02) (107, -5.56754314323828047861e-01) (108, -2.02095086633668291620e-01) (109, -5.02060817896829325591e-01) (110, -1.37823914054789914418e-01) (111, -1.02009372593459080036e+00) (112, -1.09792524011429737385e+00) (113, -9.84622398331727599619e-01) (114, -2.06334958731637346796e-01) (115, -1.15488964080319722605e-01) (116, -4.96927139332458744914e-01) (117, 2.70170896612020733363e-02) (118, 7.09163695568891250254e-02) (119, 4.21086713703714810020e-01) (120, -4.73030471226141224772e-01) (121, -1.86968701838956224970e-01) (122, -4.56714468419061436766e-01) (123, -1.10587840707596729573e+00) (124, -8.28176558651117222798e-02) (125, -6.43820435442117589009e-02) (126, 1.08532636724325420863e-02) (127, -2.15690574556098330072e-01) (128, -6.10659087419019419585e-01) (129, -1.43466432455935849477e-01) (130, -1.30121980670848264028e-01) (131, -9.49000978782739257333e-01) (132, 1.86660616956564190394e-02) (133, -1.04680378915366123493e+00) (134, -7.77803853787568943989e-02) (135, -1.12013953685269673777e-01) (136, -1.09915110229955037546e-01) (137, 1.66088371835561993128e-02) (138, 2.00956039130196134623e-01) (139, 3.33284065159403286582e-01) (140, -4.43241440674230824381e-01) (141, -9.69780710930684408666e-02) (142, -3.08357158669464137546e+00) (143, 1.02538914309804496394e-01) (144, -4.52190086878923314107e-02) (145, 4.70678239427419903285e-02) (146, -4.67643157562181721598e-01) (147, -1.07094663142667134714e-01) (148, -4.67215719043718114012e-01) (149, -3.05533081926492450231e-02) (150, -6.02453843392518895161e-02) (151, -1.05115032376345585163e+00) (152, -1.42959390643992795278e-01) (153, -1.03221608133610676106e+00) (154, -1.04257886292036960896e+00) (155, -4.77498122474119435221e-01) (156, -1.04079860209927876902e-01) (157, -1.17275734309115781118e-01) (158, 1.76535613834366361674e-01) (159, 3.02555337580286354271e-01) (160, -5.12463231554195708384e-01) (161, -1.13696563004956563425e-01) (162, -3.04320755967132594577e+00) (163, -1.09863293351229618366e+00) (164, -1.24118891421714200307e-01) (165, -1.05945189360537900258e-01) (166, -3.78617503663465748698e-01) (167, -1.02179072634461198810e+00) (168, -1.36705358389773740102e-01) (169, -1.14879727996972796911e-02) (170, -1.22356359723964108754e-01) (171, -9.84782556012239074228e-01) (172, -3.39034468568948504918e-02) (173, -9.52704036548699950693e-01) (174, -9.26974200345662968648e-02) (175, -1.26491446856418027211e-01) (176, -6.47411757865012704727e-01) (177, 1.61324761620810830376e-01) (178, 2.31786124407753507670e-01) (179, 4.36960615249716244346e-01) (180, 7.18871143661430345162e-01) (181, 1.09560742251020215576e+00) (182, 1.69208591805001945518e-01) (183, 3.09592499571231860589e-01) (184, 8.15746863387516008004e-01) (185, 7.23482039771965013131e-01) (186, 8.08027734063556657418e-01) (187, 7.23523928466850430041e-01) (188, 7.58837317131450639351e-01) (189, 7.46384744547298417672e-01) (190, 1.17303041089931214813e+00) (191, 5.28729508164299755180e-01) (192, 4.32623120489491308494e-01) (193, 4.89823448005093420310e-01) (194, 1.19958861638465608124e+00) (195, 1.11617740709939683441e+00) (196, 1.04105776784028658533e+00) (197, 1.02746054765786776208e+00) (198, 1.10933702905336106781e+00) (199, 8.27062581680706010445e-01) (200, 7.38682736657550798043e-01) (201, 1.41391807431783478322e+00) (202, 9.86650737496277185912e-01) (203, 3.82782632949723089499e-01) (204, 1.10135750193753922943e+00) (205, 1.19707797933974946503e+00) (206, 7.42085427040906631113e-02) (207, -7.73988673248351632949e-01) (208, 6.78845780650734753614e-01) (209, 5.90066167275071107312e-01) (210, 2.37232955074310122856e-02) (211, 3.78322960710525402206e-02) (212, -9.98819248691167449472e-01) (213, 2.71194159351202251917e-02) (214, -8.18398640193132298482e-02) (215, -6.87734604515222447407e-02) (216, -9.69184794165281193745e-02) (217, -2.10911600155333417428e-01) (218, 1.05050165672460282806e+00) (219, 4.63198967310034237510e-01) (220, 2.41792423490641672501e-01) (221, 6.23064199817654484903e-02) (222, 1.71790144845725356593e-01) (223, -9.24555221512879943369e-01) (224, -1.02985545428093860920e+00) (225, -1.01992850185927341755e+00) (226, -6.64312215998734689748e-01) (227, -1.05972300012269693426e+00) (228, -1.06990872131284664448e+00) (229, -9.54909631922807311533e-01) (230, -1.08669579209383915241e+00) (231, -1.69270456470636126989e-02) (232, -1.04323236824568699177e+00) (233, -6.05485791817273244497e-01) (234, -4.11388748308584462077e-01) (235, -7.99043184892213320669e-03) (236, -4.50875484367773304850e-01) (237, -4.64938359677301182860e-01) (238, 2.17686913907036344584e-01) (239, 3.20693723889433346397e-01) (240, -1.41369257930674924184e-01) (241, -2.98154443110674183259e-02) (242, -2.60269622265801747751e-01) (243, -2.57386387027887103551e-02) (244, -1.77129775919107196325e-02) (245, -1.02936572761830280598e+00) (246, -7.31699923530186868703e-01) (247, -9.17303848160893497976e-01) (248, -3.62479136027482745641e-02) (249, -1.19313855532565488149e-01) (250, 5.02948754652464413706e-03) (251, -1.06084131512799634267e-01) (252, -7.41469460085000253713e-01) (253, -6.61922174051369882619e-01) (254, -1.16189484361567868520e-01) (255, -6.70562133826402562153e-02) (256, -3.81934055110380421549e-01) (257, -1.59983458876119005732e-01) (258, 1.71964816748604337748e-01) (259, 3.15759219261251777855e-01) (260, -7.85116226114419835103e-02) (261, -3.95442807098791371256e-01) (262, -1.19268464803204854441e-01) (263, -1.29225718736157735300e-01) (264, -5.48058303415284830962e-01) (265, -5.45674154877172190581e-01) (266, -1.84585149347291338495e-01) (267, -2.69950668274865468454e-01) (268, -7.01182455457834141743e-02) (269, -8.31452355422166722310e-02) (270, -5.27846456488535231699e-01) (271, -4.63208571990892659098e-01) (272, -5.32329694351122206797e-01) (273, -1.07102024362977932270e+00) (274, -1.31964121822276486684e-01) (275, 6.94041245802366757456e-03) (276, -4.28469323536321888835e-01) (277, -2.43145803868279802851e-01) (278, 1.88380591570839445170e-01) (279, 3.41065898569666348106e-01) (280, -8.78970444835809605610e-02) (281, -4.49120604416296254069e-01) (282, -4.65539352020189534098e-01) (283, -1.19268716832563265173e-01) (284, -3.68592941185400257975e-01) (285, -5.70978015269487659822e-02) (286, -3.36939185466020862947e-02) (287, -3.93543892523214589030e-01) (288, -5.14518671652242964853e-01) (289, -4.71907743235990773112e-01) (290, -3.73953708430692921549e-01) (291, -3.60471949614671466344e-02) (292, -1.06015373829760922719e-01) (293, -9.76126352265443419931e-01) (294, -9.07103129364637272847e-02) (295, -7.51103169099366640982e-03) (296, -5.17771099677250212778e-01) (297, -1.22664454340443929148e-01) (298, -6.59124487795890390274e-01) (299, 4.17893797191225491172e-01) (300, -1.31247070495047940542e-01) (301, 2.62375354133459331996e-02) (302, -5.41483812948629683603e-01) (303, -5.10945756902859038462e-01) (304, -5.34684919735357588877e-01) (305, -1.48816899916097505896e-01) (306, -5.51374332031175917734e-01) (307, -1.81907123700654482779e-03) (308, -8.50480318702844517720e-02) (309, 3.17974680288755917612e-03) (310, 4.30777847133489849574e-02) (311, -2.03140646852639911168e-02) (312, -8.89577761925844090474e-02) (313, -6.54784784354356663716e-02) (314, 4.54002796970220806605e-02) (315, -1.00567624781289471914e-01) (316, -1.37593206826606168081e-01) (317, -1.25242191314206441355e-01) (318, -7.93353834905685229018e-01) (319, -9.51287903525022404683e-02) (320, -1.18235234979548825551e-01) (321, 4.59009438119741680628e-02) (322, 2.14550226293417217738e-02) (323, -7.16195971407083409321e-02) (324, -1.57755435146478412145e-02) (325, -1.16624285344043149282e-01) (326, -1.26499627593913449575e-01) (327, 2.34364449344488384730e-02) (328, 3.52738826833578350550e-02) (329, 2.32322990260931255824e-02) (330, -5.48388034738687413228e-02) (331, -1.43342179123320950795e-01) (332, 2.10084312780821347300e-03) (333, -3.93395171202806231969e-02) (334, -9.73048404492524998677e-02) (335, 2.43990003429266216761e-02) (336, -3.17334837094819521841e-03) (337, -4.96048160811826954752e-01) (338, -2.47890622057107684606e-02) (339, -1.35590371552863492299e-01) (340, -1.35885332588115109731e-01) (341, -2.90802762545732257360e-02) (342, -3.27342456952607607779e-03) (343, -7.22120971120981114399e-02) (344, -1.41927731100478543569e-01) (345, -5.24215108529603457388e-03) (346, -2.01487064994958636754e-02) (347, -1.26889933709063901235e-01) (348, -5.59217155613092320454e-02) (349, -4.64613443986451601919e-03) (350, -6.93877086676744359028e-02) (351, -2.15259463228372333043e-02) (352, -6.11419684068238711294e-03) (353, -9.53016736246732609761e-02) (354, -1.40514534775176419545e-01) (355, -6.92587316669610875142e-02) (356, -4.63647023757860432536e-01) (357, -5.18735230883524245371e-01) (358, -9.31912854947236912739e-02) (359, -7.13900447525171177876e-02) (360, -1.38519850436606778432e-01) (361, 4.60093015058958554331e-03) (362, -6.21012122072366612446e-02) (363, 1.62120043598028423792e-02) (364, -8.21075857319024937642e-02) (365, -6.77504843846833681997e-03) (366, -6.75798660890138125357e-03) (367, -1.32649925414481534292e-01) (368, -1.45840112928309811879e-01) (369, -7.89160475768236058247e-02) (370, -1.15609292749324216176e-01) (371, -1.29094433847823514272e-01) (372, 4.46347027383657696253e-02) (373, 3.37482868991705181605e-02) (374, -4.86755267419008152974e-02) (375, -1.44662027124324216176e-01) (376, -1.88628405965951678747e-02) (377, -1.16193224553027524282e-01) (378, -1.18920949164786710073e-01) (379, -1.22153554920115842153e-01) (380, 3.17916452251287701136e-02) (381, -3.56776461638597247594e-02) (382, 8.95150297506773495737e-03) (383, -2.16915429271844623083e-02) (384, 2.16517030559393169886e-02) (385, 2.10679947696539165980e-02) (386, -1.38319258455195798208e-01) (387, -8.50122318305162327778e-02) (388, -1.40684154693045987417e-01) (389, -7.88795322813180821431e-02) (390, -3.77127236501252627310e-03) (391, -1.26572993461051358510e-01) (392, -1.21647593442359341909e-01) (393, -1.13241479609170331289e-01) (394, 4.22700076661916973597e-02) (395, -5.11241675056604283345e-02) (396, 3.26144873462530376917e-02) (397, -1.18569702543405292028e-02) (398, -3.11430961527017352575e-02) (399, 3.94053786359640362269e-02) (400, 3.38985679871865397406e-01) (0, -3.18593760614568621836e-01) (1, -4.61530429904634387217e-01) (2, -4.65348695998365313731e-01) (3, -3.32214465027028948985e-01) (4, -3.57574937527353198252e-01) (5, -4.57379711454088122569e-01) (6, 