FANN_FLO_2.1
num_layers=3
learning_rate=0.700000
connection_rate=1.000000
network_type=0
learning_momentum=0.000000
training_algorithm=2
train_error_function=1
train_stop_function=0
cascade_output_change_fraction=0.010000
quickprop_decay=-0.000100
quickprop_mu=1.750000
rprop_increase_factor=1.200000
rprop_decrease_factor=0.500000
rprop_delta_min=0.000000
rprop_delta_max=50.000000
rprop_delta_zero=0.100000
cascade_output_stagnation_epochs=12
cascade_candidate_change_fraction=0.010000
cascade_candidate_stagnation_epochs=12
cascade_max_out_epochs=150
cascade_min_out_epochs=50
cascade_max_cand_epochs=150
cascade_min_cand_epochs=50
cascade_num_candidate_groups=2
bit_fail_limit=3.49999999999999977796e-01
cascade_candidate_limit=1.00000000000000000000e+03
cascade_weight_multiplier=4.00000000000000022204e-01
cascade_activation_functions_count=10
cascade_activation_functions=3 5 7 8 10 11 14 15 16 17 
cascade_activation_steepnesses_count=4
cascade_activation_steepnesses=2.50000000000000000000e-01 5.00000000000000000000e-01 7.50000000000000000000e-01 1.00000000000000000000e+00 
layer_sizes=401 51 6 
scale_included=0
neurons (num_inputs, activation_function, activation_steepness)=(0, 0, 0.00000000000000000000e+00) (0, 0, 0.00000000000000000000e+00) (0, 0, 0.00000000000000000000e+00) (0, 0, 0.00000000000000000000e+00) (0, 0, 0.00000000000000000000e+00) (0, 0, 0.00000000000000000000e+00) (0, 0, 0.00000000000000000000e+00) (0, 0, 0.00000000000000000000e+00) (0, 0, 0.00000000000000000000e+00) (0, 0, 0.00000000000000000000e+00) (0, 0, 0.00000000000000000000e+00) (0, 0, 0.00000000000000000000e+00) (0, 0, 0.00000000000000000000e+00) (0, 0, 0.00000000000000000000e+00) (0, 0, 0.00000000000000000000e+00) (0, 0, 0.00000000000000000000e+00) (0, 0, 0.00000000000000000000e+00) (0, 0, 0.00000000000000000000e+00) (0, 0, 0.00000000000000000000e+00) (0, 0, 0.00000000000000000000e+00) (0, 0, 0.00000000000000000000e+00) (0, 0, 0.00000000000000000000e+00) (0, 0, 0.00000000000000000000e+00) (0, 0, 0.00000000000000000000e+00) (0, 0, 0.00000000000000000000e+00) (0, 0, 0.00000000000000000000e+00) (0, 0, 0.00000000000000000000e+00) (0, 0, 0.00000000000000000000e+00) (0, 0, 0.00000000000000000000e+00) (0, 0, 0.00000000000000000000e+00) (0, 0, 0.00000000000000000000e+00) (0, 0, 0.00000000000000000000e+00) (0, 0, 0.00000000000000000000e+00) (0, 0, 0.00000000000000000000e+00) (0, 0, 0.00000000000000000000e+00) (0, 0, 0.00000000000000000000e+00) (0, 0, 0.00000000000000000000e+00) (0, 0, 0.00000000000000000000e+00) (0, 0, 0.00000000000000000000e+00) (0, 0, 0.00000000000000000000e+00) (0, 0, 0.00000000000000000000e+00) (0, 0, 0.00000000000000000000e+00) (0, 0, 0.00000000000000000000e+00) (0, 0, 0.00000000000000000000e+00) (0, 0, 0.00000000000000000000e+00) (0, 0, 0.00000000000000000000e+00) (0, 0, 0.00000000000000000000e+00) (0, 0, 0.00000000000000000000e+00) (0, 0, 0.00000000000000000000e+00) (0, 0, 0.00000000000000000000e+00) (0, 0, 0.00000000000000000000e+00) (0, 0, 0.00000000000000000000e+00) (0, 0, 0.00000000000000000000e+00) (0, 0, 0.00000000000000000000e+00) (0, 0, 0.00000000000000000000e+00) (0, 0, 0.00000000000000000000e+00) (0, 0, 0.00000000000000000000e+00) (0, 0, 0.00000000000000000000e+00) (0, 0, 0.00000000000000000000e+00) (0, 0, 0.00000000000000000000e+00) (0, 0, 0.00000000000000000000e+00) (0, 0, 0.00000000000000000000e+00) (0, 0, 0.00000000000000000000e+00) (0, 0, 0.00000000000000000000e+00) (0, 0, 0.00000000000000000000e+00) (0, 0, 0.00000000000000000000e+00) (0, 0, 0.00000000000000000000e+00) (0, 0, 0.00000000000000000000e+00) (0, 0, 0.00000000000000000000e+00) (0, 0, 0.00000000000000000000e+00) (0, 0, 0.00000000000000000000e+00) (0, 0, 0.00000000000000000000e+00) (0, 0, 0.00000000000000000000e+00) (0, 0, 0.00000000000000000000e+00) (0, 0, 0.00000000000000000000e+00) (0, 0, 0.00000000000000000000e+00) (0, 0, 0.00000000000000000000e+00) (0, 0, 0.00000000000000000000e+00) (0, 0, 0.00000000000000000000e+00) (0, 0, 0.00000000000000000000e+00) (0, 0, 0.00000000000000000000e+00) (0, 0, 0.00000000000000000000e+00) (0, 0, 0.00000000000000000000e+00) (0, 0, 0.00000000000000000000e+00) (0, 0, 0.00000000000000000000e+00) (0, 0, 0.00000000000000000000e+00) (0, 0, 0.00000000000000000000e+00) (0, 0, 0.00000000000000000000e+00) (0, 0, 0.00000000000000000000e+00) (0, 0, 0.00000000000000000000e+00) (0, 0, 0.00000000000000000000e+00) (0, 0, 0.00000000000000000000e+00) (0, 0, 0.00000000000000000000e+00) (0, 0, 0.00000000000000000000e+00) (0, 0, 0.00000000000000000000e+00) (0, 0, 0.00000000000000000000e+00) (0, 0, 0.00000000000000000000e+00) (0, 0, 0.00000000000000000000e+00) (0, 0, 0.00000000000000000000e+00) (0, 0, 0.00000000000000000000e+00) (0, 0, 0.00000000000000000000e+00) (0, 0, 0.00000000000000000000e+00) (0, 0, 0.00000000000000000000e+00) (0, 0, 0.00000000000000000000e+00) (0, 0, 0.00000000000000000000e+00) (0, 0, 0.00000000000000000000e+00) (0, 0, 0.00000000000000000000e+00) (0, 0, 0.00000000000000000000e+00) (0, 0, 0.00000000000000000000e+00) (0, 0, 0.00000000000000000000e+00) (0, 0, 0.00000000000000000000e+00) (0, 0, 0.00000000000000000000e+00) (0, 0, 0.00000000000000000000e+00) (0, 0, 0.00000000000000000000e+00) (0, 0, 0.00000000000000000000e+00) (0, 0, 0.00000000000000000000e+00) (0, 0, 0.00000000000000000000e+00) (0, 0, 0.00000000000000000000e+00) (0, 0, 0.00000000000000000000e+00) (0, 0, 0.00000000000000000000e+00) (0, 0, 0.00000000000000000000e+00) (0, 0, 0.00000000000000000000e+00) (0, 0, 0.00000000000000000000e+00) (0, 0, 0.00000000000000000000e+00) (0, 0, 0.00000000000000000000e+00) (0, 0, 0.00000000000000000000e+00) (0, 0, 0.00000000000000000000e+00) (0, 0, 0.00000000000000000000e+00) (0, 0, 0.00000000000000000000e+00) (0, 0, 0.00000000000000000000e+00) (0, 0, 0.00000000000000000000e+00) (0, 0, 0.00000000000000000000e+00) (0, 0, 0.00000000000000000000e+00) (0, 0, 0.00000000000000000000e+00) (0, 0, 0.00000000000000000000e+00) (0, 0, 0.00000000000000000000e+00) (0, 0, 0.00000000000000000000e+00) (0, 0, 0.00000000000000000000e+00) (0, 0, 0.00000000000000000000e+00) (0, 0, 0.00000000000000000000e+00) (0, 0, 0.00000000000000000000e+00) (0, 0, 0.00000000000000000000e+00) (0, 0, 0.00000000000000000000e+00) (0, 0, 0.00000000000000000000e+00) (0, 0, 0.00000000000000000000e+00) (0, 0, 0.00000000000000000000e+00) (0, 0, 0.00000000000000000000e+00) (0, 0, 0.00000000000000000000e+00) (0, 0, 0.00000000000000000000e+00) (0, 0, 0.00000000000000000000e+00) (0, 0, 0.00000000000000000000e+00) (0, 0, 0.00000000000000000000e+00) (0, 0, 0.00000000000000000000e+00) (0, 0, 0.00000000000000000000e+00) (0, 0, 0.00000000000000000000e+00) (0, 0, 0.00000000000000000000e+00) (0, 0, 0.00000000000000000000e+00) (0, 0, 0.00000000000000000000e+00) (0, 0, 0.00000000000000000000e+00) (0, 0, 0.00000000000000000000e+00) (0, 0, 0.00000000000000000000e+00) (0, 0, 0.00000000000000000000e+00) (0, 0, 0.00000000000000000000e+00) (0, 0, 0.00000000000000000000e+00) (0, 0, 0.00000000000000000000e+00) (0, 0, 0.00000000000000000000e+00) (0, 0, 0.00000000000000000000e+00) (0, 0, 0.00000000000000000000e+00) (0, 0, 0.00000000000000000000e+00) (0, 0, 0.00000000000000000000e+00) (0, 0, 0.00000000000000000000e+00) (0, 0, 0.00000000000000000000e+00) (0, 0, 0.00000000000000000000e+00) (0, 0, 0.00000000000000000000e+00) (0, 0, 0.00000000000000000000e+00) (0, 0, 0.00000000000000000000e+00) (0, 0, 0.00000000000000000000e+00) (0, 0, 0.00000000000000000000e+00) (0, 0, 0.00000000000000000000e+00) (0, 0, 0.00000000000000000000e+00) (0, 0, 0.00000000000000000000e+00) (0, 0, 0.00000000000000000000e+00) (0, 0, 0.00000000000000000000e+00) (0, 0, 0.00000000000000000000e+00) (0, 0, 0.00000000000000000000e+00) (0, 0, 0.00000000000000000000e+00) (0, 0, 0.00000000000000000000e+00) (0, 0, 0.00000000000000000000e+00) (0, 0, 0.00000000000000000000e+00) (0, 0, 0.00000000000000000000e+00) (0, 0, 0.00000000000000000000e+00) (0, 0, 0.00000000000000000000e+00) (0, 0, 0.00000000000000000000e+00) (0, 0, 0.00000000000000000000e+00) (0, 0, 0.00000000000000000000e+00) (0, 0, 0.00000000000000000000e+00) (0, 0, 0.00000000000000000000e+00) (0, 0, 0.00000000000000000000e+00) (0, 0, 0.00000000000000000000e+00) (0, 0, 0.00000000000000000000e+00) (0, 0, 0.00000000000000000000e+00) (0, 0, 0.00000000000000000000e+00) (0, 0, 0.00000000000000000000e+00) (0, 0, 0.00000000000000000000e+00) (0, 0, 0.00000000000000000000e+00) (0, 0, 0.00000000000000000000e+00) (0, 0, 0.00000000000000000000e+00) (0, 0, 0.00000000000000000000e+00) (0, 0, 0.00000000000000000000e+00) (0, 0, 0.00000000000000000000e+00) (0, 0, 0.00000000000000000000e+00) (0, 0, 0.00000000000000000000e+00) (0, 0, 0.00000000000000000000e+00) (0, 0, 0.00000000000000000000e+00) (0, 0, 0.00000000000000000000e+00) (0, 0, 0.00000000000000000000e+00) (0, 0, 0.00000000000000000000e+00) (0, 0, 0.00000000000000000000e+00) (0, 0, 0.00000000000000000000e+00) (0, 0, 0.00000000000000000000e+00) (0, 0, 0.00000000000000000000e+00) (0, 0, 0.00000000000000000000e+00) (0, 0, 0.00000000000000000000e+00) (0, 0, 0.00000000000000000000e+00) (0, 0, 0.00000000000000000000e+00) (0, 0, 0.00000000000000000000e+00) (0, 0, 0.00000000000000000000e+00) (0, 0, 0.00000000000000000000e+00) (0, 0, 0.00000000000000000000e+00) (0, 0, 0.00000000000000000000e+00) (0, 0, 0.00000000000000000000e+00) (0, 0, 0.00000000000000000000e+00) (0, 0, 0.00000000000000000000e+00) (0, 0, 0.00000000000000000000e+00) (0, 0, 0.00000000000000000000e+00) (0, 0, 0.00000000000000000000e+00) (0, 0, 0.00000000000000000000e+00) (0, 0, 0.00000000000000000000e+00) (0, 0, 0.00000000000000000000e+00) (0, 0, 0.00000000000000000000e+00) (0, 0, 0.00000000000000000000e+00) (0, 0, 0.00000000000000000000e+00) (0, 0, 0.00000000000000000000e+00) (0, 0, 0.00000000000000000000e+00) (0, 0, 0.00000000000000000000e+00) (0, 0, 0.00000000000000000000e+00) (0, 0, 0.00000000000000000000e+00) (0, 0, 0.00000000000000000000e+00) (0, 0, 0.00000000000000000000e+00) (0, 0, 0.00000000000000000000e+00) (0, 0, 0.00000000000000000000e+00) (0, 0, 0.00000000000000000000e+00) (0, 0, 0.00000000000000000000e+00) (0, 0, 0.00000000000000000000e+00) (0, 0, 0.00000000000000000000e+00) (0, 0, 0.00000000000000000000e+00) (0, 0, 0.00000000000000000000e+00) (0, 0, 0.00000000000000000000e+00) (0, 0, 0.00000000000000000000e+00) (0, 0, 0.00000000000000000000e+00) (0, 0, 0.00000000000000000000e+00) (0, 0, 0.00000000000000000000e+00) (0, 0, 0.00000000000000000000e+00) (0, 0, 0.00000000000000000000e+00) (0, 0, 0.00000000000000000000e+00) (0, 0, 0.00000000000000000000e+00) (0, 0, 0.00000000000000000000e+00) (0, 0, 0.00000000000000000000e+00) (0, 0, 0.00000000000000000000e+00) (0, 0, 0.00000000000000000000e+00) (0, 0, 0.00000000000000000000e+00) (0, 0, 0.00000000000000000000e+00) (0, 0, 0.00000000000000000000e+00) (0, 0, 0.00000000000000000000e+00) (0, 0, 0.00000000000000000000e+00) (0, 0, 0.00000000000000000000e+00) (0, 0, 0.00000000000000000000e+00) (0, 0, 0.00000000000000000000e+00) (0, 0, 0.00000000000000000000e+00) (0, 0, 0.00000000000000000000e+00) (0, 0, 0.00000000000000000000e+00) (0, 0, 0.00000000000000000000e+00) (0, 0, 0.00000000000000000000e+00) (0, 0, 0.00000000000000000000e+00) (0, 0, 0.00000000000000000000e+00) (0, 0, 0.00000000000000000000e+00) (0, 0, 0.00000000000000000000e+00) (0, 0, 0.00000000000000000000e+00) (0, 0, 0.00000000000000000000e+00) (0, 0, 0.00000000000000000000e+00) (0, 0, 0.00000000000000000000e+00) (0, 0, 0.00000000000000000000e+00) (0, 0, 0.00000000000000000000e+00) (0, 0, 0.00000000000000000000e+00) (0, 0, 0.00000000000000000000e+00) (0, 0, 0.00000000000000000000e+00) (0, 0, 0.00000000000000000000e+00) (0, 0, 0.00000000000000000000e+00) (0, 0, 0.00000000000000000000e+00) (0, 0, 0.00000000000000000000e+00) (0, 0, 0.00000000000000000000e+00) (0, 0, 0.00000000000000000000e+00) (0, 0, 0.00000000000000000000e+00) (0, 0, 0.00000000000000000000e+00) (0, 0, 0.00000000000000000000e+00) (0, 0, 0.00000000000000000000e+00) (0, 0, 0.00000000000000000000e+00) (0, 0, 0.00000000000000000000e+00) (0, 0, 0.00000000000000000000e+00) (0, 0, 0.00000000000000000000e+00) (0, 0, 0.00000000000000000000e+00) (0, 0, 0.00000000000000000000e+00) (0, 0, 0.00000000000000000000e+00) (0, 0, 0.00000000000000000000e+00) (0, 0, 0.00000000000000000000e+00) (0, 0, 0.00000000000000000000e+00) (0, 0, 0.00000000000000000000e+00) (0, 0, 0.00000000000000000000e+00) (0, 0, 0.00000000000000000000e+00) (0, 0, 0.00000000000000000000e+00) (0, 0, 0.00000000000000000000e+00) (0, 0, 0.00000000000000000000e+00) (0, 0, 0.00000000000000000000e+00) (0, 0, 0.00000000000000000000e+00) (0, 0, 0.00000000000000000000e+00) (0, 0, 0.00000000000000000000e+00) (0, 0, 0.00000000000000000000e+00) (0, 0, 0.00000000000000000000e+00) (0, 0, 0.00000000000000000000e+00) (0, 0, 0.00000000000000000000e+00) (0, 0, 0.00000000000000000000e+00) (0, 0, 0.00000000000000000000e+00) (0, 0, 0.00000000000000000000e+00) (0, 0, 0.00000000000000000000e+00) (0, 0, 0.00000000000000000000e+00) (0, 0, 0.00000000000000000000e+00) (0, 0, 0.00000000000000000000e+00) (0, 0, 0.00000000000000000000e+00) (0, 0, 0.00000000000000000000e+00) (0, 0, 0.00000000000000000000e+00) (0, 0, 0.00000000000000000000e+00) (0, 0, 0.00000000000000000000e+00) (0, 0, 0.00000000000000000000e+00) (0, 0, 0.00000000000000000000e+00) (0, 0, 0.00000000000000000000e+00) (0, 0, 0.00000000000000000000e+00) (0, 0, 0.00000000000000000000e+00) (0, 0, 0.00000000000000000000e+00) (0, 0, 0.00000000000000000000e+00) (0, 0, 0.00000000000000000000e+00) (0, 0, 0.00000000000000000000e+00) (0, 0, 0.00000000000000000000e+00) (0, 0, 0.00000000000000000000e+00) (0, 0, 0.00000000000000000000e+00) (0, 0, 0.00000000000000000000e+00) (0, 0, 0.00000000000000000000e+00) (0, 0, 0.00000000000000000000e+00) (0, 0, 0.00000000000000000000e+00) (0, 0, 0.00000000000000000000e+00) (0, 0, 0.00000000000000000000e+00) (0, 0, 0.00000000000000000000e+00) (0, 0, 0.00000000000000000000e+00) (0, 0, 0.00000000000000000000e+00) (0, 0, 0.00000000000000000000e+00) (0, 0, 0.00000000000000000000e+00) (0, 0, 0.00000000000000000000e+00) (0, 0, 0.00000000000000000000e+00) (0, 0, 0.00000000000000000000e+00) (0, 0, 0.00000000000000000000e+00) (0, 0, 0.00000000000000000000e+00) (0, 0, 0.00000000000000000000e+00) (0, 0, 0.00000000000000000000e+00) (0, 0, 0.00000000000000000000e+00) (0, 0, 0.00000000000000000000e+00) (0, 0, 0.00000000000000000000e+00) (0, 0, 0.00000000000000000000e+00) (0, 0, 0.00000000000000000000e+00) (0, 0, 0.00000000000000000000e+00) (0, 0, 0.00000000000000000000e+00) (0, 0, 0.00000000000000000000e+00) (0, 0, 0.00000000000000000000e+00) (0, 0, 0.00000000000000000000e+00) (0, 0, 0.00000000000000000000e+00) (0, 0, 0.00000000000000000000e+00) (0, 0, 0.00000000000000000000e+00) (0, 0, 0.00000000000000000000e+00) (0, 0, 0.00000000000000000000e+00) (0, 0, 0.00000000000000000000e+00) (0, 0, 0.00000000000000000000e+00) (0, 0, 0.00000000000000000000e+00) (0, 0, 0.00000000000000000000e+00) (0, 0, 0.00000000000000000000e+00) (0, 0, 0.00000000000000000000e+00) (0, 0, 0.00000000000000000000e+00) (0, 0, 0.00000000000000000000e+00) (0, 0, 0.00000000000000000000e+00) (0, 0, 0.00000000000000000000e+00) (0, 0, 0.00000000000000000000e+00) (0, 0, 0.00000000000000000000e+00) (0, 0, 0.00000000000000000000e+00) (0, 0, 0.00000000000000000000e+00) (401, 6, 5.00000000000000000000e-01) (401, 6, 5.00000000000000000000e-01) (401, 6, 5.00000000000000000000e-01) (401, 6, 5.00000000000000000000e-01) (401, 6, 5.00000000000000000000e-01) (401, 6, 5.00000000000000000000e-01) (401, 6, 5.00000000000000000000e-01) (401, 6, 5.00000000000000000000e-01) (401, 6, 5.00000000000000000000e-01) (401, 6, 5.00000000000000000000e-01) (401, 6, 5.00000000000000000000e-01) (401, 6, 5.00000000000000000000e-01) (401, 6, 5.00000000000000000000e-01) (401, 6, 5.00000000000000000000e-01) (401, 6, 5.00000000000000000000e-01) (401, 6, 5.00000000000000000000e-01) (401, 6, 5.00000000000000000000e-01) (401, 6, 5.00000000000000000000e-01) (401, 6, 5.00000000000000000000e-01) (401, 6, 5.00000000000000000000e-01) (401, 6, 5.00000000000000000000e-01) (401, 6, 5.00000000000000000000e-01) (401, 6, 5.00000000000000000000e-01) (401, 6, 5.00000000000000000000e-01) (401, 6, 5.00000000000000000000e-01) (401, 6, 5.00000000000000000000e-01) (401, 6, 5.00000000000000000000e-01) (401, 6, 5.00000000000000000000e-01) (401, 6, 5.00000000000000000000e-01) (401, 6, 5.00000000000000000000e-01) (401, 6, 5.00000000000000000000e-01) (401, 6, 5.00000000000000000000e-01) (401, 6, 5.00000000000000000000e-01) (401, 6, 5.00000000000000000000e-01) (401, 6, 5.00000000000000000000e-01) (401, 6, 5.00000000000000000000e-01) (401, 6, 5.00000000000000000000e-01) (401, 6, 5.00000000000000000000e-01) (401, 6, 5.00000000000000000000e-01) (401, 6, 5.00000000000000000000e-01) (401, 6, 5.00000000000000000000e-01) (401, 6, 5.00000000000000000000e-01) (401, 6, 5.00000000000000000000e-01) (401, 6, 5.00000000000000000000e-01) (401, 6, 5.00000000000000000000e-01) (401, 6, 5.00000000000000000000e-01) (401, 6, 5.00000000000000000000e-01) (401, 6, 5.00000000000000000000e-01) (401, 6, 5.00000000000000000000e-01) (401, 6, 5.00000000000000000000e-01) (0, 6, 0.00000000000000000000e+00) (51, 6, 5.00000000000000000000e-01) (51, 6, 5.00000000000000000000e-01) (51, 6, 5.00000000000000000000e-01) (51, 6, 5.00000000000000000000e-01) (51, 6, 5.00000000000000000000e-01) (0, 6, 0.00000000000000000000e+00) 
connections (connected_to_neuron, weight)=(0, 1.39133580367131942657e-01) (1, 1.85301758687063000686e-01) (2, 1.03651345114274803794e-01) (3, 1.49622597138448498733e-01) (4, 3.19868776603181928508e-02) (5, 1.95078555150468881119e-02) (6, 3.86563654644926160686e-02) (7, 1.34251363913579696563e-01) (8, 1.78855412046476147658e-01) (9, 1.95082091133161328322e-01) (10, 1.90447099844976208693e-01) (11, 1.52109864755113656509e-02) (12, 9.11384749813516775729e-02) (13, 9.44456237955530325534e-02) (14, 1.20689496736093346274e-01) (15, 4.43585555120275297838e-04) (16, -7.83219595388605317396e-04) (17, 1.07519783417745415366e-01) (18, 6.35295141144235631092e-02) (19, 1.92028709094091198928e-01) (20, 3.13490663008289191516e-03) (21, 1.58192970196767590529e-01) (22, 6.29366490645845433338e-02) (23, 8.86089209123094717624e-02) (24, 1.48922953410585458267e-02) (25, 3.70656068186107578999e-01) (26, -6.34886063700797545484e-03) (27, 3.81107058369529044795e-02) (28, -9.02726028121102197499e-02) (29, 5.51693084808822786780e-02) (30, -3.18700064570940633235e-02) (31, -5.31420991414819632315e-02) (32, -1.65409664123657762502e-01) (33, -1.67865766643885194753e-01) (34, -1.00528574048880187108e-01) (35, -1.30431844353083192800e-01) (36, -1.45366969018581926321e-01) (37, 1.41825847665830367950e-01) (38, 7.51757655577258744606e-03) (39, 3.71864925725896924846e-02) (40, 4.23551584343257847554e-01) (41, 2.84608314494434300190e-01) (42, 3.39041123847309056050e-01) (43, 5.21681011597458277329e-01) (44, 2.06679084345044394855e-01) (45, 2.87355774089040005848e-01) (46, 1.45749726339520713214e-01) (47, 3.12764458474779294406e-01) (48, 7.20459140082886806411e-01) (49, 1.09938894960104505127e-01) (50, -1.90657148893080691243e-01) (51, -1.90571258599959353353e-01) (52, -6.97968254825752310033e-01) (53, -6.01588304183166555639e-01) (54, -1.22232706382115985377e+00) (55, 8.67435857485474373640e-03) (56, -8.11887367624253397658e-01) (57, -7.83768328833788996413e-01) (58, -4.62318965909974510797e-01) (59, 5.99728379054506322010e-02) (60, 2.00573285348900537395e-01) (61, -1.87835777241702639451e-01) (62, -9.11126755121565268247e-01) (63, 4.43295877691836981427e-01) (64, -1.07942387570535494601e-02) (65, 5.34860369155682691122e-01) (66, 4.62372836063183800803e-01) (67, 5.13830761584278261633e-02) (68, 2.88097300481886142709e-01) (69, 6.71622980201275421308e-01) (70, 9.01990160177887703719e-03) (71, -7.33944293792480384475e-01) (72, -1.67255048316869603386e-01) (73, 6.54373612293889794778e-02) (74, -1.10805933952597879255e+00) (75, -2.10820155833969691273e+00) (76, -2.14141535257111170765e+00) (77, -7.84550937819689875319e-01) (78, -8.02789050150126581862e-01) (79, 1.64055976672609384048e-02) (80, 2.56769185193070237361e-01) (81, -4.05897836504190756557e-01) (82, 1.08165667799818981942e-01) (83, -8.63992376737907075146e-03) (84, -9.68361218579245897065e-02) (85, -1.02321881620406930635e-02) (86, -1.67274939511274450821e-01) (87, 2.14441822428529188516e-01) (88, -1.05077490192306677308e+00) (89, 4.22420126427475894904e-01) (90, -9.13662714951623267101e-02) (91, -9.98946331110286744881e-01) (92, -9.25651215884047640081e-01) (93, -9.85800792399006975408e-01) (94, -6.65289422849106859559e-01) (95, 2.24784992893186430507e-01) (96, 2.73657850414479597578e-01) (97, 1.20865166133605123067e-01) (98, -7.14387292969435816481e-01) (99, 9.02948552727005082641e-02) (100, 2.61461084015854661189e-01) (101, -5.29719653842657622889e-01) (102, -3.54894625848777706123e-03) (103, -3.26000145043468581019e-01) (104, 4.28420789866367918153e-02) (105, -3.43015211685709031642e-01) (106, -1.95297532176512439461e-01) (107, -1.52621470659310809470e-01) (108, -1.07814557832134405579e+00) (109, 3.62029672575407301949e-01) (110, -2.55865303425282485106e-02) (111, -4.81207054087080088323e-01) (112, -6.37752921679086148821e-01) (113, -4.37674050895469124445e-01) (114, -7.09684446950859304515e-01) (115, -3.64845343920504994184e-01) (116, -6.36414918104004634358e-01) (117, 1.63497624220196063893e-01) (118, -6.13350648636996204077e-02) (119, 1.13870642892027230941e-02) (120, 1.86380972393044214153e-01) (121, -3.77669762191980784571e-01) (122, -4.90830909094467082721e-02) (123, -2.86808702884995964100e-02) (124, -7.60323692549297464049e-02) (125, 1.38482338290565498706e-01) (126, 1.65072258295180324117e-01) (127, -1.30422775545995595081e+00) (128, -1.21522357342658857138e-01) (129, 5.20727025457660586127e-01) (130, 4.29756208784821347457e-01) (131, 3.20924813993190727324e-01) (132, 3.39699860655677116084e-02) (133, 9.61337092919786612155e-02) (134, 1.46801404993100903518e-01) (135, -2.94939457402666582730e-01) (136, 5.15936488432281320504e-02) (137, -4.94021941318190827008e-01) (138, 3.40389942007382706457e-01) (139, 9.05199272548201996913e-03) (140, -7.28240485331695608373e-01) (141, -9.32121632806973576812e-01) (142, 1.28277025434283334371e-02) (143, 1.40665080521617025244e-01) (144, 7.84559130028175955029e-02) (145, -2.90193995528806106265e-02) (146, -6.97468616749280845291e-01) (147, -1.59372487205042889791e+00) (148, -1.30415950811453651426e+00) (149, 9.41524649541760072502e-01) (150, 8.96603699386221864032e-01) (151, 1.80883350109447449405e-01) (152, 7.88305278860938207774e-02) (153, 1.73228092829747937209e-01) (154, 1.10416117711503967980e-02) (155, -4.21763694825034174407e-01) (156, -2.69338822887381090787e-01) (157, -1.35391653533949485322e+00) (158, -1.23149073085124904914e-01) (159, -9.00174871274327659254e-02) (160, -7.15616787812393240209e-01) (161, -1.94941115273860177126e+00) (162, 1.68422419119808097765e-01) (163, 1.86433734630931824405e-01) (164, 3.78723033353845495164e-02) (165, 8.99281430645425955417e-02) (166, -6.39296968217128669387e-01) (167, -5.19084869743331789316e-01) (168, -2.03675963455039754635e+00) (169, 8.79373515527630322808e-01) (170, 9.22934460997683503436e-01) (171, 5.82382051117450671995e-01) (172, 2.60047197346902736470e-01) (173, 4.79902859904137835123e-01) (174, 6.19680751242009386637e-01) (175, 5.33836592115727648356e-01) (176, 3.03021613371163844874e-01) (177, -2.79616584136582413400e-01) (178, 5.72708581657289772515e-01) (179, 5.92970244399214155284e-02) (180, 8.63097797294969382165e-02) (181, -5.06430484065290342777e-01) (182, 3.60335742059225583311e-01) (183, 2.21943764531907949955e-01) (184, 6.90812376649356685299e-01) (185, 2.40810940599372108606e-01) (186, 2.34026220644585197794e-02) (187, -8.16504788418562221786e-02) (188, -1.05861063479162686995e-01) (189, 2.41479457892378412964e+00) (190, 1.45422436260311638279e+00) (191, 1.17280230558582609923e+00) (192, 1.04942385066073073929e+00) (193, 9.47079691623855968174e-01) (194, 1.53626103142468095619e+00) (195, 5.23984209252153942948e-01) (196, 5.08148685646807152239e-01) (197, -2.74941183778971975915e-01) (198, 3.17336832211533859116e-01) (199, 2.13659939912768548353e-01) (200, -1.10033232424605387223e-01) (201, 3.98666992804302400266e-01) (202, 1.96140265566641158745e-01) (203, -5.05476983207769556272e-02) (204, 7.85825807568820255966e-01) (205, 1.73291016303105671614e-02) (206, -9.78761674077819610051e-02) (207, 2.00046149062083011838e-01) (208, 2.25253973142475305558e-01) (209, 4.73429543863650548197e-01) (210, 1.03973155845244868978e+00) (211, 1.25386375784753534290e-01) (212, 5.37636008107077734142e-02) (213, -8.50884962833512170644e-02) (214, 4.08276211126287549846e-02) (215, 7.29405734343965689304e-02) (216, -4.10677171276052965787e-01) (217, -6.38690157892724319488e-01) (218, -1.96911200526622087725e-01) (219, 3.88036694057681819103e-01) (220, -1.92553445652050951586e-02) (221, -9.89573741029775300060e-02) (222, -3.65374498069427455782e-01) (223, -1.22302811969635064071e-01) (224, 1.07608971169766920450e-01) (225, -3.59924489109137213383e-01) (226, -9.13852341416693136900e-01) (227, -1.37586434545134750351e-01) (228, -7.04153214475559119379e-02) (229, 2.32931151552585424813e-01) (230, 2.40703175748144759805e-01) (231, -2.36299182339719859858e-01) (232, -1.09151151695067699654e-01) (233, -2.79882930967253612531e-02) (234, -1.05950699076358678674e-01) (235, -2.23728203031462596906e-02) (236, -6.63305004238872730760e-01) (237, -1.27219354580559596002e+00) (238, -1.92175646469526784088e-01) (239, 4.50561809470123586507e-01) (240, -8.76950615797821297903e-01) (241, -9.93392162458002769831e-01) (242, 5.22890185244697935918e-02) (243, -5.08757921006539493014e-01) (244, -2.47551043084718203069e-01) (245, 1.84817177839267210437e-01) (246, -2.37721062264901616956e+00) (247, -1.14064478912014655165e+00) (248, -2.30131458785273433632e-02) (249, 3.55622731850556095257e-01) (250, 4.99454749709349610232e-01) (251, 1.22269001794420018037e-01) (252, 5.54931763215501805409e-02) (253, 1.29926272074743054397e-01) (254, 1.86377072629594436881e-01) (255, 6.09070108662058198878e-02) (256, -4.89689840236627371706e-01) (257, -8.51598218950587404485e-01) (258, 3.80530792872949275019e-02) (259, 2.33098744027883358898e-01) (260, 1.49468370120092175490e-01) (261, -9.65973262176811897639e-01) (262, -3.33181683134072370578e-01) (263, -1.71094269889093320014e-01) (264, 6.40531760615532297365e-01) (265, -8.95874313630751345494e-02) (266, -2.15317051812701665270e+00) (267, 8.78814099447633445550e-02) (268, 1.89472381984092247409e-01) (269, 4.94665928886345807047e-01) (270, 1.09627115460414148451e-01) (271, -3.67779001702462915446e-02) (272, 2.53048102705441674276e-02) (273, 5.72441633446653386219e-02) (274, 1.49295188824697278029e-01) (275, -8.41730338026115548766e-02) (276, -5.17374409275669133734e-01) (277, -5.26117047608555843397e+00) (278, 2.90467864055103941467e-01) (279, -3.88169445284699959897e-02) (280, 2.27965939445932408436e-02) (281, 8.43177386478899670852e-02) (282, 1.52930497171083590313e-01) (283, -2.10373002775853829016e-01) (284, -1.16448149640125675486e-01) (285, -1.23102016907593636574e+00) (286, -9.13195369155487823853e-01) (287, 5.81689432489985031038e-02) (288, -1.18401260072869440876e-01) (289, 6.60444508167851607183e-01) (290, 2.91158608795942352998e-01) (291, 2.32800275961819458370e-01) (292, 5.33796732037365301293e-02) (293, 4.84227423279583457649e-02) (294, 3.41313206944683256161e-01) (295, 2.85404850512656037276e-02) (296, -1.77787570606108731586e-02) (297, -1.61831644302387250844e-01) (298, 3.71938833699149096201e-01) (299, 1.02764690590882196153e-01) (300, 4.00989096267660230510e-02) (301, 5.28032634534207567789e-01) (302, 7.35621795933504296627e-01) (303, -1.31605340972665629806e-01) (304, 6.96598120971701151305e-01) (305, 3.19884479451246275805e-02) (306, 5.95838981632486497375e-01) (307, 1.55392821534666669692e+00) (308, 1.09472847316995225420e+00) (309, 3.76737825128569703281e+00) (310, 4.78155315138321213020e-01) (311, 6.57999807044050810667e-01) (312, 3.48733499649137579368e-01) (313, 1.22852762213525298907e-01) (314, 1.85804669729051102900e-01) (315, 6.67636839854131650118e-04) (316, 5.69493634769127510253e-01) (317, -4.71657954204924234620e-01) (318, -1.54065331228844826228e+00) (319, -6.75699567468776296497e-02) (320, 9.01085737748582998874e-02) (321, 5.34746945778671656235e-01) (322, 7.02688571261593342143e-01) (323, 2.30294868802418117859e-01) (324, 3.82323585903038387634e-01) (325, 3.18902636627498570210e-01) (326, 4.48298374871555271870e-01) (327, 1.88340671698613904006e-01) (328, 7.29416217086261697844e-01) (329, 9.50007290954820504680e-01) (330, 8.19890489446006426322e-02) (331, -7.53728069795293609268e-02) (332, 1.77024024211475672352e-01) (333, 5.32068198743433695697e-01) (334, 3.02037216725915991233e-01) (335, 7.59648696204397455567e-01) (336, 5.26791071662113807861e-01) (337, -1.04540212419300093671e+00) (338, -7.20867703664511805250e-01) (339, 1.58122487704320691115e-01) (340, 3.78230962558229535930e-02) (341, 3.32200083537538617962e-02) (342, 3.40581695298496189839e-01) (343, 9.21729359431703726413e-02) (344, 1.53346248309179089553e-01) (345, 4.00071333749731153362e-02) (346, 1.70207552949949048049e-01) (347, 8.41432664199312368991e-02) (348, 7.07234967155893484714e-02) (349, 7.14750233468955942229e-01) (350, 6.14906723973697610930e-01) (351, 1.54462092145235541096e-01) (352, 6.19048960904248768422e-02) (353, 5.69243023789734597928e-04) (354, 8.12353380421765858266e-02) (355, -3.33132825562750534143e-02) (356, -7.62328451633304537971e-01) (357, -6.20692164440938998204e-01) (358, -6.67647854083810721182e-02) (359, 7.95515332026918570163e-02) (360, 9.15494266553362051608e-02) (361, 6.55030462546785513522e-02) (362, 5.77504153950651188953e-02) (363, 1.05764247815175835288e-01) (364, 9.91875681682069937350e-02) (365, 6.54039758844812552097e-02) (366, 5.73838878078897496327e-02) (367, 1.87282018701596997268e-01) (368, 1.42635740677877181914e-01) (369, 2.93589417175845954211e-03) (370, 1.48395441810651562697e-01) (371, 1.83449767868085644729e-01) (372, 3.91468371851881116741e-02) (373, -1.92391751765612184499e-01) (374, -1.22093460022810518240e-01) (375, -5.22307908475742529997e-03) (376, -1.49393680005672990774e-01) (377, 5.18121350212533970936e-02) (378, 8.26182368798692862155e-02) (379, 1.25027872960134317504e-01) (380, 1.72255210916562817580e-01) (381, 1.03217795829339806235e-01) (382, 9.18418246908624807956e-02) (383, 1.42783426086469406036e-01) (384, 1.24103579326112732628e-02) (385, 8.17004818125208059909e-02) (386, 8.83850905700166861179e-02) (387, 1.59843780438466809279e-01) (388, 3.91957390709360212200e-02) (389, 2.53183547063310643299e-02) (390, 3.26038955460134449726e-01) (391, 1.33736111561818832305e-01) (392, 9.38123393459757010104e-02) (393, 1.03127599100633446372e-01) (394, 4.24912947817285627239e-02) (395, 1.95990853349729321486e-01) (396, 1.71522505919500134475e-01) (397, 1.02866128425165001548e-01) (398, 1.86263807456060193068e-01) (399, 1.17149189452691843139e-01) (400, 3.20122082327803147983e-01) (0, 1.29697278796106624243e-01) (1, 9.56370017513335224368e-02) (2, 1.42977834401994935432e-01) (3, 1.41003594456583281058e-01) (4, 1.77241594253450651664e-01) (5, 1.41452804861933012504e-01) (6, -4.69203972968453356107e-03) (7, 3.20446609541476384875e-02) (8, 2.70619734212458780409e-02) (9, 1.23326764164835261939e-01) (10, 7.29080355015403538954e-03) (11, 1.33270711360842009086e-01) (12, 1.81595317110121862170e-02) (13, 1.53065175472170134086e-01) (14, 1.48672000227838774222e-01) (15, 1.02850951908499049781e-01) (16, 4.44412014469206945178e-02) (17, 1.11506716071039485572e-01) (18, 1.45037636814981718558e-01) (19, 7.27504945382178441760e-02) (20, 1.56883896051317472953e-01) (21, 8.17646763309538698872e-02) (22, 1.69553772269159575004e-01) (23, 6.30024380072653905627e-02) (24, 1.27246902047067927954e-01) (25, 3.70014204944889901761e-01) (26, 7.04153863196227858268e-01) (27, 6.99741942291114638053e-01) (28, 8.24428269122693846427e-01) (29, 3.51472375899093081308e-01) (30, 3.38704226523177553965e-01) (31, -9.41501634619540728188e-01) (32, -9.75696200928992785073e-01) (33, -9.41123532555408037759e-01) (34, -9.89554228685206926919e-01) (35, -9.87510787747211016274e-01) (36, -9.88726893863982714272e-01) (37, 5.66305971726477758166e-02) (38, 9.54107425197661396243e-02) (39, 8.92119414195120669087e-02) (40, 1.92379853989403659664e-01) (41, 2.13178864999229500388e-01) (42, 1.93980210773308264782e-01) (43, 2.21483215059559757076e-01) (44, 7.44292364870164702140e-01) (45, 6.59680285905454577566e-01) (46, 8.00437310193631956778e-01) (47, 4.41940617780656852531e-01) (48, 9.18320300687115120830e-01) (49, 6.64603543673703334171e-01) (50, -3.13264541238113605748e-02) (51, 3.52603979498580591412e-02) (52, 1.34429100909872395464e-01) (53, -1.03079568043598038263e-01) (54, -7.75432216093932979994e-01) (55, 1.20680019913584041236e-01) (56, -8.63222325644798060829e-01) (57, -1.03420647462398473948e+00) (58, 8.96887460109070111525e-02) (59, 1.45444825945764799613e-01) (60, 1.75784564911768886875e-01) (61, -6.23510444918823125704e-01) (62, -4.65832579394644341608e-01) (63, 4.46572991971182664539e-01) (64, -7.58492570234819002417e-02) (65, 2.51619829817966711438e-01) (66, 2.48350291534618627942e-01) (67, 3.00620216465780021320e-01) (68, 1.30954382402653424222e+00) (69, 5.35948572332021977438e-01) (70, -7.38142365369194933256e-03) (71, -3.85759276996335387366e-01) (72, -4.68429404957933392950e-01) (73, 2.64613827722448902158e-01) (74, -3.23098971680985891375e-01) (75, -5.64436518657482899641e-01) (76, -1.69377854003190053689e+00) (77, -8.78679359755821010047e-01) (78, -1.29575976948834648006e+00) (79, 1.40040160230092386451e-01) (80, 6.34364554280499731709e-02) (81, -1.03918949909290425637e+00) (82, 4.26992854321712078658e-01) (83, 2.01188939355396012587e+00) (84, 2.68546014462102133891e-01) (85, 6.84543769377147004462e-01) (86, 4.65772898613105335031e-01) (87, 3.95645115873129837869e-01) (88, -4.86296165805092828194e-01) (89, 5.50367230825715259002e-01) (90, 6.52659277761440462240e-03) (91, -3.08113501147389612367e-01) (92, -2.86493539549558029478e-01) (93, 3.61766505535060789445e-02) (94, 5.15181023642144797492e-01) (95, 3.18453151465359407535e-01) (96, 3.09143488437166824578e-01) (97, 2.50810053292911339096e-01) (98, -1.43328462388015931417e+00) (99, 8.79016255307314836598e-02) (100, -2.57117315377633701146e-02) (101, -6.94976643107122926679e-01) (102, 2.23558715030756610664e-01) (103, 2.94844683532463125442e-01) (104, 3.40302824448623419951e-01) (105, 2.21628334906062485210e-01) (106, -5.26934878627738356727e-01) (107, -4.56334634633233093837e-01) (108, -3.92889957945576795417e-01) (109, 1.26260366539968638122e+00) (110, 1.70759108913482759995e+00) (111, -2.22958281470142044567e-01) (112, -1.31168215568507745550e-03) (113, -5.78058419476232043799e-01) (114, 1.14890198176961166876e-01) (115, -6.77148094822136559223e-01) (116, -3.22072742038675752241e-01) (117, 3.40590956722172377713e-01) (118, -2.94555722319787716135e-01) (119, -2.37829749103330323479e-01) (120, -2.11079544569890628636e-02) (121, -9.95234415156451501794e-01) (122, 2.32675201546580813494e-02) (123, -3.77850356519094487950e-01) (124, 3.31233560790037184773e-01) (125, 1.69994249336150504703e+00) (126, 2.80323977213773278816e-01) (127, 6.16791327090413332712e+00) (128, 2.09973052879333155207e-01) (129, 1.28679978869268669683e+01) (130, 5.47226193388907766746e-01) (131, 3.90472944100875629658e-01) (132, -4.24276925533577098371e-02) (133, 1.47126332579523344535e-01) (134, 3.25081949050041868476e-02) (135, -9.69081818278318823934e-03) (136, -3.82615537605411282218e-01) (137, 2.80501508254831055655e-01) (138, -4.24900025990748719806e-02) (139, -2.52681103165887543938e-01) (140, -8.76139430770886740163e-01) (141, -1.32116383657957392472e+00) (142, -9.46364506894404600157e-02) (143, 1.39747695787029516112e-03) (144, 1.01897061314723580416e+00) (145, 1.66404625183553228629e-01) (146, -4.00929702172955870765e-01) (147, 1.70412733457351195376e+00) (148, -5.60846553777077150293e-01) (149, 9.88814049102601511088e-01) (150, 6.11327850927972371586e-01) (151, 5.16409820510415396022e-01) (152, 7.30430968195632662754e-02) (153, 8.88556472047865725239e-02) (154, 1.07703842876821803687e-01) (155, -5.95044834128175659238e-01) (156, 2.07517027932833941772e-02) (157, -1.21511687770708559642e-01) (158, -1.00586786429396912723e+00) (159, -3.16465940888665753228e-01) (160, -7.23671922901881536916e-01) (161, -2.99391692384499918944e+00) (162, 4.35360615477807244567e-01) (163, 1.02842704121989925170e-01) (164, 2.60253843114330418729e-01) (165, 1.00280813155281339766e-01) (166, -4.29086059554900978164e-01) (167, -3.56592831571477253405e-01) (168, -6.21753895231895170603e-01) (169, 8.37925731473264212568e-01) (170, 1.04400604774787941764e+00) (171, 4.10556462396048593710e-01) (172, 2.89248118474002446909e-01) (173, 3.53399302146422344961e-01) (174, 2.21166040084349646566e-01) (175, -2.10439201936161807138e-01) (176, 2.52006778733869507558e-01) (177, 6.25704049032366760308e-01) (178, 2.00677550273058491470e+00) (179, -2.71844674464009838921e-01) (180, -1.32908920087852644443e+00) (181, -1.79684974378787631899e+00) (182, 7.08780424470010356197e-04) (183, -9.25852369220186099952e-01) (184, 2.06212970315233390384e-01) (185, -4.38576391690828487624e-02) (186, -1.27504733836040662354e-01) (187, -1.03689662877274102470e+00) (188, -8.42563921292654782746e-01) (189, 1.11931581074892050331e+00) (190, 1.13356624508602010781e-01) (191, 2.19472540628253165451e-01) (192, -3.48810853095040562799e-01) (193, -3.17419992418275231927e-01) (194, -6.12478917678410117453e-01) (195, -8.76645101073455057517e-01) (196, -7.84791568133305750266e-01) (197, 7.86806453456430909821e-02) (198, -1.66966316966268912836e+00) (199, -3.20737391683786413066e-02) (200, -1.31982365884819197177e+00) (201, 2.76780573803952656409e-01) (202, 2.51565736821301400017e-01) (203, -2.71734054810499747745e+00) (204, 4.18733879194333746820e-02) (205, -6.67257567244310401122e-02) (206, -2.55970481197252519578e-01) (207, -4.54795043842431301329e-01) (208, -1.69564423690225485331e+00) (209, 1.53887324605454223203e+00) (210, 4.00599887336305582330e-01) (211, 2.71859979066928825198e-01) (212, 1.76614660158332520412e-01) (213, 3.17729304864581507672e-01) (214, 1.45370315370859370940e-01) (215, 6.97178352454322358689e-02) (216, -1.38290149347359836440e+00) (217, -1.59347806913449102639e-01) (218, -2.12168107710571207658e-01) (219, 4.50666428309949629316e-01) (220, 1.64998760685865497599e-02) (221, -2.14590912519356885602e-01) (222, -2.56101449067850484020e-01) (223, -1.33705958789450130020e+00) (224, -1.29366570089998494941e-01) (225, 9.86417573750051901449e-02) (226, 2.14435543440872178333e-01) (227, 3.59996033786635605267e+00) (228, -8.36813537122188089157e-01) (229, 1.13462263186344269883e+00) (230, 1.40452714776257248097e+00) (231, 2.30228788672767664680e-01) (232, 2.20966010860797035242e-01) (233, -1.42664179343362534924e-01) (234, -1.24472767252107346936e-01) (235, 2.50686427947369838698e-01) (236, -4.04889948940392652155e-01) (237, 8.96000792944044166521e-02) (238, -4.28683590462426433731e-01) (239, -5.69629027879839600068e-01) (240, -9.17985936808505043061e-01) (241, -1.87345206972817979185e-01) (242, 4.96178122789256548231e-01) (243, -1.20643628855214757323e+00) (244, -9.83306212538530455269e-01) (245, 1.22672159512739731291e+00) (246, -2.27574778566223701048e+00) (247, -8.64267490582377395647e-01) (248, 1.81823048232620687603e-01) (249, 1.16577373223856972650e+00) (250, 1.50823859060199749749e+00) (251, 4.28429741419725007567e-01) (252, 1.24843307237744796656e-01) (253, 2.46271454196095862521e-01) (254, 3.70967341571586062265e-01) (255, 1.64496921220917691198e-01) (256, 1.49271282321076587118e-01) (257, -4.72786067621667194238e-02) (258, 2.41175327897608482441e-01) (259, 1.29747832527189965734e-01) (260, 1.09636903463274287818e-01) (261, -8.08623287836580106891e-02) (262, -3.69239867231313384499e-02) (263, -1.59388661858706304209e+00) (264, -6.52355157147898601089e-02) (265, -2.26165583202702125121e+00) (266, -2.26896383831364234496e+00) (267, 6.52316158131667211961e-02) (268, -1.78577702210305527819e-01) (269, 1.09967031108693169550e+00) (270, 4.77547155963638503273e-01) (271, 1.47563532319714918462e-01) (272, -1.81795967619391186931e-02) (273, 1.18792489825159358618e-01) (274, 3.24792873841972418170e-01) (275, 1.89257574605187911532e-01) (276, -9.48595462362184727034e-01) (277, -2.51097319678295460843e-01) (278, -2.12010244565419392337e-01) (279, -2.33607408221505830070e-01) (280, 1.51293069778352995414e-01) (281, -2.41356969078731775635e-01) (282, 5.18559117644695621863e+00) (283, -3.37953081858428427964e-01) (284, 2.38481212304448547679e-01) (285, -1.07303885794244857621e+00) (286, -4.55189399695511975885e-01) (287, 2.80930077145727617738e-02) (288, -1.87581169798850422303e+00) (289, 4.38462212807679940774e-01) (290, -1.69855680405637879393e-02) (291, 1.20746509047288608230e+00) (292, 1.23735419008811042829e+00) (293, 1.21811169478972503022e+00) (294, -8.30867247016020549211e-03) (295, -2.15896238505884074943e-01) (296, -9.25534952369385210957e-01) (297, 6.51103723668781775302e-01) (298, 2.82407839127268751878e-02) (299, -4.56737529434374955883e-01) (300, 1.63980231343179960746e-01) (301, 2.18924983131335848530e-01) (302, 1.81503572365881526984e+00) (303, -5.26179474818684947413e-03) (304, 9.76293831480801732603e-01) (305, -3.02987711508669765870e-01) (306, 5.59721159772479492922e-01) (307, 2.42237437421503587487e+00) (308, 1.31946610586403934029e+00) (309, 8.74791872067329889795e-01) (310, 7.67909004834404607109e-01) (311, 1.10332778610661197405e+00) (312, 2.25504006157785763520e-01) (313, -2.69372438913734080224e-01) (314, -3.83702708310039164452e-01) (315, -1.28425926125487060991e-02) (316, 1.52827046294416946104e+00) (317, 3.84168539065616487793e-01) (318, -7.25490072196733115639e-01) (319, -2.84737673169833005460e-01) (320, 1.87191919146448393363e-01) (321, 3.14435600604336507047e-01) (322, 5.43334349380081294001e-01) (323, 1.45759011009553063332e+00) (324, 1.36411264488318551003e+00) (325, 3.36780279244702218655e-01) (326, 3.67771595086377023343e-01) (327, 1.09751492126400090887e-01) (328, 4.04923482179241844836e-01) (329, 7.45614829741057527634e-01) (330, 1.24770021551947474236e+00) (331, 4.25746094588915990897e-01) (332, 4.51472252895476378054e-01) (333, 3.41832056011479257229e-01) (334, 9.29585478290617939212e-02) (335, 4.34279972947014425433e-01) (336, 5.50648752596051171970e-01) (337, -6.57230329112392541724e-01) (338, -8.56137598357505580360e-01) (339, 9.45239818677008625247e-02) (340, 1.33298382817178984183e-01) (341, 1.99916592821181432482e-02) (342, 3.49178268875401376370e-01) (343, 6.41461840852797643420e-02) (344, 1.56433940587908049125e-01) (345, 1.69811621962457914847e-01) (346, 1.66770280061632414359e-01) (347, 1.81217089949518461722e-01) (348, -4.31500097675978425138e-02) (349, 5.28860735088186983965e-01) (350, 2.83293730359109541261e-01) (351, 3.19078514375062294306e-01) (352, 2.72772403830355392174e-01) (353, 3.13147807890242380058e-01) (354, 2.49918284291094694449e-01) (355, 2.11000486831507294561e-01) (356, -6.27071570948940393286e-01) (357, -1.24139355391320282962e+00) (358, -1.03928087880403485777e+00) (359, 1.29000828324228572486e-01) (360, 1.67566031871706266898e-01) (361, 1.65160224495798368949e-01) (362, 1.56667784510523100394e-01) (363, -2.87704104337090441068e-03) (364, 1.16457448063761043189e-01) (365, 6.05701512679160253283e-02) (366, 6.24268359526694432970e-02) (367, 1.30986497460275908011e-01) (368, 1.17613182125955867408e-01) (369, 5.71661076530516759631e-02) (370, 1.35987802727634499167e-01) (371, -9.73851058941235803168e-02) (372, -7.11388860206952633458e-02) (373, -1.55079640004706487133e+00) (374, -1.40894875232052907421e+00) (375, -1.31315687481726106611e+00) (376, -8.64079842768020411903e-01) (377, 1.14659503756433772681e-01) (378, 4.76402833148539678332e-02) (379, 7.21135518535674230334e-02) (380, 9.13396409734786030032e-02) (381, -9.19952178153389879545e-03) (382, 1.66509658752352018851e-01) (383, -8.07943874749535509427e-03) (384, 1.31756827889353056449e-01) (385, 4.42364520415366307970e-02) (386, 1.82354719100862761039e-01) (387, 1.89585915788710729357e-02) (388, 9.92000109538138385989e-02) (389, -6.04929709586495348295e-03) (390, 3.60381915535252450589e-01) (391, 7.77098766550124026020e-02) (392, 1.70054749308496733207e-01) (393, 1.26514852701097774146e-01) (394, 8.57766575202048159321e-02) (395, 9.74560013994276996829e-02) (396, -1.97116220149392076810e-03) (397, 1.59147322832018156546e-01) (398, 3.93863401397765294787e-02) (399, 1.26585841833025264380e-01) (400, 2.26440418449343816576e-01) (0, 3.63596238253331149881e-01) (1, 2.76196792779183353250e-01) (2, 4.03114445564961343393e-01) (3, 3.69637817201828922098e-01) (4, 4.24086012003636270151e-01) (5, 2.69537620303845371073e-01) (6, 3.56434837041115670786e-01) (7, 3.49689334688401243234e-01) (8, 3.28121736703133604074e-01) (9, 4.39492218253827005015e-01) (10, 4.51972805021023660288e-01) (11, 3.29866044280743619943e-01) (12, 4.16945703385090737925e-01) (13, 4.54837195632672219858e-01) (14, 2.72566691098427738016e-01) (15, 2.72125974354958499735e-01) (16, 4.48135741112446694956e-01) (17, 3.02469104585862180734e-01) (18, 3.82269814667916263407e-01) (19, 4.53030265925145059214e-01) (20, 2.72316180227017368143e-01) (21, 2.70923517701840366190e-01) (22, 4.34028826711392312632e-01) (23, 4.09774862287259011850e-01) (24, 3.67644004581189121073e-01) (25, 3.42428669390893003488e-01) (26, 4.18747536895489602671e-01) (27, 3.37735153792119047189e-01) (28, 3.92758838889813333140e-01) (29, 3.56277212558007150278e-01) (30, 3.75936240015244449442e-01) (31, 4.06803101679963141635e-01) (32, 4.82922025403660692966e-01) (33, 4.29498702666443854525e-01) (34, 5.10572985193413542149e-01) (35, 4.41140111914557486728e-01) (36, 4.33168400457781821444e-01) (37, 2.84823939261651060129e-01) (38, 4.08645562885022073374e-01) (39, 3.79106253442978824442e-01) (40, 4.58448238728260903940e-01) (41, 4.58202616541487861568e-01) (42, 4.92346498848550362393e-01) (43, 4.72978190748793769771e-01) (44, 4.47171890406710792476e-01) (45, 5.13255314200026790949e-01) (46, 4.79236231415373969966e-01) (47, 4.29439687399966407710e-01) (48, 3.49856489567858974787e-01) (49, 5.92378783642630080131e-01) (50, 9.28555900815888679567e-01) (51, 8.68258620265885738831e-01) (52, 2.89777510496487866742e-01) (53, 3.37909175728089372637e-01) (54, 3.35162706282332800711e-01) (55, 6.60933689105281274578e-01) (56, 8.43710400391869064229e-01) (57, 8.35478030372910018819e-01) (58, 6.48008692143043490974e-02) (59, 3.24762400297141096139e-01) (60, -1.87951636793399684544e-01) (61, 3.46298475549554507502e-01) (62, 3.35978664480535815784e-01) (63, 8.72834582082003040959e-01) (64, 2.21840026853164819232e-02) (65, 2.77770720479702915018e-01) (66, 4.39742781279301553354e-01) (67, 3.33215110008441839362e-01) (68, 3.70593111501596017554e-01) (69, 1.02137864736204497795e+00) (70, 6.54406891095408838055e-01) (71, 4.32230788347801181404e-02) (72, 6.53189676878532382576e-02) (73, 3.91382527119108036828e-01) (74, 2.89547167852466458271e+00) (75, 2.89176127448623532246e+00) (76, 8.77095371103276733038e-01) (77, 8.28720152605823989767e-01) (78, 7.11761026698515264499e-01) (79, 3.28527133506485491399e-01) (80, -1.88007851264723434281e-02) (81, 4.03253257297365497180e-01) (82, 1.59740364744816093490e-01) (83, 6.81549812913994745855e-01) (84, 3.62021997003395934467e-01) (85, 1.84196824369271733302e-01) (86, 6.58442845319113789770e-02) (87, 1.76224345502694584864e-01) (88, 2.86768738989690852303e-01) (89, 1.10425838548546551010e+00) (90, 5.66225507036363207014e-01) (91, 2.22137993778287939906e-01) (92, 1.72971018130159998050e-01) (93, 3.06081841291574341390e-01) (94, 2.38114885497547001947e-01) (95, 2.82550100739554395368e-02) (96, 1.37936061295370698820e-01) (97, 5.93156292398712148284e-02) (98, 7.31995984035894720066e-01) (99, 3.03600664776512707554e-01) (100, -1.12527338149333869244e-01) (101, 1.94649257130754183009e+00) (102, 7.73688449771265829291e-01) (103, 1.02985969328012405555e-01) (104, 2.62987164047528532151e-01) (105, 3.03418627568249332782e-01) (106, 3.49407438657004409954e-01) (107, 6.65980831549913054879e-01) (108, 2.47744467918733668466e-01) (109, 3.49753728207579939191e-01) (110, 7.18603639918730108249e-01) (111, 6.62540032583639471042e-01) (112, 7.45092374232010246082e-01) (113, 3.38618275569385729362e-01) (114, -1.54771053443537720540e+00) (115, 5.30201282316682509510e-01) (116, 2.51708625291618082187e-01) (117, 3.79311236266619722368e-01) (118, 7.05541635918781606662e-01) (119, 3.89146316160732474998e-01) (120, -3.24157227895506341864e-02) (121, 1.95054448388350198940e+00) (122, -2.77290256069554574836e+00) (123, -2.06656115219122105131e+00) (124, -1.11224284671273920821e+00) (125, -3.04069553104751078010e+00) (126, -3.15775187847726312995e+00) (127, -3.90754218301138989133e+00) (128, 4.24079753957463556624e-01) (129, 2.37610202144109328160e-01) (130, 3.69675465988286322538e-01) (131, 2.73511186299538577860e-01) (132, 5.64742049960319736357e-01) (133, 3.63720491585946048563e-01) (134, 1.62717601184970250827e-01) (135, -1.46034189711199768880e+00) (136, -5.82277301229255694892e+00) (137, 4.02384382824909014875e-01) (138, -1.08814085407462249333e-01) (139, 3.70043686886602607444e-01) (140, 3.33012289582017451117e-01) (141, 1.31895115446934330095e+00) (142, -2.81218554769960604744e+01) (143, 7.75771443430649187967e-01) (144, 3.98078423118108926104e-01) (145, 3.15748334108598094350e-01) (146, -6.36876417840378239443e-02) (147, -6.25421237110453720476e-01) (148, 5.94979948539690717269e-01) (149, 6.43739180702821434110e-01) (150, 4.19590017051414895799e-02) (151, 4.72414840017282289253e-01) (152, 5.49525773910705894743e-01) (153, 4.59988854882931619272e-01) (154, 4.56125326512074380503e-01) (155, 3.47845986542916318918e-01) (156, -1.47749368498908051350e+00) (157, 6.84801338213946730882e-02) (158, -6.28754711984458314333e-02) (159, 3.84541965385252204612e-01) (160, 4.59728217898133784125e-01) (161, 1.96629168237366247496e+00) (162, -6.16134028773837361115e+00) (163, -2.14015238258967628593e-02) (164, 3.48169520674950883077e-01) (165, 2.73539863584256137674e-01) (166, -5.03509274269001369517e-02) (167, -1.67218649602019153733e+00) (168, -2.86673145712227628312e-01) (169, 4.50165898103371486805e-01) (170, 7.02839160424258424520e-02) (171, 8.99445386004176228312e-02) (172, 2.39926814642146546408e-01) (173, 1.07885508356308223998e-01) (174, 2.06355689583038626189e-01) (175, -1.32085924329543913380e-01) (176, -2.03015383775381717812e-02) (177, -1.80866165245322507715e-01) (178, 2.25987639767726422590e+00) (179, 3.46204850186878410057e-01) (180, -2.84473075781508488724e-01) (181, -1.09091082480147782974e+00) (182, 1.53226019136025709555e-01) (183, -4.07017431510470706346e-01) (184, -6.55030013445525860494e-02) (185, -2.14591952830090970661e-01) (186, 2.62003199612243845018e-02) (187, -1.41025059619007153699e+00) (188, -8.14523052302972283556e-01) (189, 8.35757320075965592920e-01) (190, -5.15975535549590857975e-01) (191, 2.43019921399940282136e-02) (192, -3.92708614851215220831e-01) (193, 1.30989518533840831882e-01) (194, -1.31283768235851638906e-01) (195, 1.08149015129398728963e-01) (196, -1.06220227689718726971e-01) (197, -3.45363849288895297107e-01) (198, -2.63284208692321608503e-01) (199, -1.23955072574429003840e-01) (200, -3.62907684658213658402e-01) (201, -1.99679719183600590249e+00) (202, 3.51612159456623496467e-02) (203, -3.71314816082024323762e-01) (204, -1.96702022307554735825e-01) (205, 1.88067972768789393179e-01) (206, -4.16587067477035416507e-02) (207, -1.53023486383995610538e+00) (208, -1.06470833571948242380e+00) (209, 2.77831098732533726681e-02) (210, 7.91186556827336712194e-02) (211, 7.27375361898707911701e-02) (212, 3.80541745047725810114e-01) (213, 3.89743286590732707086e-01) (214, 4.36723816614307536188e-01) (215, 2.79083158295311217767e-01) (216, 4.16886817402524895160e-02) (217, 4.90209403078714772706e-02) (218, -5.31747426358318217576e-02) (219, -2.05168209274166790657e-01) (220, 4.33129341201490491997e-01) (221, 1.54779343266025076753e-01) (222, 1.86559093386089946964e-01) (223, 1.30898991747382120732e-02) (224, -1.00972006886735410358e-01) (225, 4.82570004822523435095e-01) (226, 6.61288409669355981002e-01) (227, -1.09612480120243438453e-01) (228, 2.60464182771736385558e-01) (229, -1.55610929376533146939e-01) (230, -2.27518889865829465613e-01) (231, 3.21812933750126151100e-01) (232, 3.25596528740184465445e-01) (233, 3.43837591500537553824e-01) (234, 3.25135606022136369742e-01) (235, 2.32559009136216965352e-01) (236, -1.55718298059241688769e+00) (237, -1.66855782820974241076e-01) (238, -6.33570540545544513833e-01) (239, -9.67723858521015611878e-01) (240, 5.01973219886934107770e-01) (241, 2.94179998882832915985e-01) (242, -2.13648647075268094397e-01) (243, 3.93789104683386348427e-01) (244, -7.82343162509331196963e-02) (245, 5.46550795814675138828e-01) (246, -2.35629291376745729492e-02) (247, 1.01921948455938116140e+00) (248, -1.90635906243962094386e-01) (249, 1.24301615275229537794e-01) (250, 6.49624526434642024508e-02) (251, 2.89862025533639766639e-01) (252, 4.25124132304293800289e-01) (253, 3.40317831604583065364e-01) (254, 3.11353273747181913400e-01) (255, 1.86689431460159149800e-01) (256, 1.74914309447592231095e-01) (257, 1.16452603977538471369e+00) (258, -2.42331275807414592283e-01) (259, 4.48149401178921213962e-01) (260, 3.13666001019692441965e-01) (261, -5.78353427621918492196e-02) (262, -1.17515827573393627503e+00) (263, 1.68078823664721821451e-01) (264, 1.29304155214228222448e-01) (265, 2.32218398361766942273e-01) (266, 5.00214349889469001020e-01) (267, -7.57928947114782647354e-01) (268, -1.67886627965227286374e+00) (269, -1.04541041723335581017e-03) (270, 1.17286298032541758118e+00) (271, 4.51386394737188778592e-01) (272, 4.99535097567264996243e-01) (273, 4.64126892445301919565e-01) (274, 6.53682606160941800932e-03) (275, -4.63005986607298303248e-01) (276, 6.36782805718134392592e-01) (277, 1.00918379979469232666e+01) (278, -3.86940937556251640661e-01) (279, 3.59778079499775138572e-01) (280, 3.91868494508480935679e-01) (281, 1.88302684116133128844e-01) (282, 7.24138561505449918076e-02) (283, 1.34654152265775445968e-02) (284, 1.38900974851477343464e-01) (285, 5.88032910943385389579e-01) (286, 1.10268271763157593712e-01) (287, -2.06401459150648936003e+00) (288, -3.76877235376453900706e-01) (289, 3.70419431746858596188e-01) (290, 5.25563267580086646014e-01) (291, -7.81923884831761895065e-01) (292, -1.12666266314712260055e+00) (293, -1.05902606152024958419e+00) (294, -1.49189593627340566506e+00) (295, 7.31698685545285054665e-02) (296, 6.23632715927165959258e-01) (297, 1.34864731589529540656e+00) (298, -3.79182014008878187639e-01) (299, 4.34283378829532829002e-01) (300, 4.04098622558331399546e-01) (301, 3.30221504030442258859e-01) (302, 1.38386358491293715023e-01) (303, -1.81183027892842740680e-01) (304, 1.97929299263302910239e-01) (305, 3.09813276266923953717e-01) (306, -7.72997597780928080713e-02) (307, -7.21045956814392496881e+00) (308, -1.47390251061395649579e+00) (309, -2.66453185745974963083e+00) (310, -1.48970886506924637960e-01) (311, -6.65361295183589523949e-02) (312, 5.08098335235221187922e-01) (313, 3.06296287805586264774e-01) (314, 3.84840324698693558858e-01) (315, 4.51248423056310743462e-01) (316, 9.12032273973648333065e-02) (317, -2.36997201832029810720e-03) (318, 7.79883979424794926416e-01) (319, 3.38188569356971946434e-01) (320, 4.21039767620777993784e-01) (321, 3.60794299512011806819e-01) (322, 2.12321886118812530597e-01) (323, 4.05131050615412990901e-01) (324, 3.49070021181208889338e-01) (325, 4.15556214807248025522e-01) (326, 4.24201361892437844858e-01) (327, 2.76702016649460758035e-01) (328, 2.48464303703563538228e-01) (329, -1.64387930039846877350e-02) (330, 5.31696238402127985267e-01) (331, 4.56815780691672612690e-01) (332, 2.62488894342191025899e-01) (333, 2.63313226579434678243e-01) (334, 2.36064162282950823490e-01) (335, 3.83473930324737810604e-02) (336, 2.66185500916404693683e-01) (337, 2.11346799499283477530e-01) (338, 8.72321374942116256612e-01) (339, 4.48392011282658486948e-01) (340, 2.69916817603325809305e-01) (341, 2.84202620444512388254e-01) (342, 4.21702452061390786753e-01) (343, 4.48695056197857766733e-01) (344, 3.84436003921246494119e-01) (345, 4.16817449090695291147e-01) (346, 4.06989730952000527964e-01) (347, 3.72667960880017246073e-01) (348, 4.44911204335904031382e-01) (349, 2.13023668767469254171e-01) (350, -1.12363906943421451579e-02) (351, 4.46505636871663114107e-01) (352, 2.58187206398910851224e-01) (353, 3.88247476827568382962e-01) (354, 1.99230665277904839261e-01) (355, 1.74371362492749593098e-01) (356, 7.20759526260760785554e-01) (357, 5.58835176340157335773e-01) (358, 4.81750481209439196384e-01) (359, 2.87548109946465513254e-01) (360, 4.42637421248173623667e-01) (361, 2.83255666551804563547e-01) (362, 2.98727840242600461984e-01) (363, 3.15401002822136899972e-01) (364, 3.56843590793824105845e-01) (365, 3.45066689012265226388e-01) (366, 4.50777120945668130503e-01) (367, 2.92057797370171567941e-01) (368, 3.38856056390023252511e-01) (369, 4.11391653177952676401e-01) (370, 2.74581879434800113504e-01) (371, -1.39305132299199524448e-01) (372, -5.24837401206640699614e-02) (373, 5.55024144760186022296e-01) (374, 4.50339817962462418688e-01) (375, 4.64610375842732459262e-01) (376, 4.97681878885907091892e-01) (377, 2.66853876469349826639e-01) (378, 4.55094464180683999643e-01) (379, 3.60409207699513345347e-01) (380, 3.04362278489089033151e-01) (381, 3.72786730585312808817e-01) (382, 2.94624328670716306711e-01) (383, 3.73344875929570163553e-01) (384, 3.71829606650090183084e-01) (385, 3.04650384990191480661e-01) (386, 4.62077401635861306772e-01) (387, 3.20560757128214857126e-01) (388, 2.73009873984074558084e-01) (389, 3.61643999872422128306e-01) (390, 3.42240944562172910715e-01) (391, 4.49779368994450479136e-01) (392, 3.79031747637009586160e-01) (393, 3.75100851116394962137e-01) (394, 2.99312442598557493234e-01) (395, 2.70007401762223209207e-01) (396, 4.54299606440281777964e-01) (397, 2.84221641776776334787e-01) (398, 2.96197265444016477609e-01) (399, 2.51145120887763473316e-01) (400, 1.46524378885377198900e-01) (0, -1.20147854067568810033e-01) (1, -2.07343101279783212365e-02) (2, -3.14552932755994482661e-02) (3, -1.55599385477786067433e-01) (4, 3.91298234684419876661e-02) (5, -1.49028800405745509572e-01) (6, -4.01013865845251046838e-02) (7, 4.01157736999941116895e-02) (8, 4.01977300865602737989e-02) (9, -1.45560108103041652150e-01) (10, -1.21389873303656609105e-01) (11, -5.28834610955763104179e-02) (12, -1.16803705670123131322e-01) (13, -1.39129161613035096101e-02) (14, -1.46921783663516047902e-01) (15, -7.80212506430197072493e-02) (16, -1.77034437434720956506e-02) (17, -9.22289564983892751204e-02) (18, -7.08792954461622548568e-02) (19, -1.21927387990241081761e-01) (20, -1.58559381740140878381e-02) (21, -8.69678482191610646712e-02) (22, -8.76358149219035043043e-03) (23, -1.06623020000939400243e-01) (24, -5.35233393089819195487e-02) (25, -5.15673972050514142773e-02) (26, -1.18191335328106911229e-01) (27, -3.51696237700033151330e-02) (28, 2.57052481396150625526e-02) (29, -5.67715316789198162772e-02) (30, -7.12921842711019826400e-02) (31, -1.84147394476624842730e-01) (32, -1.67210622904988642778e-01) (33, -1.92452258644791956987e-01) (34, -1.80555633483620997515e-01) (35, -1.68889648495408412066e-01) (36, -1.82289905129166956987e-01) (37, -1.25699490087079895906e-02) (38, -1.20686802990918190526e-01) (39, -1.34005099512820247121e-01) (40, -4.58822018782462787145e-02) (41, -5.10737110177030606550e-01) (42, -4.90908132088745063903e-01) (43, -5.84403049448480649275e-01) (44, -4.88154110293797183218e-01) (45, -3.65974847953728144034e-01) (46, -4.25928366165569949331e-01) (47, -3.46666415017059748038e-01) (48, -6.11676582289302994688e-01) (49, -1.15174216795830419713e+00) (50, -1.93789172253593933171e-01) (51, -4.00639654016347601662e-02) (52, 1.20839908881215221670e-01) (53, 4.31258047355441709314e-01) (54, 2.33391800220376283148e-01) (55, 1.46054132769889266630e-01) (56, 3.11431852029099398571e-01) (57, 1.68439171919032404379e-01) (58, 2.02919384789655904422e-01) (59, -6.89648687617826772200e-02) (60, 5.97760102883442279165e-01) (61, 1.78444204120384819490e+00) (62, 1.60429004730362079201e+00) (63, 1.57940985302285197278e+00) (64, 1.83766782505464625064e-02) (65, -6.44370532910194249165e-02) (66, -1.76012530116256726842e-01) (67, -1.76047879261610584756e-01) (68, -1.77190436959990371690e-01) (69, -1.78887908444624965654e+00) (70, 2.45926295622057380919e-02) (71, 1.07667075195801742460e+00) (72, 3.44973479519672332483e-01) (73, 1.22303248929581637183e-01) (74, 2.50411606750774629049e+00) (75, 1.67730933175905749799e+00) (76, 1.13190779188168555436e+00) (77, 2.55830809184714735860e-01) (78, -6.11623836030169121258e-01) (79, -1.22350506186126306574e-01) (80, 5.54853550330265399282e-01) (81, 1.75243151573883659822e+00) (82, 3.14462197491751249689e-01) (83, -5.50392911827792749579e-02) (84, -2.11545239315338418074e-01) (85, -1.90286776960619796739e-01) (86, -1.38418820193212943614e-01) (87, -5.39023321775612407336e-02) (88, -2.44841750728164608830e-01) (89, -3.99549136446122332700e-01) (90, -5.51731481616091423703e-01) (91, 5.87123330098374140995e-01) (92, 1.12075162806679484717e+00) (93, 1.14287920128550068988e+00) (94, 8.61532401806816561241e-01) (95, 4.70404505543567608150e-01) (96, 5.09864065149906786623e-01) (97, -7.92911593414106705136e-03) (98, -6.22812410165472618573e-01) (99, -3.21719787313958838215e-01) (100, 6.10283411279781695669e-01) (101, 1.52440985034349663074e+00) (102, -2.23236340210743233747e-01) (103, -6.96520728341922940041e-02) (104, -1.28288976477990868119e-01) (105, -5.92081351109720113723e-02) (106, -1.34068145631047602739e-01) (107, -3.56890115903888749394e-01) (108, -3.12467601167236375126e-01) (109, -2.97105881072867328285e+00) (110, -3.62701341587590819771e-01) (111, 4.16565948584613321426e-01) (112, 3.45404848013063023315e-02) (113, 2.62137362276018415219e-01) (114, 6.42487521050205789841e-01) (115, 1.07172638208309867203e+00) (116, 1.37615736613979100511e+00) (117, 3.62182724346352680200e-01) (118, -2.96942032460190630250e-01) (119, -1.25920397040568121660e-01) (120, 6.38596109286411639516e-01) (121, 1.56659483315128467140e+00) (122, -2.59999413196945805549e-01) (123, 9.15974031272837274642e-01) (124, 4.32721507850099065817e-02) (125, -1.06744368965764030444e-01) (126, -1.92084693755049717989e-01) (127, -2.84780833884974926562e+00) (128, -2.11887800899690725842e-01) (129, -9.65650817422688101388e-01) (130, -3.08631005738527752769e-01) (131, 3.41479021176489191958e-02) (132, -1.69490220796817171733e-02) (133, -7.07904249208021474349e-02) (134, -6.61098967943901522082e-02) (135, 9.38433273644390331114e-01) (136, 1.15403743548667359065e+00) (137, 9.64471672243580546713e-01) (138, -2.62535425222561569214e-01) (139, -2.54092064497195069261e-01) (140, 1.19846855947268537967e+00) (141, 1.60479015935084978750e+00) (142, -4.79536331849171992836e-01) (143, 3.27574487027898841873e+00) (144, -1.21084375646229092105e-01) (145, -1.37962328533312222900e-01) (146, 1.14621120044482260880e+00) (147, -4.13838675054555238386e-01) (148, 3.64843607159906713200e-01) (149, -4.10321233645249416888e-02) (150, 1.37992141097638298941e-01) (151, -1.32337295051803763291e-02) (152, 6.91303742277867422361e-02) (153, -8.73442291991758656966e-02) (154, -8.45568701403189015853e-02) (155, 2.61731037060804250238e-01) (156, 9.23277757079544292296e-01) (157, 7.70720344865689721559e+00) (158, -2.28391522861168622116e-01) (159, -2.94682618972979315508e-01) (160, 1.10789988288176544096e+00) (161, 5.55601801061671340953e-01) (162, -3.40366251356800431083e-01) (163, 7.00629866626313879685e-01) (164, -1.53042546018533814900e-01) (165, -2.05553616248575793390e-01) (166, 7.90815352884174038728e-01) (167, 1.20514405003580515885e-01) (168, 3.66105709414471791607e-01) (169, -5.36076232578427180897e-01) (170, 1.98058100032237716093e+00) (171, 6.45057122142427830092e-01) (172, 8.19747183174986682186e-02) (173, 3.48410145209259503041e-01) (174, 4.23550137148327343617e-01) (175, 1.03212013311206241006e+00) (176, 9.71818265649858292754e-01) (177, 2.03338578634266164968e+00) (178, 9.29189128523295160278e-01) (179, -1.55360949036799145251e-01) (180, -1.99891589404972980226e-01) (181, 1.14070337565286084036e+00) (182, 1.71484661366759438828e-01) (183, 1.43526738869888115246e+00) (184, -7.66150204570212989275e-01) (185, -2.03256105861913949351e-01) (186, -4.64195745282575455981e-01) (187, -7.29095983520197665761e-01) (188, 2.64972940109517607343e-01) (189, -2.26469672808691768751e+00) (190, -9.10769053428212127521e-01) (191, 3.70332570509497860378e-01) (192, -3.67614933748451222506e-01) (193, -8.38807859007221212622e-01) (194, -1.75018878630217722403e+00) (195, -1.77558294287738016592e+00) (196, -1.48268861417331732078e+00) (197, 4.79481901848256120147e-01) (198, -2.03332979579949713056e+00) (199, -1.14728710393744348650e+00) (200, -1.39169748414363159128e+00) (201, 1.29040635805081027598e+00) (202, -9.52794555835638878882e-01) (203, 3.00930156003541282583e-01) (204, -1.73179585591500728725e+00) (205, -2.40418395145373942068e-01) (206, 2.33150897495077613630e-01) (207, 1.17359487783356875035e+00) (208, 3.78089383303466086694e-01) (209, -5.96760854686601449615e-01) (210, -2.86321795371637766170e-01) (211, -1.72561845837365029910e-01) (212, -1.72370242378053484256e-01) (213, -7.39448167889688590115e-02) (214, -2.80727160831966471299e-01) (215, -2.65725103875675272569e-01) (216, 1.20693844480118173124e+00) (217, 2.93753346509158408395e-01) (218, -9.62305966733336570762e-01) (219, -9.77874386714276178090e-01) (220, 4.99435829332844583028e-01) (221, 7.31824841735748909954e-01) (222, 4.84459864947609508690e-01) (223, 3.62679499341814204350e-01) (224, 4.57232408525222067119e-01) (225, 8.16565639464093218081e-01) (226, 7.50436170725146567406e-01) (227, 8.53425546380586763640e-01) (228, -3.19729298920349847002e-02) (229, -2.59070654327630156555e-01) (230, -2.55250041945977224067e-01) (231, 2.85846797427005590297e-02) (232, 4.82679568760293470353e-02) (233, 9.24689584009546067245e-02) (234, 6.67737802194530785660e-03) (235, 7.78158717386620985001e-02) (236, 2.12452883125947700194e+00) (237, 8.59642384784377489026e-01) (238, -1.89058205117096100878e+00) (239, -1.70464266228197525166e+00) (240, 7.75277349368905799309e-01) (241, 1.64033496020781166536e+00) (242, 3.07413892003267873176e-02) (243, 1.69892085885600474526e+00) (244, 9.94847980897234140940e-01) (245, -2.43214910501878926741e-02) (246, 2.02364961456401060147e+00) (247, 1.90490051172572671945e+00) (248, -2.41328826696807288710e-02) (249, 7.15288436260902160679e-02) (250, -1.04115481304355395054e+00) (251, -3.38293992515792882325e-02) (252, -1.23299493579086316686e-01) (253, -2.11103028933372488529e-02) (254, -1.09595656372790367650e-01) (255, -9.95006047401870291624e-03) (256, 1.05195256224388145050e+00) (257, 5.26467565874917164948e-01) (258, -9.87203376532933440934e-01) (259, -2.87724031182912565185e-01) (260, -5.13907074706602337577e-02) (261, 8.00287924280064899563e-01) (262, 8.19153616952562946274e-01) (263, 3.35562342716371864171e+00) (264, 2.84696171018245136608e+00) (265, 8.82227897497928403858e-01) (266, 1.37825766619583789385e+00) (267, 1.61288645032215116615e+00) (268, 4.03687912339261489869e-01) (269, -5.01893134567059015505e-02) (270, -4.34203271816866687161e-01) (271, 3.46376962426910225967e-02) (272, -1.01085583669779405236e-01) (273, -1.04502961017375023411e-01) (274, -6.89737733159775240344e-02) (275, 4.50901817898452961231e-01) (276, 1.75314588225493483975e+00) (277, 9.69947135262150039736e-01) (278, -2.67256366408512802124e-01) (279, -1.59832832214556408434e-01) (280, 4.05037701351595169630e-02) (281, 1.27832563955045741544e+00) (282, 4.23763929150917384447e+00) (283, 1.77505599067943826697e+01) (284, -1.91312100050324944422e-02) (285, 5.44676697683330490740e-01) (286, 6.64304111423734466868e-01) (287, -3.09764870926306223886e-01) (288, 1.54505845226250393409e+00) (289, 2.07131413913681061700e-01) (290, -2.80550064815099364779e-01) (291, -2.40669594502022299309e-01) (292, -2.07926693566660519830e-01) (293, -1.95249038942675340325e-01) (294, 2.17283297144689607761e-01) (295, -7.07567075948108692440e-02) (296, -2.91923200007216276930e-01) (297, -1.12662934581593043859e+00) (298, -1.16322578661968289993e+00) (299, -2.80049252650251268015e-01) (300, -3.75330224411535226525e-02) (301, -4.01739018880819476198e-01) (302, 5.97079992969950401616e-01) (303, -4.56274958559494334120e-02) (304, -4.59219860489063158582e-01) (305, -5.33643944765024080823e-01) (306, -5.67995595390491381238e-01) (307, -6.72049793088006830466e-01) (308, -5.60442881254729630136e-01) (309, -3.12886581297523669321e-01) (310, -2.06577345527269917724e-01) (311, -2.13107229186499214091e-01) (312, -2.79869091923968138502e-01) (313, -1.84777382179015042807e-01) (314, 2.04690927041474679537e-01) (315, -1.84990723020551472988e-01) (316, -2.85395200531041226544e-01) (317, 3.78287506772268966593e-01) (318, -1.22504433187042560682e+00) (319, -1.54602712539461062402e-01) (320, -3.12762409226941748286e-02) (321, -1.89194142011817945104e-01) (322, -2.26827194554575256591e-01) (323, -5.06803315380563779158e-01) (324, -4.05100260177602700118e-01) (325, -1.07876396862682355504e-01) (326, -9.39026615897979866077e-02) (327, -1.30800455786471370168e-01) (328, -9.16367400330968251421e-02) (329, -2.21256246455084792935e-01) (330, -1.37656536517930172536e+00) (331, -9.73594061937559929198e-02) (332, -1.10857235230614054045e-01) (333, 1.98072710407677987643e-01) (334, -7.81327858345556569564e-02) (335, -5.49990165872044911577e-02) (336, -1.83724160472905184704e-01) (337, 5.87260284510071839392e-01) (338, 2.13422806851432417252e-01) (339, -1.32814504184012416310e-01) (340, -4.78155985252905132987e-02) (341, -1.82845294253873788537e-02) (342, -1.23981072692092908483e-01) (343, 1.06867403013658594790e-02) (344, -8.30344855563688588607e-02) (345, -1.38731166698222163625e-01) (346, -1.13346859790568382786e-01) (347, -1.44107043521451913537e-02) (348, 1.22203400433777281675e-01) (349, -1.82531223062939201851e-01) (350, -1.86335914198822533150e-01) (351, -1.99392099777482928458e-01) (352, -2.80801718927551902105e-01) (353, -2.22499659157921553243e-01) (354, -2.78889534867931998541e-01) (355, -2.98859251536060965826e-01) (356, 5.50788701315967021976e-01) (357, 1.95517546476630249552e-01) (358, -1.12293279944154195116e-01) (359, -1.57755598403697017140e-01) (360, -1.34906858183627131886e-01) (361, -8.04357304947424245345e-02) (362, -7.66826569812345815169e-02) (363, -5.18848299758482220390e-02) (364, -1.48747347273116115041e-01) (365, 4.37569620441917092601e-03) (366, -5.58322891371298077323e-02) (367, 2.15474665386629141151e-02) (368, -1.10311165429835350560e-01) (369, 3.36025208456468688079e-02) (370, -1.52075894154791835255e-01) (371, 4.62400831581824545147e-01) (372, 4.35845591427558187725e-01) (373, 1.89237887286414857568e-01) (374, 2.30102675282230134668e-01) (375, -1.98230124293061582552e-01) (376, -9.83584590537275593736e-02) (377, 1.67865455372285914126e-02) (378, -4.55376503634928597730e-03) (379, 2.97559797985506163664e-02) (380, -1.14693116374497444676e-01) (381, -1.39838121809248927541e-01) (382, 3.68893742783022171583e-02) (383, -2.92324721591519995356e-02) (384, 3.92456354927543313305e-03) (385, -7.57378041522550893294e-02) (386, 3.81706208212328201856e-02) (387, -1.54054708756690028615e-01) (388, -7.61332139151144338118e-02) (389, -6.60355910437155080306e-02) (390, -1.99562459377464307408e-01) (391, -5.18489256279516461112e-02) (392, 1.27198249323320460025e-02) (393, -7.01106712000418019759e-02) (394, -1.44542619563822749562e-01) (395, 2.31636315805864370643e-02) (396, -1.06543835230355293797e-01) (397, -4.11837696807432138146e-02) (398, 3.90222670864585549633e-03) (399, -1.12486538664883423122e-01) (400, 4.88196489666584687583e-01) (0, 7.66046852781341741645e-02) (1, -3.18211219296886393959e-02) (2, -4.91026020632221171791e-02) (3, -3.41266817436649272377e-02) (4, 9.83122945739792059028e-02) (5, -3.92456552968456218178e-02) (6, 7.56019265367553899848e-02) (7, 7.42899836017654607856e-02) (8, -8.46082731173469354546e-02) (9, 6.45490349247024725043e-02) (10, -8.12119855568839837945e-02) (11, -6.52552484558059503472e-02) (12, 6.06295526935623427245e-02) (13, 4.87466813041732768830e-02) (14, 9.78604615642593572700e-02) (15, -5.59171042428447742645e-02) (16, 4.61084456159637431916e-02) (17, 1.02996891827778644379e-01) (18, 2.71408320381210238503e-02) (19, -6.07360019371940493271e-02) (20, -9.04311104700996210015e-02) (21, -6.55169500992728998101e-02) (22, -8.88250335143043329156e-02) (23, -1.35064264993209749537e-03) (24, -5.08684194670154590789e-02) (25, 9.35297370864914129340e-02) (26, -5.44569532377223511355e-02) (27, -3.86146645051936299176e-02) (28, -4.91305182678203056224e-02) (29, -1.52929656485984805103e-01) (30, -2.20599933550788898651e-02) (31, -1.07808450703215721878e-02) (32, -2.30057949666571809333e-02) (33, -1.51712412480902794631e-02) (34, 4.86964171286034530617e-02) (35, -3.10895631556105667137e-02) (36, 3.91870473976540512062e-02) (37, 5.55148781253860454377e-02) (38, -2.55830376432373066131e-02) (39, 8.57953191711471746528e-02) (40, 1.36678651883171027592e-02) (41, -1.31910680816604702903e-02) (42, -8.58559845970107843316e-02) (43, -3.20986299798919627602e-02) (44, -1.76594075093935015675e-01) (45, -1.45200918386410816538e-04) (46, -1.00165408383081369625e-01) (47, -3.68816892606715351910e-02) (48, -3.54434950179858231090e-03) (49, -1.06034381809919264761e+00) (50, -1.26726899062512277094e-01) (51, -1.23084682737706063715e-01) (52, -3.47050233594693779970e-01) (53, -3.94951428137340188051e-01) (54, -3.03834813497581124331e-01) (55, -1.13460514080166108286e-01) (56, -2.58890718510374595596e-01) (57, -7.05569092690842336602e-01) (58, -6.90206699579851812310e-01) (59, 4.38795299245880107697e-02) (60, -1.10360546992256183807e-02) (61, -1.61411830225668545546e-01) (62, -5.00962268857916392939e-01) (63, -3.68102811573704169490e-01) (64, -5.13758030493882800194e-01) (65, -5.57718216464950580780e-02) (66, -2.69834092120666522996e-03) (67, -1.89862367044160845753e-01) (68, -3.02308036252095964358e-02) (69, -5.49372892467679463380e+00) (70, -1.53254897710077865602e-02) (71, -3.00851407311477303530e-01) (72, -1.64880580585836655771e-01) (73, -1.83698750498491325533e-01) (74, -2.78571978933438524351e+00) (75, -3.36814981258056223012e+00) (76, -1.19495041063465667897e+00) (77, -6.86788831412689870781e-01) (78, -7.17130285262959188408e-01) (79, 8.18947126727990748485e-02) (80, -1.87467797682716388885e-02) (81, -5.38958825467785396235e-01) (82, -3.10374182707533141645e-01) (83, -2.94949182511332175238e-01) (84, -1.05467890503186972895e-01) (85, -3.46534157068449644168e-03) (86, -7.17182179716320256091e-02) (87, -7.80570005801410893298e-02) (88, -2.01930120673935953324e-01) (89, -2.65636107534048226952e+00) (90, -2.17500808785442284465e-01) (91, -5.52248344530490542503e-01) (92, -1.20261597028412414723e+00) (93, -2.33971796570876833243e+00) (94, -6.26357565406340910386e-01) (95, -2.53566263751764553458e-01) (96, -2.40310570733328149329e-01) (97, -1.65728669988592258733e-01) (98, -7.04932991921799367852e-01) (99, -8.22857970732756016652e-02) (100, -5.23918843851520557586e-02) (101, -3.40458215332171976186e+00) (102, -2.32057578115807405794e-01) (103, 5.00153629541318089924e-02) (104, -8.22310611010388520237e-03) (105, -1.61656080768539447967e-02) (106, 1.14378069992470653149e-02) (107, -3.01795750942986606979e-01) (108, -1.87604963866036478226e-01) (109, -8.22777408796626086307e-01) (110, -5.43013826717761660667e-01) (111, -5.45633912791637087913e-01) (112, -9.73024079591851970283e-02) (113, -1.57220086432276084931e-01) (114, -5.79458500674329135549e-02) (115, -6.12314761687441921900e-02) (116, -1.10448039949664289505e-01) (117, -2.10030435769902101839e-01) (118, -4.30690554067344577582e-01) (119, -1.69606243365251263544e-01) (120, -8.47236304567291070855e-02) (121, -1.23151708534397674732e+00) (122, 5.74600195853269685164e-02) (123, 5.90633097634083670258e-01) (124, 2.03874875138200378766e-01) (125, 1.79457618923282435919e-01) (126, 1.79788313258349152779e-01) (127, -9.60449659495659191499e-01) (128, -4.28111022130768861804e-02) (129, -1.38333226810976150922e+00) (130, -1.10056283939895652169e-01) (131, 2.80091121020016563248e-02) (132, -1.97661102750979089659e-01) (133, 5.81229389621780376252e-02) (134, 1.83506681652164271856e-01) (135, 9.61696422410962953320e-02) (136, 6.12420148191824331718e-01) (137, -1.85912389269447392293e-01) (138, -2.67996805036860963334e-01) (139, -8.49920987411664427547e-03) (140, -8.31208089252023940574e-01) (141, -7.96731294726476302337e-01) (142, 5.75337408621609314174e-01) (143, -4.65609257260378994747e-02) (144, 4.97170566739735600437e-02) (145, 5.23241469402770977004e-03) (146, -2.94382813237228035952e-01) (147, -6.23538248625680191495e-02) (148, -1.30431671737734344863e-01) (149, -3.52554854056254418637e-01) (150, 1.85283788201096033532e-02) (151, -3.64324160692992143895e-02) (152, -2.09975779989443445128e-01) (153, -7.21822320507003595269e-02) (154, -4.50803055451347300941e-02) (155, -4.43715099336923435303e-01) (156, 8.79339010810654270189e-04) (157, -2.05730897297996956352e-02) (158, -1.52270589078265211613e-01) (159, -8.15197351507775808122e-02) (160, -8.03542042036562209617e-01) (161, -3.23139129312047623799e+00) (162, 1.14359661842449611413e-01) (163, -1.79836566347898810236e-02) (164, -6.71389595446886811025e-02) (165, -9.27580161974860956109e-02) (166, -1.59412905614029765111e-01) (167, 8.63698073243590380699e-01) (168, 4.19709388199074467929e-02) (169, -3.31525546816274774287e-01) (170, 9.56126234500432117813e-03) (171, -4.73220921144916484291e-02) (172, -9.01590595037561198799e-02) (173, 8.65721167041824529731e-02) (174, 4.61681694700286845978e-02) (175, -3.48287385048688613587e-01) (176, 6.36856483036994380775e-01) (177, -2.89167370977339022176e-01) (178, 1.10417821261254145426e+00) (179, -4.84368327192895437028e-02) (180, 1.30695549835388613591e-01) (181, 1.87680773871230655025e+00) (182, 1.46258469618917030797e-01) (183, 3.27554947770800242157e-01) (184, 1.05828407329529305958e-01) (185, -7.20400526211692621148e-02) (186, -1.37604984771847016489e-01) (187, 2.78103121377578532680e-01) (188, 1.30341189090430509268e+00) (189, -1.82734324772911349566e-01) (190, 5.64352284500532652700e-01) (191, 3.30113211223971636521e-01) (192, 2.68866382883160837114e-01) (193, 4.02111442336928637253e-01) (194, 1.43462825910418895203e-01) (195, 2.89613925264447458208e-01) (196, 4.02957366356742174851e-01) (197, 2.23922907972103152341e-01) (198, 2.42592168155842147215e+00) (199, -9.06605892097332166646e-02) (200, 9.94950613371792108586e-02) (201, -9.35319357166736892184e-03) (202, 6.07300735489136461753e-02) (203, 3.48530048173837259107e-01) (204, 1.44500034340976801772e-01) (205, -2.68054940936189145528e-01) (206, -9.89550558718977624206e-02) (207, 2.29502823117906151751e+00) (208, 5.78353009071403301178e-01) (209, -7.47623633043851404389e-02) (210, -7.22621808189459202687e-02) (211, -8.63681489962644932668e-02) (212, -2.30596790451116917531e-02) (213, -9.92219278949804661671e-02) (214, -5.62280880648203182370e-02) (215, -2.93447876710005231549e-02) (216, -7.76580328482694981496e-02) (217, -3.31085434449228166454e-01) (218, 1.44376778058726507048e-01) (219, -5.33737095349811827005e-03) (220, -3.36216227391708644134e-01) (221, -4.79450519732794455674e-01) (222, 1.22092886831026592453e-01) (223, -6.22530670393615023772e-02) (224, -3.44875909665250807157e-03) (225, -3.58058217118267019252e-01) (226, -1.99268068037547707583e-01) (227, 4.60222322894144775240e-01) (228, 1.18327735422401200682e-01) (229, -1.55919100672135615970e-02) (230, -6.66535361693336297906e-02) (231, -7.39031597063972284234e-02) (232, 4.11445741027464673145e-02) (233, -8.48953018886546423305e-02) (234, -1.49028502683113101002e-01) (235, 4.11511124088333110627e-02) (236, 5.35309779987103384613e-01) (237, -1.15176294256949390826e-01) (238, 4.71783813828709763794e-02) (239, 2.07063795355168153711e-02) (240, -2.34714993515957121017e-01) (241, -1.90282304311300332067e-01) (242, 2.31859323215528115303e-02) (243, 8.79309668530865382041e-03) (244, 1.64889699404792866577e-01) (245, -5.36288349519348367389e-02) (246, 2.07111844565502578597e-01) (247, 6.95543197641252719521e-01) (248, 2.68061314291380303754e-01) (249, 2.24268023202813665540e-01) (250, -9.32599521863537672672e-01) (251, -1.66974086592863085743e-01) (252, -3.29708646041850239605e-02) (253, -1.86954822669694903370e-01) (254, -1.66555192599962237354e-01) (255, 2.93760838178409311450e-02) (256, -4.30010944374883893881e-02) (257, -2.31381391374925371451e+00) (258, -3.58729804182845612992e-01) (259, -1.37954900014791048690e-01) (260, -2.38894238160087604705e-02) (261, -7.34830532897606247822e-02) (262, -1.70693695727088950997e-02) (263, 1.67565230735346482049e+00) (264, 8.45076025736382407949e-01) (265, 6.53287014899626150566e-01) (266, -5.54296381623630707303e-01) (267, 1.43731224613948826985e+00) (268, 1.90927290710313557476e+00) (269, 1.94874439666665649762e-01) (270, -1.62815108412104714297e+00) (271, -2.74285622873984002990e-01) (272, -2.43274875918112504225e-01) (273, 6.84923590137527793509e-02) (274, 1.12262136054990697975e-02) (275, 2.71148269925147622494e-01) (276, -7.28646352706117772513e-01) (277, -4.94317359674635437017e+00) (278, -1.20491053963500099888e-01) (279, -1.14878361218415964151e-01) (280, 7.37094739218215923293e-03) (281, -6.13514479756253061637e-01) (282, 3.38391216951113293909e-01) (283, -2.95973805231548037220e-01) (284, 1.97039285895065141574e-01) (285, -1.27047471842207504444e+00) (286, -7.51868559079297144043e-02) (287, 8.24346454155495567129e-01) (288, 7.32193930981531515556e-01) (289, 1.59134245904727460175e-02) (290, -4.21274046403865010113e-02) (291, -2.72193988648955324805e-02) (292, -1.33400426974353281118e-01) (293, 2.53066329454808801314e-02) (294, 5.79774085030323904633e-01) (295, 1.07097995466225420769e-01) (296, -2.37492897549353348952e-01) (297, -1.59736773743756232946e+00) (298, -2.79387260104018708695e-01) (299, -4.01656675271623228585e-02) (300, -5.20891412184669513885e-02) (301, -4.85191061184837291176e-02) (302, -1.55210788104718611091e-01) (303, -1.10761500373713989154e-01) (304, -6.71640136947003196788e-02) (305, -2.92631382497477651738e-02) (306, -1.29002677073535410024e-01) (307, 3.00925246234237442344e-01) (308, 1.39227571186260029590e-01) (309, 2.15085769685314787125e-01) (310, 4.41976490030058649650e-02) (311, 3.14983000907928079037e-01) (312, -7.20019429014159967339e-02) (313, 1.59613024185198348892e-01) (314, 1.80582817106554674447e-02) (315, 6.85954005434082358938e-02) (316, 3.33660075637606939880e-02) (317, -4.94679521911367658937e-01) (318, -2.06302341600804162169e+00) (319, -1.02359232597791435793e-01) (320, 3.04350093915031379155e-02) (321, -1.69464959786369342987e-02) (322, 9.58500263383810138101e-04) (323, -5.70925067169169922487e-02) (324, -1.45766958872745516773e-01) (325, -2.10761069343521137420e-02) (326, 4.48447526409194927033e-02) (327, 6.95191183824996929153e-03) (328, 7.56917352053432523906e-02) (329, 2.37999810337941285210e-02) (330, -1.39887460225286114346e-01) (331, -1.14929332377127907394e-01) (332, 1.15344180884060839437e-02) (333, 1.37379221936971884777e-01) (334, -2.62310065606260328641e-03) (335, 2.12432870837954874965e-02) (336, 4.92806786867885024406e-02) (337, -8.29655365903883224021e-01) (338, -3.90526071895984316917e-01) (339, -7.61788799450828363335e-02) (340, -9.23092751787139703668e-02) (341, -2.04142197058631916229e-02) (342, -9.24183814809753229058e-02) (343, -7.07072629616691400445e-02) (344, -2.20199390337898273651e-02) (345, -4.12962934956981608803e-02) (346, 9.14920628978775213325e-02) (347, 9.67048467113540838325e-02) (348, -7.19881816790534784234e-02) (349, 1.91645229431895609828e-02) (350, -2.73862277892323036088e-02) (351, 6.02959448668269545890e-02) (352, 6.97526303780507950236e-02) (353, 3.28617064011525947254e-02) (354, -2.35083358633089191392e-02) (355, -7.66567619788217496923e-02) (356, -3.05253069614289329614e-01) (357, -6.72354563162757684625e-02) (358, 4.11069742397545713486e-03) (359, 8.42642397596405218207e-02) (360, -1.28993853018714993430e-02) (361, 7.21364677860306252599e-02) (362, 8.68295491649673650825e-02) (363, 8.65215123607681463325e-02) (364, 4.25794781162307720002e-02) (365, -2.79070525453521747772e-02) (366, -6.87642535428543109910e-03) (367, -2.27810605452491779510e-02) (368, 7.99802006198929021918e-02) (369, -4.45528491423561046059e-02) (370, -5.35599282245178328482e-03) (371, 8.12748731090591619575e-02) (372, 2.86368713690803439187e-02) (373, -4.17042663554687519090e-03) (374, 1.04171550364689655122e-01) (375, 1.00220880003170795258e-01) (376, 1.05246489401268870922e-02) (377, 8.92675728513763616645e-02) (378, 9.05296714021728704536e-02) (379, 6.97529972507522910696e-02) (380, -6.20912155370254535691e-03) (381, -5.14977849111988086883e-02) (382, 1.54077247693107551030e-02) (383, -2.50283717201187153045e-02) (384, 9.27920402004287908637e-02) (385, 1.03327518792347736176e-01) (386, 9.74299618740539184747e-03) (387, -9.03902887390090753472e-02) (388, -7.03039928362800409234e-02) (389, -5.49297756538822193328e-02) (390, 8.74778986885116766059e-02) (391, 1.04005546285675012225e-02) (392, -8.91893669054939081109e-02) (393, 6.79113925411270608068e-02) (394, -9.47396597127456510656e-03) (395, 4.69940663291976909455e-02) (396, -6.63917078659965326226e-02) (397, 7.72535563423202703559e-02) (398, -8.21830495284034540093e-02) (399, -9.28075700090362359918e-02) (400, 3.52100460787063307411e-01) (0, 4.67147425457640930180e-01) (1, 5.43153770908519129001e-01) (2, 5.09627991065188745701e-01) (3, 5.56580953940555067661e-01) (4, 5.40929265960856775486e-01) (5, 5.03452815756007532322e-01) (6, 4.98322137340709014897e-01) (7, 5.23800783499881128513e-01) (8, 4.87586424395247741703e-01) (9, 4.61679064377948089604e-01) (10, 4.11195602908536350650e-01) (11, 5.29692598327800134861e-01) (12, 3.70690733834906971378e-01) (13, 4.79771175131007476811e-01) (14, 5.16088583215876917087e-01) (15, 3.67622197314902698917e-01) (16, 3.83118116006060993595e-01) (17, 5.19302242144748071873e-01) (18, 3.90922152146502888126e-01) (19, 4.21792288020058914189e-01) (20, 5.00384085520907739841e-01) (21, 4.94926654442950531010e-01) (22, 4.26206861331864639286e-01) (23, 4.61899415299102111820e-01) (24, 3.79056633159324085636e-01) (25, 9.88048420397478061039e-02) (26, 7.92135101807074915037e-02) (27, 1.40015992249246157275e-01) (28, -3.16723632562203386009e-02) (29, 8.00098878395514995221e-02) (30, -4.00754037249131112031e-02) (31, 6.72535731986546592154e-01) (32, 6.60224333003544883169e-01) (33, 7.06613257125401683645e-01) (34, 6.61638103023552970328e-01) (35, 6.33675023511433677115e-01) (36, 6.42587497428441123404e-01) (37, 3.97840552672549641056e-01) (38, 3.95356126770183002872e-01) (39, 3.68054241582557117862e-01) (40, 2.40410001126962723228e-02) (41, -8.92318344111364264437e-02) (42, 1.96326464463067104638e-03) (43, 8.93482330327119156355e-02) (44, 1.62578352262443437404e-01) (45, 9.00908564228476427260e-02) (46, 1.06609426905578508205e-01) (47, 1.78217895795768688227e-01) (48, 1.87304198360773374588e-02) (49, 9.18424520309676917229e-01) (50, 2.12183442011541911754e+00) (51, 2.26412282556361788011e+00) (52, 3.83160449504964528700e-01) (53, 4.16919261157624898573e-01) (54, 1.73906169524059350806e-01) (55, 2.29866533681555518243e-01) (56, 8.13459281387038379840e-01) (57, 5.62600060565456305817e-01) (58, 1.81374355132334963425e-01) (59, 4.90120806440516754154e-01) (60, 2.74090781017943097009e-01) (61, -2.40378822756457111165e-01) (62, -2.25094875156978575792e-02) (63, 3.37067402839772933820e-01) (64, -3.87408922785610204675e-02) (65, 3.20552394835191822864e-02) (66, 3.75077436844882192157e-03) (67, 5.77095401537375818357e-02) (68, 1.15859686063689037994e+00) (69, 1.40584510879832480512e+00) (70, 2.40183315381212958428e-01) (71, 2.26979709371729621026e-01) (72, 1.43222912356062603845e-01) (73, 3.67844968974702590803e-01) (74, -8.18721655877977627647e-01) (75, -3.52935418356156938025e-01) (76, -3.00189648098900141449e-01) (77, 6.93611338002666277802e-01) (78, 6.65263617491168468554e-01) (79, 3.86750515501775249394e-01) (80, 2.34034425720377692315e-01) (81, -4.55770812841267025650e-01) (82, 6.91402582397942222503e-02) (83, 1.16902397798460744305e+00) (84, 5.09532945424258887357e+00) (85, 3.01494433591230670544e+00) (86, 1.24193468397675435000e+01) (87, 1.14974847824694026421e+00) (88, 3.19264590190449881746e+00) (89, 9.60941606875085896355e-01) (90, 4.50912000483480623902e-01) (91, 2.78923450620918778053e-01) (92, 1.22886118518538728361e-01) (93, 1.54945749230240936711e+00) (94, 3.24770757114501151808e-01) (95, -7.43958884385034324715e-01) (96, -3.71528736405360937578e-01) (97, 1.17130926723235384568e-01) (98, 6.09640756701869457324e-01) (99, 4.65311437796630256170e-01) (100, 2.64873640488749506616e-01) (101, -1.78328928158697230799e+00) (102, 3.41136319829593581687e-01) (103, 8.62223068202686460104e-01) (104, 2.27478566699343653923e+00) (105, 1.27172838056827353093e+00) (106, 2.62295173181919816230e+00) (107, 5.65293323857462448601e-01) (108, 3.21831648992100882722e+00) (109, 1.61766595042541316829e-01) (110, 1.12446754206985044533e+00) (111, 1.36564977679537213895e+00) (112, 7.76548779381525777765e-01) (113, 5.68573013211485234208e-01) (114, 5.37472608644926075350e-01) (115, 2.28523856056099677891e-01) (116, 1.99333413418079030688e-01) (117, -1.27701957127863419128e-02) (118, 8.82128873525231171904e-01) (119, 5.21657741686969211869e-01) (120, 1.55045920859938624048e-01) (121, -3.57406432553708297561e-01) (122, 5.23978857680283738318e+00) (123, 8.22945271680468048991e-01) (124, 2.02463585245760846476e+00) (125, 2.27009422290286844159e+00) (126, 1.34380845800358317277e+00) (127, 4.41629913488158436508e+01) (128, 2.68009227587609055732e+00) (129, 1.59288865865693263224e+00) (130, 5.34690664718863506444e-01) (131, 5.55556729699369755693e-01) (132, 3.42179655969255203107e-01) (133, 4.30636659905120178227e-01) (134, 3.72426828963727363231e-01) (135, 5.09922794722176053739e-01) (136, 5.89514966268502860203e-01) (137, 2.40158805066667091488e-01) (138, -7.54355666211813935540e-02) (139, 5.62153200677304676347e-01) (140, -1.04832191764904880671e-01) (141, 4.09710904500208694667e-02) (142, 4.25845512369382284135e+00) (143, -1.74191937611926683793e+00) (144, 1.46856413116772856892e-02) (145, 6.97519810960965824798e-01) (146, 2.82328052889650182866e-01) (147, 2.85466080831197466239e+01) (148, 5.19079419954739762488e+00) (149, 1.04488248700688873827e-01) (150, 2.79657201019960499622e-02) (151, -2.35408144511862621462e-02) (152, 4.50954273283593942701e-01) (153, 3.72324102267428791446e-01) (154, 4.68391933187648101811e-01) (155, 2.59307937573557856226e-01) (156, 5.61870790742493131376e-01) (157, 7.32318998154126821198e-01) (158, -5.58531470270976160286e-01) (159, 6.91648527106910271378e-01) (160, -5.00967994328278543037e-02) (161, 1.66321633324814976973e+00) (162, 1.33949436023348278368e+00) (163, -2.77445467283394719971e+00) (164, 6.46635845784494844857e-01) (165, 3.18663447305365221673e-01) (166, 1.95891184735787093896e-01) (167, 1.15258465780735397388e+00) (168, 3.68747854602739089103e+00) (169, -1.26210703845553190439e-01) (170, 9.05405560015848376310e-02) (171, 1.13583473623538711017e+00) (172, 3.73430512786023849348e-01) (173, -5.18616931953116283571e-02) (174, 1.15838008888752869163e-01) (175, -1.47244892325448850645e-01) (176, -7.65172404761523039518e-01) (177, 1.91021088976346042898e+00) (178, -6.81957868948340067972e-02) (179, 7.07238747796683830948e-01) (180, -1.84437505052770789327e-01) (181, 6.62936482509386415529e-01) (182, 7.68583164339198376958e-01) (183, -2.39291944615466933843e-01) (184, 5.45084352636543978399e-01) (185, -3.98398853756280924010e-01) (186, -1.45009394701052396481e-01) (187, -6.18176594953095293050e-01) (188, 1.93514803928800116495e+00) (189, -1.95464768108132985747e-01) (190, -5.44113621010089310026e-01) (191, 3.97307657149264858987e-01) (192, -3.16759704213848969356e-02) (193, -3.14134205774750041584e-01) (194, -2.37766771660532172383e-01) (195, -6.04908470347132798395e-01) (196, -4.56431337438326512057e+00) (197, 1.24642142828706692370e+00) (198, -1.41492678714826602970e+00) (199, 8.07914502898374409234e-01) (200, -3.29676806078638362507e-01) (201, -1.48402182983234576241e+00) (202, 8.43524628107680585209e-01) (203, -5.52728660291823103989e-01) (204, 3.46643316447700633454e-01) (205, 1.62989738811033124666e-01) (206, -5.53520420743638247307e-02) (207, -2.02891894020953822420e+00) (208, 2.82066663192260091986e-01) (209, 1.70930466526445590247e+00) (210, -2.02649443739434054201e-01) (211, 6.08978861670149917984e-01) (212, 4.31917372883440564557e-01) (213, 4.93976264984489987775e-01) (214, 1.28873207023656316528e-01) (215, 1.43610507598435854781e-01) (216, -8.02786559671975985530e-01) (217, 5.64103757728355303946e-01) (218, -6.29980035674644556210e-01) (219, 9.83567878583589294550e-01) (220, 3.49973343724960250789e-01) (221, 2.91293094451698653113e-01) (222, 5.35076786511486601761e-01) (223, 1.45090222900751908419e-01) (224, 1.52494177685848331105e-01) (225, 4.67450456083913334915e-01) (226, 2.10895449458676242926e+00) (227, 5.24809541241734955896e-01) (228, 9.57560761821607209221e-01) (229, 6.99825844577970634930e+00) (230, 6.00860685416692574812e-01) (231, 1.37531644756341719926e+00) (232, 5.61370082840129347446e-01) (233, 7.11094500695237052845e-01) (234, 5.82332806859978679981e-01) (235, 6.64253326331146976003e-01) (236, 2.25284290322601832290e-01) (237, 8.82440468729085769617e-01) (238, 6.51654545554842146160e-01) (239, 1.09041182136031133965e+00) (240, 4.60164301509612849728e-01) (241, 6.38554336599823413323e-01) (242, 3.92798097365782861168e-01) (243, -3.89292751361328542847e-02) (244, -6.66935361408628968327e-01) (245, 2.59763366057305100654e+00) (246, 2.87490625239418373660e-01) (247, -1.57557816511831844108e-01) (248, 5.87001841924416400964e-01) (249, 6.05219206882393723212e-01) (250, 2.37679652109115346903e+00) (251, 1.55216115440125979053e-01) (252, -2.07529312372557797617e-02) (253, -7.19415268302314170334e-02) (254, 4.10786074650245011664e-02) (255, 5.86570557711619255947e-02) (256, -2.78700615708266485893e-01) (257, 4.50183908502150842423e-01) (258, 2.06986814558815568343e-01) (259, 6.61205898523216539786e-01) (260, 5.21039121493502954685e-01) (261, 1.21414998681092956012e+00) (262, 2.45683685035351206949e-01) (263, 2.08067987432997592023e-01) (264, 6.99477071393153404522e-01) (265, 4.37446711692157430562e-01) (266, -9.86341194665420542553e-03) (267, -4.00386272994361114286e+00) (268, 1.77344723883206545345e-01) (269, 6.28457016421234970771e-01) (270, 1.13832648902356270426e+00) (271, 2.52577101152998362288e-01) (272, -9.16402016391812401785e-02) (273, 4.63643424853488250736e-01) (274, 4.29059682907527828455e-01) (275, 2.42918013496707829724e-01) (276, -7.12487232160725070251e-01) (277, 2.53888237375909708859e-01) (278, -1.49206830931935297002e+00) (279, 7.04056157788901848527e-01) (280, 4.91071940108939453129e-01) (281, 1.06483359461932991508e-02) (282, 1.05680856464316548227e+01) (283, 2.28401122818080493104e+00) (284, 1.42368951345229888261e+00) (285, 3.05945245001388310691e-01) (286, 1.27358291203523443791e+00) (287, 5.91388345182920716070e-01) (288, -2.30485781943407075367e-01) (289, -5.35334693873150135879e-01) (290, 8.48073471365266284838e-02) (291, 9.13244722579309553545e-01) (292, 1.96035341045539185378e-01) (293, 5.68207285019562968742e-02) (294, 2.75997569669697795369e-01) (295, -2.36222767377476827733e+00) (296, -1.00367648739526343221e-02) (297, -1.29639064901497125248e-01) (298, -3.87087304523583464189e+00) (299, 9.91599991897263999263e-01) (300, 4.64466907724543853764e-01) (301, 9.62459025037246257428e-02) (302, 1.03076903894484117608e+00) (303, 2.75816987383065315154e-01) (304, -6.09006467744813012599e-02) (305, -8.10287006518728702975e-02) (306, -1.12463967505526341029e-01) (307, -6.52833354566463713864e-02) (308, -1.35863000602517519644e-01) (309, -7.96162199864696051854e-01) (310, 1.10436026134874198945e+00) (311, -6.41681003871432398267e-02) (312, -2.25162360402510586255e-01) (313, -3.71251353521550364611e-01) (314, 2.88465023201545878173e-01) (315, 7.92012679279943676569e-01) (316, 1.79484503797838645944e-01) (317, -8.94474052019666121538e-01) (318, 1.16807359824383102942e-01) (319, 7.04641341290145439835e-01) (320, 5.15477099165126184666e-01) (321, 3.52430037339894960957e-02) (322, -1.38689827392462716737e-01) (323, -1.26365637668594994747e-02) (324, 2.69586683426050258139e-03) (325, -3.87948646100324812114e-02) (326, -6.58171146066946349817e-02) (327, 4.25326505425970946561e-01) (328, 2.49404118506151260826e-02) (329, -8.48492118513726523155e-01) (330, 2.69075918527632129695e-01) (331, 6.17654173744595413886e-01) (332, 2.24953062731355554749e-02) (333, -2.34549752398696798039e-01) (334, 5.65412395342990370395e-01) (335, 1.17630559150525837442e-01) (336, 6.62709218910209951758e-01) (337, 1.03995972892955340638e-01) (338, 6.54483998274249523242e-01) (339, 3.87323566421672260685e-01) (340, 4.50487450405761047367e-01) (341, 3.68805863603755390567e-01) (342, -1.34679122718137887771e-02) (343, 3.91766861721679127140e-01) (344, 3.78555931791469013614e-01) (345, 3.98888581141635334415e-01) (346, 5.04462727054759363376e-01) (347, 4.56605606421634002690e-01) (348, 3.36554884120627062494e-01) (349, 3.90746400801378346301e-02) (350, -5.42400957413981421595e-01) (351, 1.15166607482712191057e+00) (352, 1.04873288406412523699e+00) (353, 1.13448193652908724260e+00) (354, 1.07187376154940050554e+00) (355, 1.86532693823367812236e+00) (356, 1.21236560788794989207e+00) (357, 5.08764291357199249788e-01) (358, 6.65045886829876975455e-01) (359, 4.82557759329482360844e-01) (360, 4.32565466210051818852e-01) (361, 3.91328931495353138370e-01) (362, 5.05007975444003442966e-01) (363, 5.36330901726886133396e-01) (364, 4.37521674379512115483e-01) (365, 5.02941780432864526951e-01) (366, 4.74926666065856262211e-01) (367, 5.13751485094233850681e-01) (368, 5.13721757277652124607e-01) (369, 4.51305308088465972904e-01) (370, 4.66199973348181639921e-01) (371, 7.01938790373555221436e-02) (372, 1.26095838575815299976e-01) (373, 1.99410345625134266534e-01) (374, 1.99779249947520054498e-01) (375, 5.78794784601568301774e-01) (376, 6.46701134339356498160e-01) (377, 5.58003090962573500278e-01) (378, 5.52836992487117262485e-01) (379, 4.49136369570895477299e-01) (380, 4.97599192604228302006e-01) (381, 4.29714959755345626835e-01) (382, 3.94211233302756702823e-01) (383, 5.39740868553325037205e-01) (384, 5.57605676993533583286e-01) (385, 4.59493771835967346195e-01) (386, 5.17422639474078516209e-01) (387, 5.47222980007335046970e-01) (388, 5.59480675205394240024e-01) (389, 4.20348834886952682499e-01) (390, -5.69785822947445688702e-03) (391, 4.24567554786607070927e-01) (392, 4.44199197634860321049e-01) (393, 3.99831571325465595645e-01) (394, 3.93419892236396229190e-01) (395, 5.14242299541636804783e-01) (396, 5.35294779285594324314e-01) (397, 5.00867970928355554783e-01) (398, 4.60515209182902618412e-01) (399, 4.50610220844501307980e-01) (400, -1.65409146302972709375e-01) (0, 4.00359554157393937590e-01) (1, 4.84516473428147798064e-01) (2, 4.43575182870763307097e-01) (3, 4.53531006292241578581e-01) (4, 5.38056822434800574584e-01) (5, 5.39806561485665747924e-01) (6, 5.38112463370698401732e-01) (7, 5.28581337944406093321e-01) (8, 5.25164978519815028868e-01) (9, 4.19770264939206605437e-01) (10, 4.58701962546247010710e-01) (11, 3.87401370272773382109e-01) (12, 4.46502918318646913054e-01) (13, 4.30964263097184663298e-01) (14, 3.77528468088048574369e-01) (15, 5.38518132583039710326e-01) (16, 