FANN_FLO_2.1
num_layers=3
learning_rate=0.700000
connection_rate=1.000000
network_type=0
learning_momentum=0.000000
training_algorithm=2
train_error_function=1
train_stop_function=0
cascade_output_change_fraction=0.010000
quickprop_decay=-0.000100
quickprop_mu=1.750000
rprop_increase_factor=1.200000
rprop_decrease_factor=0.500000
rprop_delta_min=0.000000
rprop_delta_max=50.000000
rprop_delta_zero=0.100000
cascade_output_stagnation_epochs=12
cascade_candidate_change_fraction=0.010000
cascade_candidate_stagnation_epochs=12
cascade_max_out_epochs=150
cascade_min_out_epochs=50
cascade_max_cand_epochs=150
cascade_min_cand_epochs=50
cascade_num_candidate_groups=2
bit_fail_limit=3.49999999999999977796e-01
cascade_candidate_limit=1.00000000000000000000e+03
cascade_weight_multiplier=4.00000000000000022204e-01
cascade_activation_functions_count=10
cascade_activation_functions=3 5 7 8 10 11 14 15 16 17 
cascade_activation_steepnesses_count=4
cascade_activation_steepnesses=2.50000000000000000000e-01 5.00000000000000000000e-01 7.50000000000000000000e-01 1.00000000000000000000e+00 
layer_sizes=145 51 6 
scale_included=0
neurons (num_inputs, activation_function, activation_steepness)=(0, 0, 0.00000000000000000000e+00) (0, 0, 0.00000000000000000000e+00) (0, 0, 0.00000000000000000000e+00) (0, 0, 0.00000000000000000000e+00) (0, 0, 0.00000000000000000000e+00) (0, 0, 0.00000000000000000000e+00) (0, 0, 0.00000000000000000000e+00) (0, 0, 0.00000000000000000000e+00) (0, 0, 0.00000000000000000000e+00) (0, 0, 0.00000000000000000000e+00) (0, 0, 0.00000000000000000000e+00) (0, 0, 0.00000000000000000000e+00) (0, 0, 0.00000000000000000000e+00) (0, 0, 0.00000000000000000000e+00) (0, 0, 0.00000000000000000000e+00) (0, 0, 0.00000000000000000000e+00) (0, 0, 0.00000000000000000000e+00) (0, 0, 0.00000000000000000000e+00) (0, 0, 0.00000000000000000000e+00) (0, 0, 0.00000000000000000000e+00) (0, 0, 0.00000000000000000000e+00) (0, 0, 0.00000000000000000000e+00) (0, 0, 0.00000000000000000000e+00) (0, 0, 0.00000000000000000000e+00) (0, 0, 0.00000000000000000000e+00) (0, 0, 0.00000000000000000000e+00) (0, 0, 0.00000000000000000000e+00) (0, 0, 0.00000000000000000000e+00) (0, 0, 0.00000000000000000000e+00) (0, 0, 0.00000000000000000000e+00) (0, 0, 0.00000000000000000000e+00) (0, 0, 0.00000000000000000000e+00) (0, 0, 0.00000000000000000000e+00) (0, 0, 0.00000000000000000000e+00) (0, 0, 0.00000000000000000000e+00) (0, 0, 0.00000000000000000000e+00) (0, 0, 0.00000000000000000000e+00) (0, 0, 0.00000000000000000000e+00) (0, 0, 0.00000000000000000000e+00) (0, 0, 0.00000000000000000000e+00) (0, 0, 0.00000000000000000000e+00) (0, 0, 0.00000000000000000000e+00) (0, 0, 0.00000000000000000000e+00) (0, 0, 0.00000000000000000000e+00) (0, 0, 0.00000000000000000000e+00) (0, 0, 0.00000000000000000000e+00) (0, 0, 0.00000000000000000000e+00) (0, 0, 0.00000000000000000000e+00) (0, 0, 0.00000000000000000000e+00) (0, 0, 0.00000000000000000000e+00) (0, 0, 0.00000000000000000000e+00) (0, 0, 0.00000000000000000000e+00) (0, 0, 0.00000000000000000000e+00) (0, 0, 0.00000000000000000000e+00) (0, 0, 0.00000000000000000000e+00) (0, 0, 0.00000000000000000000e+00) (0, 0, 0.00000000000000000000e+00) (0, 0, 0.00000000000000000000e+00) (0, 0, 0.00000000000000000000e+00) (0, 0, 0.00000000000000000000e+00) (0, 0, 0.00000000000000000000e+00) (0, 0, 0.00000000000000000000e+00) (0, 0, 0.00000000000000000000e+00) (0, 0, 0.00000000000000000000e+00) (0, 0, 0.00000000000000000000e+00) (0, 0, 0.00000000000000000000e+00) (0, 0, 0.00000000000000000000e+00) (0, 0, 0.00000000000000000000e+00) (0, 0, 0.00000000000000000000e+00) (0, 0, 0.00000000000000000000e+00) (0, 0, 0.00000000000000000000e+00) (0, 0, 0.00000000000000000000e+00) (0, 0, 0.00000000000000000000e+00) (0, 0, 0.00000000000000000000e+00) (0, 0, 0.00000000000000000000e+00) (0, 0, 0.00000000000000000000e+00) (0, 0, 0.00000000000000000000e+00) (0, 0, 0.00000000000000000000e+00) (0, 0, 0.00000000000000000000e+00) (0, 0, 0.00000000000000000000e+00) (0, 0, 0.00000000000000000000e+00) (0, 0, 0.00000000000000000000e+00) (0, 0, 0.00000000000000000000e+00) (0, 0, 0.00000000000000000000e+00) (0, 0, 0.00000000000000000000e+00) (0, 0, 0.00000000000000000000e+00) (0, 0, 0.00000000000000000000e+00) (0, 0, 0.00000000000000000000e+00) (0, 0, 0.00000000000000000000e+00) (0, 0, 0.00000000000000000000e+00) (0, 0, 0.00000000000000000000e+00) (0, 0, 0.00000000000000000000e+00) (0, 0, 0.00000000000000000000e+00) (0, 0, 0.00000000000000000000e+00) (0, 0, 0.00000000000000000000e+00) (0, 0, 0.00000000000000000000e+00) (0, 0, 0.00000000000000000000e+00) (0, 0, 0.00000000000000000000e+00) (0, 0, 0.00000000000000000000e+00) (0, 0, 0.00000000000000000000e+00) (0, 0, 0.00000000000000000000e+00) (0, 0, 0.00000000000000000000e+00) (0, 0, 0.00000000000000000000e+00) (0, 0, 0.00000000000000000000e+00) (0, 0, 0.00000000000000000000e+00) (0, 0, 0.00000000000000000000e+00) (0, 0, 0.00000000000000000000e+00) (0, 0, 0.00000000000000000000e+00) (0, 0, 0.00000000000000000000e+00) (0, 0, 0.00000000000000000000e+00) (0, 0, 0.00000000000000000000e+00) (0, 0, 0.00000000000000000000e+00) (0, 0, 0.00000000000000000000e+00) (0, 0, 0.00000000000000000000e+00) (0, 0, 0.00000000000000000000e+00) (0, 0, 0.00000000000000000000e+00) (0, 0, 0.00000000000000000000e+00) (0, 0, 0.00000000000000000000e+00) (0, 0, 0.00000000000000000000e+00) (0, 0, 0.00000000000000000000e+00) (0, 0, 0.00000000000000000000e+00) (0, 0, 0.00000000000000000000e+00) (0, 0, 0.00000000000000000000e+00) (0, 0, 0.00000000000000000000e+00) (0, 0, 0.00000000000000000000e+00) (0, 0, 0.00000000000000000000e+00) (0, 0, 0.00000000000000000000e+00) (0, 0, 0.00000000000000000000e+00) (0, 0, 0.00000000000000000000e+00) (0, 0, 0.00000000000000000000e+00) (0, 0, 0.00000000000000000000e+00) (0, 0, 0.00000000000000000000e+00) (0, 0, 0.00000000000000000000e+00) (0, 0, 0.00000000000000000000e+00) (0, 0, 0.00000000000000000000e+00) (0, 0, 0.00000000000000000000e+00) (0, 0, 0.00000000000000000000e+00) (0, 0, 0.00000000000000000000e+00) (0, 0, 0.00000000000000000000e+00) (0, 0, 0.00000000000000000000e+00) (0, 0, 0.00000000000000000000e+00) (0, 0, 0.00000000000000000000e+00) (0, 0, 0.00000000000000000000e+00) (0, 0, 0.00000000000000000000e+00) (0, 0, 0.00000000000000000000e+00) (145, 6, 5.00000000000000000000e-01) (145, 6, 5.00000000000000000000e-01) (145, 6, 5.00000000000000000000e-01) (145, 6, 5.00000000000000000000e-01) (145, 6, 5.00000000000000000000e-01) (145, 6, 5.00000000000000000000e-01) (145, 6, 5.00000000000000000000e-01) (145, 6, 5.00000000000000000000e-01) (145, 6, 5.00000000000000000000e-01) (145, 6, 5.00000000000000000000e-01) (145, 6, 5.00000000000000000000e-01) (145, 6, 5.00000000000000000000e-01) (145, 6, 5.00000000000000000000e-01) (145, 6, 5.00000000000000000000e-01) (145, 6, 5.00000000000000000000e-01) (145, 6, 5.00000000000000000000e-01) (145, 6, 5.00000000000000000000e-01) (145, 6, 5.00000000000000000000e-01) (145, 6, 5.00000000000000000000e-01) (145, 6, 5.00000000000000000000e-01) (145, 6, 5.00000000000000000000e-01) (145, 6, 5.00000000000000000000e-01) (145, 6, 5.00000000000000000000e-01) (145, 6, 5.00000000000000000000e-01) (145, 6, 5.00000000000000000000e-01) (145, 6, 5.00000000000000000000e-01) (145, 6, 5.00000000000000000000e-01) (145, 6, 5.00000000000000000000e-01) (145, 6, 5.00000000000000000000e-01) (145, 6, 5.00000000000000000000e-01) (145, 6, 5.00000000000000000000e-01) (145, 6, 5.00000000000000000000e-01) (145, 6, 5.00000000000000000000e-01) (145, 6, 5.00000000000000000000e-01) (145, 6, 5.00000000000000000000e-01) (145, 6, 5.00000000000000000000e-01) (145, 6, 5.00000000000000000000e-01) (145, 6, 5.00000000000000000000e-01) (145, 6, 5.00000000000000000000e-01) (145, 6, 5.00000000000000000000e-01) (145, 6, 5.00000000000000000000e-01) (145, 6, 5.00000000000000000000e-01) (145, 6, 5.00000000000000000000e-01) (145, 6, 5.00000000000000000000e-01) (145, 6, 5.00000000000000000000e-01) (145, 6, 5.00000000000000000000e-01) (145, 6, 5.00000000000000000000e-01) (145, 6, 5.00000000000000000000e-01) (145, 6, 5.00000000000000000000e-01) (145, 6, 5.00000000000000000000e-01) (0, 6, 0.00000000000000000000e+00) (51, 6, 5.00000000000000000000e-01) (51, 6, 5.00000000000000000000e-01) (51, 6, 5.00000000000000000000e-01) (51, 6, 5.00000000000000000000e-01) (51, 6, 5.00000000000000000000e-01) (0, 6, 0.00000000000000000000e+00) 
connections (connected_to_neuron, weight)=(0, 5.22647443244208864677e-01) (1, 5.95802280137290529716e-01) (2, 5.11223609575976900565e-01) (3, 5.10833139548053316581e-01) (4, 6.30104209313144258964e-01) (5, 6.49365331063022188651e-01) (6, 5.62230485508193544852e-01) (7, 5.33330521563043169486e-01) (8, 6.82132060656299166190e-01) (9, 5.59569570252646975028e-01) (10, 5.71622620353450572317e-01) (11, 6.86694051155795626151e-01) (12, 6.55075679549922518241e-01) (13, 2.00006119582252533950e-01) (14, 5.45724331418027452933e-01) (15, 1.11780006164955358905e+00) (16, 1.17605463514374952716e+00) (17, 2.40345889608521856573e+00) (18, 6.05174872109641603934e-01) (19, 6.16876977512588076102e-01) (20, 2.44242845349060933025e-01) (21, 2.55345395080792347819e-01) (22, 2.90154760949360768230e-01) (23, 6.50784800777186922538e-01) (24, 3.71781734995590973369e-01) (25, 2.93797301425348378334e-01) (26, 6.09734113344897799003e-01) (27, 1.31373079510190615693e+00) (28, 2.26408428492272673083e+00) (29, 2.44918819050450720098e+00) (30, -1.09205560471711898840e-01) (31, -9.22987625858170956938e-02) (32, -4.94752459899271246346e-01) (33, 2.97665724358353922518e-01) (34, -4.65532739386642691048e-01) (35, 3.40432359151589203350e-01) (36, 3.72396899633156586162e-01) (37, -8.12790170690315810775e-02) (38, 2.25995744558299360705e+00) (39, 7.44705576638814759072e-01) (40, 2.44754250141108808947e+00) (41, 2.40822538267035879400e+00) (42, 7.38444019298192810830e-01) (43, 7.13644642572042298134e-01) (44, 6.96748424510595154580e-01) (45, 2.02487104721733479629e-01) (46, -5.12901507989252380959e-01) (47, 5.46173132041444353568e-01) (48, 1.92336863185308265534e-01) (49, -1.27858275994374781526e+00) (50, 6.75650152455164576537e-01) (51, 1.14826154621548526258e+00) (52, 6.45576633427834972734e-02) (53, 2.17095506687963402115e+00) (54, 2.21133349741838236557e-01) (55, 8.07541071428278245392e-02) (56, 1.36098617966316060013e-01) (57, -1.72538694020359650860e-01) (58, -4.69741315320814367684e-01) (59, -5.73917619304907533628e-03) (60, 2.07609815569638672672e-01) (61, 5.86135211166000535954e-01) (62, 3.49735639476412840665e-01) (63, 3.76180168707366188730e-02) (64, 3.77128677270207657291e-01) (65, 8.57531205110863559149e-01) (66, 4.22866485499972410977e-01) (67, 3.58023620628947325528e-01) (68, 3.37466380977267332852e-01) (69, 1.78610336848652212494e-01) (70, -4.20273152744907341205e-01) (71, 3.32583158695334502042e-01) (72, 9.85052716453070770219e-02) (73, 2.94409985678629138039e-01) (74, -1.41258066616968069873e+00) (75, -2.69413260996450611151e-02) (76, -9.84134901162372621730e-02) (77, 6.35300746432919227757e-01) (78, 8.20657488993570827240e-01) (79, 1.38466436938516901378e+00) (80, 1.53102218137256884667e+00) (81, 6.53413947944945561197e-01) (82, 5.83888949992712111281e-02) (83, 1.07919677187859108791e+00) (84, 6.37539948353519014823e-01) (85, 5.56768711828756091009e-01) (86, -2.78490053940045334535e-01) (87, 6.86026195468341426498e-01) (88, 3.35552674496682412641e-01) (89, 2.06006589497137987399e-01) (90, 8.07974217971735186872e-01) (91, 7.57429553708009906110e-01) (92, 2.38674059303725538683e+00) (93, 8.74544084363297336004e-01) (94, 3.65521532252029712762e-01) (95, 5.49445013532390169608e-01) (96, 6.54440145025004915702e-01) (97, 3.63591212942050157064e-01) (98, 3.23649506691293664673e-01) (99, 7.47518565796927325628e-01) (100, 2.27691301496947584582e+00) (101, 2.38533619011450731540e-01) (102, 6.31685032116250932965e-01) (103, 1.13742121439629784163e+00) (104, 7.97519156258617134547e-01) (105, 8.95189529556622898276e-01) (106, -4.00194362477148402046e-01) (107, 5.98399284312476686942e-01) (108, 5.69077911803474223440e-01) (109, 6.63537912448246558483e-01) (110, 6.13659985740978797253e-01) (111, 5.58107766339530519950e-01) (112, 1.31192578019359240571e+00) (113, 2.43041799756015119982e+00) (114, 3.15284406593833277377e-01) (115, -6.29215349359205436408e-03) (116, 7.09310267309781861123e-01) (117, -4.64597821906889196786e-01) (118, 3.71003074817406464092e-01) (119, 6.82580496201266817557e-01) (120, 6.07970374653091005790e-01) (121, -1.25468071893879595802e-01) (122, 5.08276629278411440360e-01) (123, 5.42285240272035173881e-01) (124, 3.53996579498992991475e-01) (125, 7.91732525965147204694e-01) (126, 3.96598611922012400655e-01) (127, -1.08947599019704605139e-01) (128, -4.33944740072573054146e-01) (129, -5.00448287388665924436e-02) (130, 2.60200312607037465007e-01) (131, 6.08258823880900911796e-01) (132, 6.63938890228023104179e-01) (133, 5.37958960065593294608e-01) (134, 5.12615303525676302421e-01) (135, 6.42947728762378267753e-01) (136, 5.49129835346688799369e-01) (137, 8.75959417363577075299e-01) (138, 5.48391400853147081840e-01) (139, 6.25252152809848360526e-01) (140, 6.35175253281344942557e-01) (141, 4.96507125923385195243e-01) (142, 3.70724274091469574444e-01) (143, 3.64055110387551117412e-01) (144, -1.31015830003306965601e-01) (0, 4.52193957933927151438e-02) (1, 1.71364170051529485228e-01) (2, 1.21886652446701604369e-01) (3, 1.05382238067104894164e-01) (4, 1.69091683364822942259e-01) (5, 1.11511547602131444457e-01) (6, 2.03970116743589086061e-02) (7, 4.30599902936959905153e-02) (8, 1.26832586265518743041e-01) (9, 6.97266427049184484011e-02) (10, 1.06277008093311864378e-01) (11, 1.86831694580032903197e-01) (12, 1.75545674301102239134e-01) (13, 8.93220200968925237550e-02) (14, 7.76476157078290624147e-02) (15, 5.91500145563626789080e-02) (16, 1.79033172497296971803e-02) (17, -5.80632653750109750668e-01) (18, 3.01332925626779241091e-02) (19, 6.29066717991376422869e-02) (20, 1.26105291018033648792e-02) (21, 1.80125412083580571654e-01) (22, 1.19080897904350835326e-01) (23, 3.09229651839575792049e-01) (24, -7.45961518383728705572e-01) (25, 9.72089616786872209864e-03) (26, 9.90561810502553624636e-02) (27, -1.34570085725025045953e-01) (28, -1.24856663217977392755e-01) (29, -4.83747762359309330105e-01) (30, 1.73049616069636369442e-01) (31, 1.06605131662800389769e-01) (32, 3.21029469205084960759e-02) (33, 1.74199529083216321512e-02) (34, 5.51831789562934466042e-02) (35, 2.07803884894690538143e-01) (36, -7.02348825878607474493e-01) (37, -1.02964257038470363703e+00) (38, 4.18307619477081338299e-01) (39, 1.70959184319815660213e-01) (40, -3.38929903714216690380e-02) (41, -5.43716520733761865536e-01) (42, 1.79573488602185887819e-02) (43, 1.27895098663284856322e-01) (44, 3.25798252971015001034e-01) (45, -6.44349174655038714477e-01) (46, -4.20518472956475097835e-02) (47, 4.84828107200580893377e-01) (48, 1.53916435095585862891e-01) (49, 7.25522135227179121308e-01) (50, 8.16054756384381185796e-01) (51, 8.75565561097153333137e-01) (52, 4.36238232639138356905e-01) (53, 5.12162612407579820317e-02) (54, 3.67201171389410607748e-01) (55, 3.38863774176125620574e-01) (56, 3.30672225888257120818e-01) (57, 2.86027227800917382972e-01) (58, 1.05693220038113944170e+00) (59, 8.73018028777130750129e-01) (60, -4.04893113741945087636e-01) (61, 1.14190793755348374283e+00) (62, 5.55771571204057734938e-01) (63, 5.08880679115644385391e-01) (64, 3.25209437174223958689e-01) (65, -1.75593274296834578330e+00) (66, 9.58909773820515870524e-02) (67, 5.27696900621048015090e-01) (68, 6.62941311106077013626e-01) (69, -2.71421922793939729424e-01) (70, 6.95302031904339812307e-01) (71, 6.15290705665937465163e-01) (72, -4.84587131509851221089e-01) (73, 1.12891993709846572003e+00) (74, 2.66425369021301927663e-01) (75, 1.30963254740010270893e+00) (76, -1.51399852993763572861e-01) (77, -1.78090118081882109458e+00) (78, 5.45259919568887752028e-01) (79, 6.36298243507734118118e-01) (80, 6.22766886457792323561e-01) (81, -1.07151420010120634885e+00) (82, 7.24182419448971548270e-01) (83, 6.70309071049085436478e-01) (84, 1.60378974414780217650e-01) (85, -5.20509924443486760026e-01) (86, -4.65553059359680720952e-01) (87, 6.19386209380064570174e-03) (88, -1.64870769464523903025e+00) (89, -3.89682932032011164480e+00) (90, -3.29240735678428160516e-03) (91, 1.75423067546799260619e-01) (92, -1.80133284351066430551e-01) (93, -4.66486371239315578130e-01) (94, -6.77005103553132925320e-01) (95, 6.22723333679157442511e-01) (96, 1.69857975579216557982e-01) (97, -4.43048972340348790055e-01) (98, 1.40053977055663275708e-01) (99, -3.86166258832108089116e-01) (100, -7.53359806744612336971e-02) (101, -3.85704402459524287039e+00) (102, -1.97380168307421860474e-01) (103, -1.53585410797150245799e+00) (104, -6.78099161652433168879e-03) (105, 1.40586417652084905150e-01) (106, -4.71091896461304504573e-02) (107, 6.57647349081951326788e-01) (108, 2.07464737066770238405e-02) (109, 1.04010671211424952920e-02) (110, 8.35793062878791570558e-02) (111, 1.55763697362854558470e-01) (112, -1.72221028527454217416e-01) (113, -1.48493652513460028253e-01) (114, 6.40306630893941464144e-04) (115, 3.39558558213677919024e-01) (116, 1.98336398602566743588e-01) (117, 8.31817356298203275378e-02) (118, 3.48103498289132756716e-02) (119, 9.91140199074292821413e-02) (120, 4.21032388875032109743e-02) (121, 2.09235740500655631458e-01) (122, 8.70966878900075597292e-02) (123, 4.82123536238217922922e-02) (124, 2.73759747297606492733e-01) (125, 9.62103721866155309206e-02) (126, 1.54928336293540025448e-01) (127, 2.56177315862021470760e-01) (128, 1.59583652067151526843e-01) (129, 1.49198444933733964657e-01) (130, 6.13934216269994281756e-02) (131, 1.05331872142269689085e-01) (132, 6.21483517059827350604e-02) (133, 1.46543693281128484251e-01) (134, 7.13561964401746434694e-02) (135, 2.90812147030378026491e-02) (136, 9.96897113689923924928e-02) (137, 7.84631488093877477175e-02) (138, 1.83280823001409215456e-02) (139, 1.32995781041100102904e-01) (140, 1.43080365396454411986e-01) (141, 1.56123545504524785521e-01) (142, 1.01319071389153067542e-01) (143, 1.57101732231094914916e-01) (144, 1.75387459704627157731e-01) (0, 2.18687759548499449647e-01) (1, 3.10547651559188064851e-01) (2, 2.18861127108409270203e-01) (3, 2.47792878955676282304e-01) (4, 1.57917598098590239442e-01) (5, 3.30534742981269058504e-01) (6, 3.02455710083319839754e-01) (7, 2.14554728776290282166e-01) (8, 2.30191016405894621766e-01) (9, 1.63227664142920836365e-01) (10, 3.48480956465079483309e-01) (11, 3.38960992008521255769e-01) (12, 1.78322488278224333680e-01) (13, 9.19659928264758730343e-01) (14, 6.19546084982232403426e-01) (15, 5.79482676883347536112e-01) (16, 1.37557537353437742134e+00) (17, 3.38541969865994252231e+00) (18, 2.62395346373393345552e-01) (19, 2.97881053596808609285e-01) (20, 3.47753302961661514559e-01) (21, 3.04036171943022903719e-01) (22, 2.10130361676289900696e-01) (23, 2.38776044756247862733e-01) (24, 1.08805289031537211208e+00) (25, 1.14729957946371613486e-01) (26, 1.94415999412610396302e-01) (27, 9.22107618630126468773e-01) (28, 8.88065051615432254906e-01) (29, 3.28565952390866078403e+00) (30, 3.10038851410224136629e-01) (31, 6.07925816756562542587e-01) (32, 5.53342871209217546102e-01) (33, 3.09802768670675632290e-01) (34, 4.60836559375359111623e-01) (35, 3.24689837008788284578e-01) (36, 1.10471101762326395779e+00) (37, 7.30209012762410347719e-01) (38, 8.03818825960353477988e-01) (39, 2.27846616715266570008e-01) (40, 8.04523568928435905967e-01) (41, 3.30145494848923481968e+00) (42, 2.12881235241963728821e-01) (43, 2.10419038146808012879e-01) (44, 2.90771128445937332430e-01) (45, 1.17501750672481986015e+00) (46, 4.76824335595203874227e-01) (47, 2.75622526019885238924e-01) (48, 3.06238509175029316456e-01) (49, -2.96557539371560430208e-01) (50, 9.53124389627422741178e-02) (51, 8.40598161087543482850e-02) (52, 3.82783239810567721406e-01) (53, 1.01434335864518532233e+00) (54, 1.93488629371001585877e-01) (55, 2.83756302505805191316e-01) (56, 2.77540528982951339998e-01) (57, 4.74840962785328613016e-01) (58, 2.84478313622583689479e-01) (59, -1.49595814606666904778e-01) (60, 2.35555685517039842258e-01) (61, 1.57685145875754662015e+00) (62, 1.73577973455264433778e-01) (63, 2.10901448339297636903e-01) (64, 3.45425767742750522427e-01) (65, 1.28464149183433851142e+00) (66, 1.81664908140971526063e-01) (67, 2.08252189517094954407e-01) (68, 2.70639145582988072114e-01) (69, 4.53919419544781432840e-01) (70, -7.03824623103014856973e-01) (71, 3.02735702902152237215e-01) (72, 2.30429574307647294651e-01) (73, 1.72842938592973105472e+00) (74, -4.55431323182435343622e-01) (75, -3.33107951156069170828e-01) (76, -3.67475161385027115912e-01) (77, 1.25363098650170989856e+00) (78, 2.97544004231764969148e-01) (79, 3.52987455040290054598e-01) (80, 2.48204724699332440752e-01) (81, 5.48380126062463335579e-01) (82, -1.43060528590319396836e-01) (83, 1.97037184447123869813e-01) (84, 6.76844904621251131083e-01) (85, 3.25443660805765722088e+00) (86, 7.18662376006253267313e-01) (87, 1.02620750955366846213e+00) (88, 1.19743079031132171330e+00) (89, 1.14488136806273388402e+00) (90, 2.47915977448298657793e-01) (91, 3.17517028957678970613e-01) (92, 8.60501263618663303490e-01) (93, 6.78712031704466478566e-01) (94, 1.46688234987508625551e+00) (95, 2.98670844942404922762e-01) (96, 1.61485085100009306824e-01) (97, 3.75136452760481331481e+00) (98, 5.85640914579464433309e-01) (99, 9.26436512218107299788e-01) (100, 2.49889161405868476251e+00) (101, 1.21974645965480732457e+00) (102, 6.18802452881939912821e-01) (103, 1.31655430132769035723e+00) (104, 9.64960190826876118564e-01) (105, 2.32309171766116484559e-01) (106, 8.23194355549953127316e-01) (107, 3.06619049817397293367e-01) (108, 3.27864842325522598543e-01) (109, 1.25048055165195393101e+00) (110, 5.38324408074451921102e-01) (111, 4.95743236821965416183e-01) (112, 9.39745899617866031761e-01) (113, 2.49698445914096778253e+00) (114, 4.00083167397138839139e-01) (115, 2.11412737437319281364e-01) (116, 2.52789737492873478608e-01) (117, 1.97238961525988160117e-01) (118, 5.80705969911889385848e-01) (119, 3.26177554041220840730e-01) (120, 2.90645988494231399812e-01) (121, 1.60139749117922364219e-01) (122, 2.89768205791785415926e-01) (123, 1.78720230072810515320e-01) (124, 3.14736725598647293367e-01) (125, 7.02129194934971834208e-01) (126, 3.23464693337752517976e-01) (127, 3.22295429021193680086e-01) (128, 1.17682399519514618857e-01) (129, 3.22534965187384781160e-01) (130, 5.20166955274419140487e-01) (131, 2.66072766691520024018e-01) (132, 2.49851310461833203691e-01) (133, 3.19647731095626053133e-01) (134, 2.58584083825423527436e-01) (135, 1.64368549197985991395e-01) (136, 1.98030521929337843812e-01) (137, 5.46616926175431561141e-01) (138, 3.17061232239081558504e-01) (139, 1.71968990773036345399e-01) (140, 2.31067316442801817811e-01) (141, 2.68814997583701420503e-01) (142, 2.40185821265055943208e-01) (143, 1.98386197745873793519e-01) (144, 6.41656839698461628485e-02) (0, 4.81420606047950172535e-01) (1, 4.26735490233741188160e-01) (2, 4.03112955064616584888e-01) (3, 3.65688964397750282398e-01) (4, 3.79915043384871864429e-01) (5, 3.75364131898723030201e-01) (6, 3.02408568234286689869e-01) (7, 4.27084192306838417164e-01) (8, 3.11205953032813453785e-01) (9, 3.27202420354924583545e-01) (10, 3.87894540698371315113e-01) (11, 4.67613503010116005054e-01) (12, 2.96740740210853004566e-01) (13, 5.71466746608999542900e-01) (14, 4.72325294883094215503e-01) (15, 3.48956218994572631154e-01) (16, 1.86944268845642025401e-01) (17, 1.22511811756217919855e-01) (18, 3.61274264426074409595e-01) (19, 4.14625495345435524097e-01) (20, 2.89129390985808754078e-01) (21, 3.71716446847758674732e-01) (22, 4.58729639322600746265e-01) (23, 4.08219895930133247486e-01) (24, 5.19418239735084941167e-01) (25, 4.89537349808183586131e-01) (26, 2.85360835165820503345e-01) (27, 6.13701371818662147484e-02) (28, -4.74771133344727425118e-01) (29, 6.78607860735301327004e-02) (30, 4.70155983836493873707e-01) (31, 5.45185707651096751469e-01) (32, 2.39356893008753202068e+00) (33, 4.00319533730316201581e-01) (34, 6.57677347640779563775e-01) (35, 3.68804126651130104175e-01) (36, 6.65532939277607149542e-01) (37, -1.91671523239268948302e-01) (38, -7.63149978250384219969e-02) (39, 3.08338425726733589283e-01) (40, -5.33384716790276436349e-01) (41, -3.44821027879549324435e-01) (42, 2.92118392557940864673e-01) (43, 3.17325330943904304615e-01) (44, 2.88545846612296486011e-01) (45, 5.43062235027173323409e-01) (46, 5.14044280032900036126e-01) (47, 4.53616454870543861499e-01) (48, 6.58691327915865598719e-01) (49, 1.34036148618687711576e+00) (50, 3.60891389489844505167e-01) (51, 2.62250140911693463419e-01) (52, 4.25844639179304040866e-01) (53, 1.35415967695543038030e-01) (54, 3.49628892623392140138e-01) (55, 5.92625561998564309718e-01) (56, 3.90941631876436268556e-01) (57, 3.18056550360351020235e-01) (58, 3.18395193514090868447e+00) (59, 5.38008262208293008833e-01) (60, 1.17077258414873308645e+00) (61, -1.29532791927691626199e+00) (62, 3.08226667017779731861e-01) (63, 3.47334041864715004078e-01) (64, 3.83897381211090127362e-01) (65, 3.69823414384710891234e-01) (66, 6.16871573172527498663e-01) (67, 3.70145730347476387134e-01) (68, 4.44083049566588783374e-01) (69, 3.80095891783451378387e-01) (70, 3.87382197171446929218e+00) (71, 4.64667632849059486499e-01) (72, 5.77375069402176310795e-01) (73, -1.35980382815238165506e+00) (74, 1.28068297156021793093e+00) (75, 4.29768977860839618277e-01) (76, 2.69172057941842535200e+00) (77, 3.11191194682037874930e-01) (78, 3.67303371102652931324e-01) (79, 1.80733754373505639546e-01) (80, 2.89222261942341796193e-01) (81, -3.76276071971588577103e-01) (82, 1.40088003268644589738e+00) (83, 2.69553504026844970021e-01) (84, 3.43349255294642830005e-01) (85, -4.82163078518631271763e-01) (86, 4.25357794223149066060e-01) (87, 3.63871245919002939129e-01) (88, 4.04677606110024679076e-01) (89, 3.42338560787316059653e-01) (90, 2.42973773814156551731e-01) (91, 2.13777090496733712666e-01) (92, -4.39673966448861031076e-01) (93, 2.86716091930258376586e-01) (94, 4.63307093825734206405e-01) (95, 2.87308595747790718189e-01) (96, 3.66793825895629310718e-01) (97, -5.66955759557010940952e-01) (98, 5.88823932091978363701e-01) (99, -3.38095223358939045433e-01) (100, -5.18968677800255684396e-01) (101, 2.12225391236420396490e-01) (102, 3.15939588306267504780e-01) (103, 1.89300814374303877363e-01) (104, 1.65031844480848371992e-01) (105, 2.05810218192055749409e-01) (106, 1.22735021824730416995e+00) (107, 3.19418362946353340259e-01) (108, 3.51536832423053169361e-01) (109, 4.37730601894822990428e-01) (110, 3.45476782786813652049e-01) (111, 4.73318665892920875660e-01) (112, 2.06404654651761235162e-02) (113, -3.89087184053021339913e-01) (114, 3.03063920057508040529e-01) (115, 4.81291047203508293162e-01) (116, 3.91816608280978584400e-01) (117, 3.21658938097921287547e-01) (118, 5.81018358610588481206e-01) (119, 3.63541863531909370533e-01) (120, 4.39611345202765846363e-01) (121, 4.84749845135179435740e-01) (122, 4.09878521830878639332e-01) (123, 3.53906683297000312916e-01) (124, 3.71911249728045845142e-01) (125, 2.03322588540032433979e-01) (126, 3.57381745846114540210e-01) (127, 4.54871534974418068042e-01) (128, 3.90789068210092460642e-01) (129, 4.47169005544028663746e-01) (130, 4.82648268483597098211e-01) (131, 4.13024618894896888843e-01) (132, 4.47773337037406349292e-01) (133, 3.22125225932441139332e-01) (134, 3.56999836535296821705e-01) (135, 3.67479599685511970630e-01) (136, 3.60495023102603340259e-01) (137, 2.98268876112416259083e-01) (138, 4.03064436883769416919e-01) (139, 4.28198322326980018726e-01) (140, 3.55793974966845893970e-01) (141, 4.51942592532477760425e-01) (142, 4.17683452040992164722e-01) (143, 4.80970680386863136402e-01) (144, -5.31440184590198788639e-02) (0, -2.47492084647961997634e-02) (1, 1.31632242128675358561e-01) (2, -9.22308139460768436346e-03) (3, 3.11106220310067294044e-04) (4, 4.42501192544153681974e-02) (5, 7.04852452133349210994e-02) (6, -4.39110810305425036670e-02) (7, 3.24013491724184504728e-02) (8, -3.46976540940489505682e-03) (9, 2.61620690677813010072e-02) (10, 1.20479050800626610873e-01) (11, 3.24124058340242854337e-02) (12, 9.97102891657999507169e-02) (13, 2.50365032757355443493e-01) (14, 1.26602861807172673014e-01) (15, 7.11079108837272405585e-02) (16, 1.13827029180827307697e-01) (17, 1.35390441398848615506e+00) (18, 2.69855370376757101869e-02) (19, 1.44056547210042795726e-01) (20, 1.28960240409200566081e-01) (21, 1.10631603524511193393e-01) (22, 2.07180341337374201993e-02) (23, 5.97886850689104548673e-02) (24, 2.29666246520356720495e-01) (25, -5.19820923368928475283e-02) (26, 1.31749126837079899577e-01) (27, 8.47865943247669562322e-02) (28, 3.22594113579100005840e-01) (29, 1.42699676286210141996e+00) (30, 1.30962762758558171061e-01) (31, 1.24380860254590872027e-01) (32, 9.36509495217802412359e-02) (33, -1.86894796248903913294e-02) (34, -4.21755934517381234072e-02) (35, 5.16330800992760574619e-03) (36, 2.92423343705014660010e-01) (37, 3.73543852323198824483e-02) (38, -1.12662138758937144245e-01) (39, 1.39347199127500431803e-01) (40, 2.81196370652025517956e-01) (41, 1.35654889326323591092e+00) (42, 2.19569390271357051114e-02) (43, 7.44261942846093094150e-03) (44, 1.52803734367226717872e-04) (45, 8.95408953229555187869e-02) (46, 1.03620794935941923365e-01) (47, -4.38849965478726733448e-02) (48, 2.06056136692836178170e-01) (49, -1.28897060862729073705e+00) (50, 4.23961099549342995685e-02) (51, 4.08950115433099337103e-02) (52, -3.19289601799479169641e-02) (53, 4.41953344539681325376e-01) (54, -6.10798619645323490057e-03) (55, -7.88149273549793166760e-02) (56, 3.65644281361750117521e-02) (57, -7.82816583955693312546e-02) (58, -5.80645378306579584837e-03) (59, -4.02446572961525361745e-01) (60, 5.62298037660860089426e-02) (61, 1.06623907513952287385e-01) (62, -3.97272894527264941456e-02) (63, -1.48041050463841972196e-01) (64, -1.51159146687072837301e-01) (65, 5.54587176560102590450e-01) (66, -2.88040751959630393630e-02) (67, 3.30377181623629084806e-02) (68, 1.67322864387682429532e-02) (69, -9.12688843596375226630e-02) (70, -7.59291088755003840127e-01) (71, -1.39411698609517631375e-01) (72, 1.19098726714923275338e-01) (73, 1.14525196759152958492e+00) (74, -2.81771737664865185025e-01) (75, -7.13732189113966852823e-01) (76, 9.19895232140005986166e-02) (77, 7.48019330030347706639e-01) (78, 2.09030995876418601576e-01) (79, 1.57746469869691458010e-01) (80, 6.01632653618636992210e-02) (81, 3.47930755232015220813e-01) (82, 6.97236014444733487316e-01) (83, 6.90581447327915098899e-02) (84, 2.81078855306731600905e-01) (85, 9.99172708671163811722e-01) (86, 2.33480687052833091322e-01) (87, 4.57759032089615491845e-01) (88, 8.39456362417381973806e-01) (89, 5.39467397936988057872e-01) (90, 6.91549738500765592830e-02) (91, 1.07984710261648034213e-01) (92, 4.11255885297649864674e-02) (93, 1.06063420380991493830e-01) (94, 2.32865295315815651334e-01) (95, 9.47286670659235469083e-02) (96, 1.15181732699697350619e-01) (97, 3.79643490366100400113e-01) (98, 8.64116942654383490829e-02) (99, 1.66119268464239820682e-02) (100, 1.41578220241724811457e-01) (101, 5.54183903941321553965e-01) (102, -3.51645183441017250559e-02) (103, 2.23110993709118549111e-01) (104, 9.60366589386775493242e-02) (105, -2.86259694665414940462e-03) (106, 3.54288870434898595096e-01) (107, -1.04344452168294403449e-02) (108, -7.73978628175940250311e-03) (109, -3.76183552060568929254e-02) (110, 1.21334758921385066355e-01) (111, 5.15732783201362371406e-02) (112, 1.91317414249928235970e-01) (113, 1.77981289778502160814e+00) (114, 1.13030392730570750093e-01) (115, 7.05917453010084516851e-02) (116, 1.48363891765897593089e-01) (117, 3.56925105292799291212e-02) (118, -2.88828874375172996170e-02) (119, 1.01426530406301354525e-01) (120, 1.38981584236448185710e-01) (121, 7.34045182902815229742e-02) (122, 5.96085747335604182462e-02) (123, 1.43489483520810978678e-01) (124, 2.02917938683680049161e-02) (125, -8.11459689110262047396e-03) (126, 8.84154921029261103849e-02) (127, -1.43291319157430145637e-02) (128, 1.12366286440611140574e-01) (129, 1.16576570794408654330e-01) (130, 1.79795732353380671720e-02) (131, 3.43917196248224726896e-02) (132, 1.75172423575571528653e-02) (133, 2.49502395842722372865e-02) (134, 7.34060607892784988682e-03) (135, 6.33917858455828181485e-02) (136, 6.42228310559442988614e-02) (137, 9.86279880259684077481e-02) (138, 1.03154677674596642611e-01) (139, 1.06680396721189355014e-01) (140, 1.14566210434263085483e-01) (141, 9.17516981814554682950e-02) (142, 3.88845578258370516700e-04) (143, 5.57215174291780940274e-02) (144, 1.61379159031231234067e-01) (0, -4.57569176699468005420e-02) (1, -6.42449803608145450506e-03) (2, -3.81526241447278369190e-02) (3, 5.71978425238779536466e-02) (4, 1.48899664734056941251e-02) (5, 1.13471243307416772006e-01) (6, 4.63767608259371272306e-02) (7, -4.44432685520001757862e-02) (8, 2.32771595571688166837e-02) (9, 4.00635784123590937833e-02) (10, 2.60458698127916769838e-02) (11, 5.72977473591021052579e-02) (12, -2.13235805179425620681e-02) (13, 3.33094814190141974564e-01) (14, 9.73028929363118633145e-02) (15, 4.24931725229089118923e-01) (16, 4.09572398032014284297e-01) (17, 9.92074461075371005769e-01) (18, 1.31649186466387263517e-02) (19, 5.23858122569832718174e-03) (20, -2.09467152501889609939e-02) (21, 1.26754048988645451335e-01) (22, 1.19658756778066491244e-01) (23, 1.27878609821622746257e-01) (24, 2.79909810470418407569e-01) (25, 5.94715749461653120367e-02) (26, 9.26421766732386103849e-02) (27, 4.84935068148789755194e-02) (28, 1.53561065401476404269e-01) (29, 8.69120148363416888948e-01) (30, 3.55385725949457637052e-02) (31, 3.31366828130559398780e-01) (32, 2.01181842888428469296e-01) (33, 5.69567941668996102766e-02) (34, 1.97806245590283175106e-01) (35, 1.07421178147619103549e-01) (36, 2.11055623786525314856e-01) (37, 1.44905883872843643800e-01) (38, -8.72488788950836896552e-02) (39, 8.47263967250040522794e-02) (40, 5.22317089695153585760e-02) (41, 2.01072413613957357015e+00) (42, -7.77852557557310794745e-03) (43, 5.46670665596178523282e-02) (44, 1.01529899761503075717e-01) (45, 2.52249588524890017149e-02) (46, 3.32498376805784520704e-02) (47, 8.18182265017679682950e-02) (48, 1.52365487123801601754e-01) (49, -1.29757822649309417784e+00) (50, 8.54771726162155132123e-02) (51, -3.07832678141312043874e-01) (52, 1.00001890266276288743e-01) (53, 5.27779324249306625028e-01) (54, 5.83843549345186701993e-02) (55, 2.09317912910631648282e-02) (56, 3.38440721486261836271e-02) (57, -5.28962674284386702439e-02) (58, 4.51482575386047413346e-04) (59, -3.76976990433649461476e-01) (60, 1.51289966012313259469e-01) (61, -6.50667956885749521057e-01) (62, -7.07548506515707706366e-03) (63, -1.21362860828565219395e-01) (64, 8.60742815378674752669e-02) (65, 6.04869894952854925130e-01) (66, 1.00131992027585839389e-01) (67, 1.38149995133703129557e-01) (68, 6.78098609302691252010e-02) (69, -1.36919567703048028484e-01) (70, -7.08799606735579401651e-01) (71, -1.20075802832769015782e-01) (72, 3.02924132393674327979e-01) (73, -5.14095543739253701965e-01) (74, -2.15211394756959550900e-01) (75, -7.27025716180674463907e-01) (76, -9.64252107921415163583e-02) (77, 5.95406647178068459958e-01) (78, -1.31368155028172943488e-02) (79, -1.17586221128629306309e-01) (80, -1.50824974805043754422e-01) (81, -3.13449514481143332034e-01) (82, 8.00630807094266649937e-02) (83, -2.09999251693414323849e-01) (84, 3.31426015542821361670e-01) (85, 2.07677677389105835859e-01) (86, 3.24809944676236583838e-01) (87, 1.74511662627293367978e-01) (88, 3.00054661589824411827e-01) (89, 4.92883669276142744042e-01) (90, 1.37401738895021580111e-01) (91, 1.97354951633058689486e-01) (92, 1.97864701356442213021e-01) (93, 4.10362203321733343131e-01) (94, 1.99496295995271832879e+00) (95, 2.44033744190386252260e-02) (96, 5.24244641516855708341e-02) (97, 4.10689409871316357670e-01) (98, 5.95548194704549671563e-01) (99, 6.19878329382496651156e-01) (100, 2.83935603401937297630e-01) (101, 5.60517700452709877190e-01) (102, 2.19719291538421242216e-02) (103, 2.41698799510393441681e-01) (104, 1.28150100316446857729e-01) (105, 6.32917841528109065274e-02) (106, 3.65281889181274688205e-01) (107, -3.05598996537413333807e-03) (108, 6.26661290977648249845e-02) (109, 1.29621100504733632874e-01) (110, 3.39089528516307234240e-02) (111, 2.59148215506723837709e-02) (112, 1.40094036664408283510e-01) (113, 3.44086013665502898906e-01) (114, 1.39362726414538284914e-01) (115, 7.84103398759367353765e-02) (116, -4.40005103494473803760e-02) (117, -1.99639323226381643073e-01) (118, -3.86637190725156176807e-02) (119, 4.29955830429247370938e-02) (120, 2.37778758261850825528e-02) (121, 7.14938317973616010992e-02) (122, 3.01712562893084040860e-02) (123, -2.85195300723859214431e-02) (124, 5.89030569050959101896e-02) (125, 6.76001452714625888918e-02) (126, 4.60811813924959651212e-02) (127, -3.84751374270268786670e-02) (128, 1.23208624644994990671e-01) (129, 1.09029236957853173373e-01) (130, -1.78461263324567222244e-02) (131, -1.58087501670667145148e-02) (132, 9.52483748648813716153e-02) (133, -3.21926198857512210760e-03) (134, -1.85733029987164878494e-02) (135, 4.71573954079798213224e-02) (136, 1.10269862935369347690e-01) (137, 1.41249525627536010042e-01) (138, 9.42987536643198481778e-02) (139, 2.31333335493257991056e-02) (140, 2.30480467532328120450e-02) (141, 1.37927535698240177897e-01) (142, 9.92454921458414546231e-02) (143, -1.30989889051267120734e-02) (144, 3.06642532883007412625e-01) (0, 5.57155832034425091415e-01) (1, 6.10297351461724590926e-01) (2, 5.92470093947724651962e-01) (3, 5.12545935195760082870e-01) (4, 6.21830984336213421493e-01) (5, 4.85663014781550717025e-01) (6, 5.86521162968949627547e-01) (7, 5.60587062817887615829e-01) (8, 5.66031619292573284774e-01) (9, 6.08198969942406963973e-01) (10, 4.69687461239175152450e-01) (11, 6.26286684852914166122e-01) (12, 5.04477492851094555526e-01) (13, 1.14631337337875294224e+00) (14, 7.34952787359364534403e-01) (15, 5.81899302502282167460e-01) (16, 6.31956117649682069803e-01) (17, 1.70584164237970958844e+00) (18, 6.09149798137025189071e-01) (19, 5.60738965255097698837e-01) (20, 4.82770200204924893050e-01) (21, 5.06504527610616039901e-01) (22, 5.21206169706658672958e-01) (23, 3.43074606567694839754e-01) (24, 9.30529623344260925499e-01) (25, 6.71776312349205206864e-01) (26, 6.08115276743777299906e-01) (27, 1.05762615228910994425e+00) (28, 1.16248034114857246024e+00) (29, 1.78171387737984310284e+00) (30, 5.97872360926942181258e-01) (31, 4.73609100413398098617e-01) (32, 4.68833558102680736379e-01) (33, 1.00485210628882515316e+00) (34, 5.17672858973576066610e-01) (35, -2.37506191760228690946e-01) (36, 1.10048163594277537136e+00) (37, 7.97510703340870930056e-01) (38, 7.82055136144355400596e-01) (39, 4.04053014643793839689e-01) (40, 1.11679656977673102958e+00) (41, 3.32729772687392033603e+00) (42, 6.76413337190754915262e-01) (43, 6.93442220290310884501e-01) (44, 3.77794024475222367521e-01) (45, 1.24396581286810348210e+00) (46, 5.70468880077435014364e-01) (47, -1.22166763573812106602e-01) (48, 8.14207524835323881440e-01) (49, 1.83897722273844543839e-01) (50, -1.95023754799748261224e-01) (51, -3.39866445495078717265e-01) (52, 2.78450494735342002350e-01) (53, 1.20952318108480771919e+00) (54, 3.41860981494261917391e-01) (55, 4.95500347894505699387e-01) (56, 6.13336055857018780380e-01) (57, 9.00771166557295388522e-01) (58, 2.84540823993791880397e-01) (59, -1.31664285227891131314e+00) (60, 2.95173040982928791554e-01) (61, 1.59114742791595764615e+00) (62, -1.65728058248685417020e-01) (63, -2.81990546315835644009e-01) (64, 5.96409341013087734851e-03) (65, 1.31660983792093744249e+00) (66, 5.36177001279668163924e-01) (67, -1.35438855320142326200e-01) (68, -1.44528906375096855008e-01) (69, 4.50677462993505570377e-02) (70, -7.21504455978743464151e-01) (71, -2.73759394466804195645e-01) (72, 8.40732813655590605073e-01) (73, 1.58248637011590309598e+00) (74, -2.26260413810009025637e-01) (75, -7.56330391938559443155e-01) (76, -2.44469860624758061896e-01) (77, 2.45864771291572803413e-01) (78, -2.46426488786862907254e-01) (79, -2.09350365728067033810e-01) (80, -1.76618959337400016629e-01) (81, 2.63878248098919521158e-01) (82, 1.26355502608184760982e-01) (83, -1.32119234234021720731e-01) (84, 5.57287456889756227518e-01) (85, 6.96656606937042077732e+00) (86, 7.94624096729587114929e-01) (87, 1.16884554094695802817e+00) (88, 1.26581547493360924150e+00) (89, 2.21339515356257621193e+00) (90, 6.45360002716191316630e-01) (91, 6.37314329345829988505e-01) (92, 1.22544739569445160221e+00) (93, 7.92679696359466112732e-01) (94, 1.56999242487203449770e+00) (95, -1.49444754749463615262e-01) (96, 5.54958178979234051376e-01) (97, 3.73538665693187210692e+00) (98, 6.48029583452110480302e-01) (99, 1.17274158817350038220e+00) (100, 1.19663214112539795231e+00) (101, 2.13772370053365889930e+00) (102, 8.81986535169909768861e-01) (103, 1.24471593732260177312e+00) (104, 1.21913081491611907659e+00) (105, 6.71047280033238435770e-01) (106, 1.28884335272693562047e+00) (107, -2.57805093705581300778e-01) (108, 5.24785138052777599960e-01) (109, 5.68826275823478888505e-01) (110, 6.65757748244171332352e-01) (111, 5.80435054798729921366e-01) (112, 1.10285407478828978434e+00) (113, 1.11052859003563475504e+00) (114, 6.12630277816209378727e-01) (115, 1.81363420852255402549e-01) (116, 4.28067398198252457853e-01) (117, 2.97762019024255919497e-01) (118, 4.93294678014592480331e-01) (119, 5.25244674962834667831e-01) (120, 6.23623981458024334579e-01) (121, 2.78377229639124368354e-01) (122, 6.16837366801575970321e-01) (123, 6.03044315558747601180e-01) (124, 2.85512176283007512723e-01) (125, 6.58708388407834077860e-01) (126, 4.12268412240153092618e-01) (127, 5.68348749858216595321e-01) (128, 2.58283729024958108589e-01) (129, 5.10936937612370800643e-01) (130, 4.65325269234256100326e-01) (131, 5.23444629591779064803e-01) (132, 5.64766868335084271102e-01) (133, 6.02616056186036419540e-01) (134, 4.44117582720593762069e-01) (135, 4.59854699057416271835e-01) (136, 5.27941695731953930526e-01) (137, 5.58726044793732667948e-01) (138, 5.16123264414147686630e-01) (139, 6.25200420004205059676e-01) (140, 5.04591218513326000839e-01) (141, 4.77115135026053738265e-01) (142, 4.59913826865033459335e-01) (143, 5.61418219786958050399e-01) (144, -8.69601482063636216369e-02) (0, 1.95750270523956410029e-01) (1, 1.48979660608699909785e-01) (2, 2.16731053330829731562e-01) (3, 2.62346465625694302837e-01) (4, 2.14747924842765919307e-01) (5, 3.14449314513137789806e-01) (6, 2.58444015421798733989e-01) (7, 1.80154536404541126826e-01) (8, 3.03760264553955050548e-01) (9, 2.33961906769207028667e-01) (10, 1.93545103558233372310e-01) (11, 2.16747005023887745478e-01) (12, 1.74108718075683704951e-01) (13, 2.47036818777727429364e+00) (14, 7.63980230936942006359e-01) (15, 4.34413844978202456915e-01) (16, 2.03494134745596466640e-01) (17, 2.89306189320086115657e-01) (18, 1.94759686031272999385e-01) (19, 1.47255931534698597529e-01) (20, 1.27047370395655012665e+00) (21, 1.22299215964073515472e+00) (22, 1.24357540181869841156e+00) (23, 5.95738841079972852866e-02) (24, 3.77596282930365889641e+00) (25, 3.04940702265065199938e-01) (26, -6.33613141394354928426e-02) (27, -7.61908561741026058023e-01) (28, -6.49449468408735408609e-01) (29, 3.29858365855215662776e-01) (30, 2.79363785424163846294e-01) (31, 2.31975943387901084591e+00) (32, 2.43681589876818005536e+00) (33, 4.82222482622433945565e-01) (34, 2.37844005589889828656e+00) (35, 1.68868054189613453486e-01) (36, 3.77743212850085585686e+00) (37, -2.55436062327725532661e-01) (38, -1.80349391307266060380e+00) (39, 4.62193293356202641875e-02) (40, -6.85726904128702297037e-01) (41, 1.13652999470737015031e+00) (42, 1.16271312334468218674e-01) (43, 1.28963456451284541604e-01) (44, 8.85004828207711785604e-03) (45, 1.16359264848283916471e+00) (46, 1.30154800435076722920e+00) (47, 3.43213109158776244478e-02) (48, 5.38959330293393801270e+00) (49, -6.96728194337167483496e-01) (50, 8.69752279123588212251e-01) (51, 1.68453144142945154815e-02) (52, -1.87011373839782890638e-01) (53, 1.22611783712553523706e+00) (54, 3.99588979550153877707e-01) (55, 2.78692773331751775245e+00) (56, 7.61931746156299771755e-01) (57, -4.09896898121744401866e-01) (58, 3.32295874882123465355e+00) (59, 8.00416255941911347627e-01) (60, 3.76973034412852614494e+00) (61, -4.22953559723438221596e+00) (62, -5.43609382725455392293e-02) (63, 3.55724347614548644381e-02) (64, -1.45044861659244683771e-01) (65, 8.71303475150999706678e-01) (66, 2.10453459732581293906e+00) (67, -2.64483625210024976548e-02) (68, 4.88766385101579228789e-02) (69, -2.26135681421667289470e-01) (70, 1.65810024851439447025e-01) (71, 3.06799502103245302909e-01) (72, 3.70413868845692961784e+00) (73, -3.47913196352557285707e+00) (74, 4.28973370222962002707e-01) (75, -3.70965941094456991278e-02) (76, 8.03411750561029425199e-02) (77, 1.50339883031771215371e+00) (78, 3.37736623823035042591e-01) (79, 3.58184231304429570586e-02) (80, -2.01284969366290235337e-02) (81, -2.41186558312111137825e-01) (82, 5.47470445380194070673e-01) (83, -5.86727978802420724325e-02) (84, 1.17889685205215788422e+00) (85, 4.25468832902811733288e-01) (86, 9.01692813882765453748e-01) (87, 9.62158011364486864814e-01) (88, 1.04256330136958275112e+00) (89, 1.30429640186148487757e+00) (90, 1.17657448151042315354e-01) (91, 5.45748574518464674155e-02) (92, -1.67533200960190598039e+00) (93, 2.12696108519423110472e-01) (94, 1.79973577268249940175e+00) (95, -1.31130041695334438601e-02) (96, 2.95289878287246732036e-01) (97, 3.74435816564462509159e-01) (98, 2.08640992303908623384e+00) (99, -2.52851565844793707560e-03) (100, -6.65184684353614802399e-02) (101, 1.30762430799322926234e+00) (102, 2.90507901012289626586e-01) (103, -3.37162251622587449962e-01) (104, -3.35431824476629503184e-01) (105, -3.04710427439906263170e-02) (106, 4.02122024021065982424e+00) (107, -3.01943441397924811076e-03) (108, 1.77642744519641987422e-01) (109, 6.86505242956756522865e-01) (110, 1.39760368836241566370e+00) (111, 2.40019903121311495298e-01) (112, -5.87428704653890743081e-01) (113, -2.52537637894706512576e-01) (114, -4.29825371326284566553e-01) (115, 2.35646525269311069017e-01) (116, 4.55274088167451421172e-02) (117, 4.61246076281474001735e-02) (118, 2.00179934339094867113e+00) (119, 2.46650007107189206401e-01) (120, 3.16630829610755892833e-01) (121, 3.86720212047856337634e-01) (122, 1.82529878356388203242e-01) (123, 3.00425280370643588146e-01) (124, -7.49688046193816293172e-02) (125, 7.28715489142160027791e-03) (126, -5.93827488041617501668e-02) (127, 3.01626075544288607677e-01) (128, 2.86690445488255563067e-01) (129, 2.91665915884902982036e-01) (130, 1.85403962270785105382e+00) (131, 2.13585738577774159053e-01) (132, 1.97095513828924290278e-01) (133, 2.84120847024848965923e-01) (134, 2.97242183723381070415e-01) (135, 2.82482389845779446880e-01) (136, 3.34954802431991549572e-01) (137, 3.45113920306552524053e-01) (138, 1.60767946877410999873e-01) (139, 1.65902514495781056025e-01) (140, 3.42143465318611117443e-01) (141, 1.56176936366489521602e-01) (142, 1.32028614252256892847e+00) (143, 1.33110602221483564911e+00) (144, 3.31408889942481854618e-01) (0, 3.21745340622235365124e-02) (1, 2.39492048419285841199e-02) (2, 1.07032379964666482519e-01) (3, 1.00008643130140420507e-01) (4, 2.05416454831438166639e-01) (5, 6.98736206658373375233e-03) (6, 6.99444477356244292965e-02) (7, 1.85846148887949091932e-01) (8, 4.28222183979321546765e-02) (9, 2.36747031009961195203e-02) (10, 1.92182331243829829237e-01) (11, 1.31414382616357905409e-01) (12, 4.55969524479676313611e-02) (13, -2.70314083281489481170e-01) (14, 2.81930582258528350525e-01) (15, -2.44888240364718900999e-01) (16, -2.33352707200801728904e-01) (17, -5.95158280247429921639e-02) (18, 4.09683351314831800671e-02) (19, 1.18246733108835322401e-01) (20, 2.92521779335309095593e-02) (21, 1.76755695501642329237e-01) (22, 1.06506503084974404882e-01) (23, 5.07764656937886305066e-02) (24, -1.28304983130251876178e-01) (25, 1.78629081468719197456e-01) (26, 4.62249022818375654431e-02) (27, 3.45214435670886998775e-01) (28, -8.07064425916370342673e-02) (29, -1.03489139806626231910e-01) (30, 1.74424110809640986464e-01) (31, 2.24960313195435385181e-01) (32, 3.13119157756840682527e-01) (33, 7.81518355411099485686e-01) (34, 2.20588709038765595771e-01) (35, 5.19245703614522047253e-02) (36, -2.42862547388827315631e-01) (37, 1.50049286010802984670e+00) (38, 2.72547027615157588798e-01) (39, 1.76459051738941552490e-01) (40, -7.92496976227458904685e-02) (41, -1.20440581571457774879e-01) (42, 1.01787030767166511436e-01) (43, 1.41465202044212701171e-01) (44, 2.22259424697124841064e-01) (45, 6.65473315324744851829e-01) (46, 3.23019116725003219148e-01) (47, 1.33541776696519953749e-01) (48, 2.69225353392435029498e-01) (49, 2.23745255003236609426e+00) (50, -2.97072274398324565059e-01) (51, 2.23357194686094634450e-01) (52, 1.67656836075552789778e-01) (53, -7.08877526171312721814e-01) (54, 1.84537245789842707655e-01) (55, 5.27879436410237379285e-02) (56, 6.57498155630398956051e-02) (57, 2.02086267408093656073e-01) (58, 3.57701276727608208361e-01) (59, -4.20652214105101673880e-02) (60, 2.15147514844385961963e-01) (61, 1.97483354984630810058e+00) (62, 1.53756587663965327284e-01) (63, 1.63281351398193774749e-01) (64, 4.07147227464215555326e-01) (65, -3.09447312229431059638e-01) (66, 1.45667343298273188612e-01) (67, 1.54818161288576228163e-01) (68, 1.19554079035596949598e-01) (69, 3.48675799902638583472e-01) (70, 2.34548508637640151786e-01) (71, 2.09310521361979279265e-01) (72, 3.35503125580621563984e-01) (73, 3.36616094483517969138e+00) (74, -1.22762867452947316282e-01) (75, 3.40880315282896972917e-01) (76, 2.75575189938048192850e-01) (77, -6.85851914383472927028e-01) (78, 6.31353770292569366207e-02) (79, 4.25584603942204542371e-02) (80, 1.71594886938409907362e-01) (81, 2.80161609288415158758e-01) (82, 9.93777333868354761925e-01) (83, 3.35541953242589063855e-02) (84, 3.12903189692324279481e-01) (85, 4.99122069210456598132e-01) (86, 5.24255775789099209838e-01) (87, 6.08007752135789725223e-01) (88, 3.69393902867988566108e-01) (89, -3.91286045020553641116e-01) (90, 1.93073063055353266737e-01) (91, 2.05940742886830396863e-02) (92, 3.93543970715846624930e-01) (93, 4.10859541628187774354e-01) (94, 2.73660632138380377487e-01) (95, 8.99195567734728355702e-03) (96, 3.93831645048428602429e-02) (97, 1.65283980905042393594e+00) (98, 4.10775105686903896363e-01) (99, 8.01089483793370193965e-01) (100, 2.57797252367334382706e-02) (101, -4.99091505712005722994e-01) (102, 3.68850880894487975770e-01) (103, -9.24189222436194446342e-02) (104, 2.78687213894089902411e-01) (105, 1.79997146199905755370e-01) (106, 5.28312167797786863543e-02) (107, 2.71537666118908949109e-02) (108, 1.90763442674951655409e-01) (109, 8.16614100962486766377e-01) (110, 3.16677215727091732056e-01) (111, 8.71003235110019091714e-01) (112, 2.24180603240047487956e-01) (113, 4.05417170356111578045e-02) (114, 2.55116710247271394341e-01) (115, 7.50214377222798434186e-02) (116, 2.45994530688488338699e-01) (117, 6.22967839386816879532e-01) (118, 4.56341170648413285704e-01) (119, 1.49815364638643366835e-01) (120, 1.73004119554834467909e-01) (121, 1.58372036534383114903e-01) (122, 1.64323060671167475721e-01) (123, 9.73625694311429229488e-02) (124, 1.97436846862995507568e-01) (125, -1.84345567271319010771e-01) (126, 1.63720309804642139007e-01) (127, 1.67281447807626826307e-01) (128, 1.73319998901027394478e-01) (129, 5.19054633475113935681e-02) (130, 5.58045924583750463377e-01) (131, 1.33415206233339411757e-01) (132, 5.91950443483163085689e-02) (133, 6.69409231312761802968e-03) (134, 1.23298234204130274794e-01) (135, 1.54385342160539729139e-01) (136, 1.17152674952821833632e-01) (137, 3.12891171905821441346e-01) (138, 1.75452708164529902479e-01) (139, 1.01829721490221139502e-01) (140, 1.93005119360257215710e-02) (141, 3.29921458757687635632e-02) (142, 5.20152439273167677136e-02) (143, 9.24908284939099517574e-02) (144, 2.46267636751520746508e-01) (0, 3.07415701122126960865e-01) (1, 4.80128794581733131519e-01) (2, 3.14967512757621193042e-01) (3, 3.59238378376803779712e-01) (4, 2.86383539111457252613e-01) (5, 4.58696499140105629078e-01) (6, 3.26156094343505287281e-01) (7, 4.79624956519446754566e-01) (8, 4.16933133871398353687e-01) (9, 4.17432263166747474781e-01) (10, 4.07523236841998481861e-01) (11, 4.83420267374358558765e-01) (12, 3.11614006430945778003e-01) (13, 5.83921435158041290947e-01) (14, 3.97738776774249458423e-01) (15, 9.54732002845649074807e-02) (16, 2.14717917346084530283e-01) (17, 6.31077142587546657815e-02) (18, 4.10541727812133216968e-01) (19, 4.77285489113173866382e-01) (20, 4.42279427916846656910e-01) (21, 3.58840666384539985767e-01) (22, 3.88351767928443336597e-01) (23, 4.78967919618926429859e-01) (24, 5.12773923717457225102e-01) (25, 2.96860179769960319529e-01) (26, 2.92182042867980384937e-01) (27, -3.32570420235514391250e-02) (28, -5.07778896670895485421e-01) (29, 1.16626605593288384943e-01) (30, 4.09790768892608070484e-01) (31, 5.38173057280498912114e-01) (32, 1.02133143845981000375e+00) (33, 4.51808879459667134260e-01) (34, 6.44214103798654624811e-01) (35, 3.77431742520175361744e-01) (36, 6.00354649268108775395e-01) (37, 4.47863677078086941385e-01) (38, -4.64579677861290840646e-01) (39, 3.48887316555819892994e-01) (40, -4.32870587986069588204e-01) (41, -4.64023962085081398410e-01) (42, 3.48474032850108528248e-01) (43, 4.32712733418784523121e-01) (44, 3.81797603936038398853e-01) (45, 5.24831364661076826827e-01) (46, 5.21515416781690777093e-01) (47, 3.74641857714496040455e-01) (48, 5.81056345151144570949e-01) (49, 5.29815075509173727397e+00) (50, 1.44205246262380376576e-01) (51, 2.38170664899179207463e-01) (52, 2.69707455870702661471e-01) (53, -1.96953636859831221484e-01) (54, 4.95891992830244099366e-01) (55, 3.91099412821737324464e-01) (56, 5.11571978115049508240e-01) (57, 4.71140858269362861055e-01) (58, 3.12654325958949419473e+00) (59, 4.25630834689925185987e-01) (60, 5.44862009726482798833e-01) (61, -6.11501729925831405410e-01) (62, 3.88836607010207557789e-01) (63, 4.51343267829261207691e-01) (64, 3.17612836445140878094e-01) (65, 2.36970100104200942503e-01) (66, 3.44941477895818138233e-01) (67, 4.38682868749938392749e-01) (68, 3.21514010102591896167e-01) (69, 3.83449918512749898802e-01) (70, 1.35948841876444848076e+00) (71, 4.42612737090430641285e-01) (72, 5.61060215587609545373e-01) (73, -1.86000399924042103539e-01) (74, 2.49382094482444571781e+00) (75, 8.21623057345779783667e-01) (76, 2.63893138304639318648e+00) (77, 4.11994823245918850851e-01) (78, 8.09228694504527390485e-02) (79, 1.14427408641604895501e-02) (80, 7.89763540685457787749e-03) (81, 1.48809264589887274566e-01) (82, 3.68126519104264082749e-01) (83, 3.20916971629886110806e-02) (84, 1.92828490472748803608e-01) (85, 1.73509539740091048299e-02) (86, 4.63981320915539507954e-01) (87, 2.50373951433433883373e-01) (88, 2.49115883294987877639e-01) (89, 3.23553411928292011801e-01) (90, 2.17099047339871453755e-01) (91, 2.60065495110466948780e-01) (92, -3.76232995372372536202e-01) (93, 3.41451305448401076781e-01) (94, 4.13604728874362170821e-01) (95, 2.84465007157168769947e-01) (96, 2.88675717682681465259e-01) (97, 1.04138773836374709525e-01) (98, 4.52079436647859489451e-01) (99, 2.29312270432102782713e-01) (100, -4.82228985708313850900e-01) (101, 3.87005000082131123129e-01) (102, 1.88091467618334395873e-01) (103, 8.06427911957264265119e-02) (104, 1.05253131790971787840e-01) (105, 1.30833924018466885020e-01) (106, 5.95894860904005341240e-01) (107, 4.06850449414096260181e-01) (108, 3.22930920542321586719e-01) (109, 3.45806090998617088328e-01) (110, 3.02484697568384086619e-01) (111, 4.02254968554816627613e-01) (112, -1.87192158430933702773e-02) (113, -4.86988371890145210763e-01) (114, 2.33405253208371743501e-01) (115, 4.07803720700708305369e-01) (116, 3.85269410581431770435e-01) (117, 4.90623808371988212595e-01) (118, 4.09466772944770240894e-01) (119, 4.01432938546977424732e-01) (120, 3.89791063637576484791e-01) (121, 4.71890500652757560740e-01) (122, 2.94058009655318641773e-01) (123, 3.67527372808299446216e-01) (124, 4.13787096412024879566e-01) (125, 2.37799710668042230122e-01) (126, 3.68158846766791725269e-01) (127, 4.18629288346610450855e-01) (128, 4.88200656044450675974e-01) (129, 3.23639664472184562793e-01) (130, 4.61151942283950233570e-01) (131, 3.47175895840964698902e-01) (132, 2.99023598105750465503e-01) (133, 4.62453797132811927906e-01) (134, 3.82493115634761238208e-01) (135, 3.58951158494792366138e-01) (136, 3.71414057583651924244e-01) (137, 3.62958184517338744435e-01) (138, 4.81968074710212135425e-01) (139, 4.10511448652587318531e-01) (140, 3.28558761299691581836e-01) (141, 2.87854157061419868580e-01) (142, 3.28932888479075813404e-01) (143, 4.14375796587310218921e-01) (144, -1.15133638786969402790e-01) (0, 2.20965290278270110047e-01) (1, 1.95673735648467406190e-01) (2, 3.26363803654982742586e-01) (3, 2.14990475982501372254e-01) (4, 3.21306990295722183504e-01) (5, 2.43963213473632173356e-01) (6, 3.20948006421401199617e-01) (7, 2.96598853379561600008e-01) (8, 2.54187697380854893403e-01) (9, 2.04641846776082381165e-01) (10, 2.26552413612677916444e-01) (11, 3.24546979576422867098e-01) (12, 2.88967164069487747469e-01) (13, 1.09985190295362400548e+00) (14, 7.07944298585064912821e-01) (15, 7.20568562348492647196e-01) (16, 1.37546418106954893013e+00) (17, 1.70778691446776043072e+00) (18, 3.43963356524779495516e-01) (19, 3.17286835819556412019e-01) (20, 2.78150969952418503084e-01) (21, 2.19080978840663298524e-01) (22, 2.04867372125460966981e-01) (23, 2.73668723017050918855e-01) (24, 9.70344564929324970848e-01) (25, 4.08784737275007303836e-01) (26, 4.36589178569918412443e-01) (27, 8.39736800968841179404e-01) (28, 7.95145284712508781944e-01) (29, 1.77723173475260387555e+00) (30, 4.10432946808939713712e-01) (31, 6.35478819211133028055e-01) (32, 6.41523065922622870438e-01) (33, 9.80311249808227036517e-01) (34, 5.37391908308102128622e-01) (35, 2.58064174860789585786e-01) (36, 9.07841025903541321007e-01) (37, 8.25256665483815265993e-01) (38, 8.19237295866206749473e-01) (39, 3.73168540127878922696e-01) (40, 9.40985408008292667503e-01) (41, 3.39494487852291859653e+00) (42, 3.43789142497187505398e-01) (43, 3.75720773764258164640e-01) (44, 3.98979705699091691251e-01) (45, 1.15793316150330038994e+00) (46, 5.83211953697567175858e-01) (47, 2.65524664729907322602e-01) (48, 7.30120145558571409516e-01) (49, 8.68591775593937492905e-02) (50, 2.22815613424396624653e-01) (51, 3.31536638712501552373e-01) (52, 3.67588436334234103242e-01) (53, 1.31662374234598478218e+00) (54, 2.57348501890971470552e-01) (55, 6.24453231078461956649e-01) (56, 2.57445039063765812593e-01) (57, 9.18332646960241860690e-01) (58, 2.69204392430891448207e-01) (59, -8.24668798955641491055e-01) (60, 8.33564490854000639253e-01) (61, 1.54377640178742714383e+00) (62, 1.69920483440234526551e-01) (63, 2.53583112567736912446e-01) (64, 4.02052244090196853055e-01) (65, 2.62964361732433848928e+00) (66, 1.57720917671992644227e-01) (67, 2.68008688300921726899e-01) (68, 2.38584661692454680360e-01) (69, 4.45393895256365524027e-01) (70, 1.28099838563036499961e-01) (71, 2.07143040210082396424e-01) (72, 8.40706080972408842378e-01) (73, -4.14909286234521834658e-01) (74, 2.10520602718598293102e-01) (75, -2.58130203060079943533e-01) (76, 1.83036404955896930824e-01) (77, 1.30478853303381425732e+00) (78, 1.62423902958705290711e-01) (79, 3.34068523556067642488e-01) (80, 2.57671350449397373872e-01) (81, 6.22567963603566587594e-01) (82, 5.06491527978682187783e-03) (83, 1.91309014171435698426e-01) (84, 5.55077689190514589335e-01) (85, 3.24930474993292639496e+00) (86, 7.79005198755095995544e-01) (87, 1.97288293756732668882e+00) (88, 2.12133222458632131335e+00) (89, 2.18243981657460395240e+00) (90, 3.11233245708351979886e-01) (91, 3.70154906936293381925e-01) (92, 8.73521004200175754661e-01) (93, 7.99801490285228289245e-01) (94, 1.29012015872383045689e+00) (95, 1.68317058891131743348e-01) (96, 1.75847502261473997986e-01) (97, 3.06258525292221639447e+00) (98, 6.33238869665031622880e-01) (99, 9.08744438038457946760e-01) (100, 2.44354641405649131158e+00) (101, 2.22749600319102469825e+00) (102, 9.04491833426783853334e-01) (103, 8.72573468262178963961e-01) (104, 8.80841958695871896090e-01) (105, 3.88733518250590104337e-01) (106, 1.21145987921142506138e+00) (107, 3.05012347012831863680e-01) (108, 3.05800201207472976961e-01) (109, 1.21995740049266743199e+00) (110, 6.35993990061645697587e-01) (111, 6.01340448905833269144e-01) (112, 7.83410583019450768028e-01) (113, 2.48650706527538245538e+00) (114, 6.88963890019807290166e-01) (115, 1.33310208388399659141e-01) (116, 4.34415695198183793302e-01) (117, 3.58476748154523905399e-01) (118, 5.60740738493279766708e-01) (119, 2.51354226678683567719e-01) (120, 1.79783331066443785584e-01) (121, 2.85296554037165139839e-01) (122, 3.49387528210951980867e-01) (123, 2.80877323657347854891e-01) (124, 2.99553309507971654568e-01) (125, 7.38872835834630037333e-01) (126, 4.13463232048159379239e-01) (127, 3.21474433817273030911e-01) (128, 4.25801595137479838016e-01) (129, 3.41936235256796727811e-01) (130, 5.83458661419228863387e-01) (131, 2.00651535600497588074e-01) (132, 1.67343245655372008240e-01) (133, 2.69654707819297123628e-01) (134, 2.22782062202765807069e-01) (135, 1.97742266416623457825e-01) (136, 1.86266610235049590028e-01) (137, 7.33607093294270540262e-01) (138, 3.48828242927863296785e-01) (139, 3.38140444666220840730e-01) (140, 2.69339101225211430268e-01) (141, 2.80056359082534012117e-01) (142, 1.93759245634152754700e-01) (143, 2.80322657734229263582e-01) (144, 6.49296516030935383368e-02) (0, 2.80729994712192898465e-01) (1, 2.94631571111996060086e-01) (2, 3.31369802890140896512e-01) (3, 2.08040897337515184873e-01) (4, 2.27845892844517061704e-01) (5, 2.28797652361709902280e-01) (6, 2.33897850451786348813e-01) (7, 2.00171851156074831479e-01) (8, 2.24258803365547487729e-01) (9, 1.60848789451439211362e-01) (10, 2.27603555260021517270e-01) (11, 2.17409998712856600278e-01) (12, 3.02190423546154385281e-01) (13, 1.83137316758417573181e-01) (14, 8.75904875168349028591e-02) (15, -4.75633698214220579370e-01) (16, -1.27664462520122135025e+00) (17, -2.08922692822435873694e+00) (18, 1.85421921847183535093e-01) (19, 1.48616947768051455014e-01) (20, 3.27626616297085171414e-01) (21, 2.29237810311634371274e-01) (22, 1.80957191226799318784e-01) (23, 3.15512046752292996121e-01) (24, 6.47993654832235477237e-01) (25, -1.58943378352048719782e-01) (26, -1.18021313241134573335e-01) (27, -4.90002278828035375824e-01) (28, -1.18177866774073536682e+00) (29, -2.19067679034689444251e+00) (30, 1.71449684140999147886e-01) (31, 3.37838441667873745633e-01) (32, 3.14403396830722492439e-01) (33, 1.03875904569318236459e-01) (34, 2.08330095545217142128e-01) (35, 1.84007175801117250913e-01) (36, 6.59679763838640353946e-01) (37, 7.76109950181099739197e-01) (38, -2.21738844475625107577e+00) (39, -5.89258565955833035765e-01) (40, -1.08984384896627362060e+00) (41, -2.03200664060333746619e+00) (42, 1.29577049162229784862e-01) (43, 1.99107513871034869091e-01) (44, -6.56395546549037534056e-01) (45, 1.86909952823567232505e-01) (46, 2.85689485058948200447e-01) (47, 3.30044851241428738309e-01) (48, 7.00547462715442992298e-01) (49, 6.09855119403444834170e-01) (50, 2.37522512205078722980e-01) (51, -1.00893433201467944138e-01) (52, -2.12521555895099564792e-02) (53, 1.42686469940475568752e-01) (54, 7.63894738747413426516e-01) (55, 3.20440795347571638629e-01) (56, 2.31088582501292438831e-01) (57, 7.70466111276588289103e-02) (58, 7.37983552194688141590e-01) (59, 4.81928093247848576830e-01) (60, 6.20384284183374767885e-01) (61, -2.30949677288533161690e-01) (62, 5.68008374974123042556e-01) (63, -7.65572904538601856084e-02) (64, 6.23346891479434339622e-03) (65, 1.37136288880693568704e-01) (66, 1.88803069827873537534e-01) (67, 5.31195581510654490920e-01) (68, 5.54186497434965175124e-01) (69, -3.93364989734746456351e-02) (70, 1.39639943254739806733e+00) (71, 2.10547509842389374279e-01) (72, 6.69140250310293338565e-01) (73, -3.37890710443259245643e-01) (74, 2.06098061797879950063e+00) (75, 2.51242340925517726458e-01) (76, 8.75106879161007600310e-01) (77, 2.92500857489577825721e-01) (78, 3.87640740890708768163e-01) (79, -2.82051865650067082325e-02) (80, -1.65303267974937884155e-01) (81, 1.22368942568903515955e-01) (82, 4.46844447758973362106e-01) (83, -4.82150217959951166158e-01) (84, 1.82287954687463893411e-01) (85, -2.21378538716131867403e+00) (86, 4.70872185396542630720e-01) (87, -2.37622468629866606671e-01) (88, -2.38412697711031310033e-03) (89, 1.36669296887989288880e-01) (90, 1.22462251997902560330e-01) (91, 2.04365344561054873562e-01) (92, -1.09895114249459147082e+00) (93, -2.74024460873673603167e-01) (94, -2.46075182948407404637e-02) (95, -4.06808363623696322975e-02) (96, 2.57522941170055752469e-01) (97, -3.16866572155140113765e+00) (98, 1.06574327255272355286e-01) (99, -3.89939971372167515362e-01) (100, -2.07520320938856972504e+00) (101, 9.18578953717901908194e-02) (102, -9.50619964898675832987e-03) (103, -2.89200587159775313051e-01) (104, -2.40730902141712638231e-01) (105, -6.43189474397376614867e-01) (106, 2.06102789179250345253e-01) (107, -8.44478927326971010037e-03) (108, 3.04523438749630337430e-01) (109, -2.70960346497179482839e-01) (110, 3.47867098436519306404e-01) (111, -1.58286373491237863931e-01) (112, -3.08253173374544164886e-01) (113, -4.89137781500428747705e+00) (114, -3.68660739075376386875e-01) (115, 3.17863580570384662849e-01) (116, -7.33944788032249051390e-01) (117, -2.89980799592615579030e-01) (118, 3.16223010955173855496e-01) (119, 2.99792990622837429715e-01) (120, 2.58480132160503750516e-01) (121, 2.25591306374236688637e-01) (122, 2.80717924771625881863e-01) (123, 3.12016100225765591336e-01) (124, -2.79523461486051894020e-01) (125, -2.07610133464287083260e-01) (126, -1.52981008763263925943e-01) (127, 3.04152697859127407742e-01) (128, 3.03413417921229999763e-01) (129, 1.73565589425880739682e-01) (130, 2.80216798720676785184e-01) (131, 2.48990245697815248960e-01) (132, 2.33802445767242739194e-01) (133, 2.71761000690777188016e-01) (134, 3.02304104504902249051e-01) (135, 3.35585982141811733914e-01) (136, 1.82123296497185060971e-01) (137, -1.98781315377365097596e-01) (138, 1.76873811123688051694e-01) (139, 3.38751063285190945340e-01) (140, 1.74721420345623323911e-01) (141, 1.66498795686085054868e-01) (142, 3.06617916164715176297e-01) (143, 1.58844501314480135434e-01) (144, 9.49316804860285273771e-02) (0, 1.83194552507227825799e-01) (1, 1.69620935764140057245e-01) (2, 1.63786684121912884393e-01) (3, 1.88730751123255657831e-01) (4, 1.37948279228037817834e-01) (5, 1.15683999802893580644e-01) (6, 9.93152157924832440505e-02) (7, 5.29746427757160631700e-03) (8, 4.85062347315015074400e-02) (9, 6.34356261752309219526e-02) (10, 5.19272172413529631285e-02) (11, 1.67049308266467022577e-01) (12, 3.66078214309872723708e-02) (13, 1.10156368129634785191e+00) (14, 3.80971559847004925814e-01) (15, 6.22777314446629898237e-02) (16, 1.40505348291224463342e-01) (17, 1.33151607177914854674e-02) (18, 1.48184512700861859003e-01) (19, 6.43706665895642654585e-02) (20, 1.67723585810488629022e-01) (21, 1.35874797549075110314e-01) (22, 9.85982836745442486892e-02) (23, 1.69992660131281780878e-01) (24, 2.02363009307315522278e+00) (25, 7.23887593991768829582e-02) (26, 1.96818415965861248651e-01) (27, 1.66391147816897677636e-01) (28, 3.11109857208741250045e-02) (29, 7.76722743732349840684e-03) (30, 1.28585074987238867639e-01) (31, 1.22399309522312482734e+00) (32, 4.06132692518596960518e-01) (33, 3.21116285446052862618e-01) (34, 1.11537932269954609410e+00) (35, 1.61470937798664226914e-02) (36, 1.86873158368995362366e+00) (37, 2.77328598765763045808e-01) (38, 1.06417006397963864739e-01) (39, 5.94099955223263975768e-02) (40, 1.69584466660739230370e-01) (41, 1.76358451094454693475e-01) (42, 2.96159604156621014681e-01) (43, 2.42065311930836878085e-02) (44, 1.85492013540095257440e-01) (45, 1.79940634828360224162e+00) (46, 3.15228777053718878243e-01) (47, 1.26946692313975317834e-01) (48, 2.01362022314002686585e+00) (49, -1.07636938131645404360e-01) (50, 9.11786723206684107668e-02) (51, 6.24078085502830642861e-02) (52, 8.06588017563525105924e-02) (53, 1.03938135556520405700e+00) (54, 9.44579885862530804763e-02) (55, 1.11070476304516185806e+00) (56, 3.59233942159260133398e-01) (57, 1.75131599096126855386e-01) (58, 3.51394409361248327706e-01) (59, -1.38661391452189608486e+00) (60, 1.78430991021644280714e+00) (61, -2.06852507315799893917e+00) (62, 1.53636222336939326505e-02) (63, 3.09811120484522334317e-02) (64, 1.30339159215213107323e-01) (65, 2.55133840268086009573e+00) (66, 1.09683718962975129685e+00) (67, 1.09059814140622948764e-01) (68, -3.84734312440701831104e-02) (69, 2.05750676480598748697e-01) (70, 4.52267131830289104144e-01) (71, -3.96924603238856699150e-01) (72, 1.95892975035836869324e+00) (73, -1.79096501457488077591e+00) (74, 1.06435018268890665971e-01) (75, -2.03506476901695432247e+00) (76, 2.35483686206610709490e+00) (77, 2.37899592979224294709e+00) (78, -2.42247028548724374630e-02) (79, -9.95652342725798500389e-02) (80, -9.44818521429106605858e-02) (81, 9.77306248760595325242e-02) (82, -7.63057627299187912762e-02) (83, -2.90952721588896220939e-02) (84, 1.00469616200751218904e-01) (85, 3.92013261142139746163e-01) (86, 8.62707260134807918384e-01) (87, 9.00854275035257057169e-01) (88, 8.56187502923599574878e-01) (89, 3.43525629012020772279e-01) (90, 1.15928103174990596025e-01) (91, 1.59284745302027630487e-01) (92, 2.54794904537213318108e-02) (93, 4.02340484935207076678e-01) (94, 2.68258387270336462471e-01) (95, 1.90897797193354534784e-01) (96, 6.99992300532521621870e-02) (97, 1.08790064919219120476e+00) (98, 4.39882896600766570838e-01) (99, 3.02574565786285054614e-01) (100, 1.46555332983256625390e-01) (101, 3.24835624067219497224e-01) (102, 1.63951637831993346506e-01) (103, 2.85573562759322774340e-01) (104, 1.00651765850849436723e-01) (105, 1.05524246539896879304e-01) (106, 1.39428349026381592779e+00) (107, 7.24825724584476915879e-03) (108, 1.83856458924473963046e-02) (109, 1.50639800871135043359e-01) (110, 1.35478122676135348534e-01) (111, 1.68763806071108746210e-01) (112, 1.59295110548259066796e-01) (113, 5.23819639754419773270e-03) (114, 7.64179588801873199699e-02) (115, 6.07140572316658966301e-02) (116, 1.87470500316447186151e-01) (117, 1.41280172909022616601e-01) (118, 1.58084717990938683485e+00) (119, 4.58129616044224835525e-02) (120, 1.47755836095637249628e-01) (121, 6.21770681388390533684e-02) (122, 6.04703738910572496934e-03) (123, 1.91249583806818890253e-01) (124, 6.16803662441434280561e-02) (125, 4.74595734439553496031e-02) (126, 1.83096696581667828241e-01) (127, 1.32628937210864050744e-01) (128, 7.11700977332604400871e-02) (129, 1.34200979914492590783e-01) (130, 1.43378406616035958265e+00) (131, 5.28045678101243254332e-02) (132, 1.04921747889346037019e-01) (133, 9.72965182326497174392e-02) (134, 1.18476045276946009843e-01) (135, 1.23616983141726463624e-01) (136, 3.77009525520222155137e-03) (137, 7.16907949708165542768e-02) (138, 1.31814573850459082482e-01) (139, 2.31050746105374536776e-02) (140, 4.03448352180184460769e-02) (141, 8.53069247267903424392e-02) (142, 1.92818214144534039178e-01) (143, 1.76541776917638025546e-02) (144, 2.13340363734084659253e-01) (0, 2.61475308112847248943e-01) (1, 2.70607365541207234294e-01) (2, 2.71204089991795460612e-01) (3, 2.20769712947356144817e-01) (4, 2.33921235673176686198e-01) (5, 3.17966385059105682842e-01) (6, 3.69474901132332611553e-01) (7, 3.14112542443024445049e-01) (8, 3.24962748460518646709e-01) (9, 3.61673800520645905010e-01) (10, 1.76742231719242970378e-01) (11, 1.73371656112420002849e-01) (12, 3.45719827584969330303e-01) (13, 2.82909165743188806275e-01) (14, 5.82236039468993715751e-01) (15, 8.39328004559450335798e-01) (16, 1.21647343883561354083e+00) (17, 2.46506098191399969366e+00) (18, 1.86741231255280415446e-01) (19, 2.24817103020893971355e-01) (20, 2.35735276959883610637e-01) (21, 3.11307547859894562237e-01) (22, 2.29536528013693730266e-01) (23, 3.08375416569458771221e-01) (24, 2.44071444742428700359e-01) (25, 2.26179588261442215957e-01) (26, 6.69349621066798738944e-01) (27, 1.42041803167917857209e+00) (28, 2.32650865407908735705e+00) (29, 2.51702417711873449591e+00) (30, 2.39836400620686451823e-01) (31, 2.86335184314862808974e-02) (32, -1.07107047335335520133e-01) (33, 4.19443497261796249820e-01) (34, -1.89659562305638046409e-01) (35, 3.26250566415535736553e-01) (36, 2.82455763094174305827e-01) (37, -2.80626421031732187217e-03) (38, 2.34623770954335508776e+00) (39, 5.53823000768174700248e-01) (40, 2.44680012556041059923e+00) (41, 2.41930529753823675421e+00) (42, 2.34239051364409367473e-01) (43, 3.40094222001778412334e-01) (44, 5.27279200980414919364e-01) (45, 4.49074190819771901229e-01) (46, -1.25023130671211901710e-01) (47, 3.60894857220398712627e-01) (48, 1.69377921427629252182e-01) (49, -1.31478227004125147737e+00) (50, 1.69280820912037166526e-01) (51, 8.78198104488597364181e-01) (52, 2.79210860422626105937e-01) (53, 2.17235877116525566422e+00) (54, 1.66937491203687449204e-01) (55, 1.72806455100915717926e-01) (56, 2.51836834753892679917e-01) (57, 1.98548349316762573480e-01) (58, -4.71001741216266867074e-01) (59, -2.75766006799246024550e-02) (60, -1.17857836120879300168e-01) (61, 6.26992041941738298405e-01) (62, 1.85378318898426930339e-01) (63, 3.27834261827217865459e-01) (64, 3.39763270518575022372e-01) (65, 1.43698850357515706122e+00) (66, 2.61460082441642094331e-01) (67, 3.67264895014511871807e-01) (68, 2.01131297521340290935e-01) (69, 3.00175954366238784132e-01) (70, -8.40494668279849865833e-01) (71, 1.95505699388729969890e-01) (72, 3.16002893270215468036e-01) (73, 3.18600322144464709329e-01) (74, -1.27662412174061712378e+00) (75, 8.57967840254197089411e-02) (76, -4.03433190352969373027e-01) (77, 6.33811367921013557591e-01) (78, 3.37945777000150160418e-01) (79, 9.96923014572395405075e-01) (80, 9.88921582749618610642e-01) (81, 5.26405279346606858049e-01) (82, -3.72490009916450537375e-01) (83, 1.01483248179270169054e+00) (84, 5.48105455020417742240e-01) (85, 3.38692594482348618978e-01) (86, -1.06128536098754056027e-01) (87, 3.14853033801664738967e-01) (88, 3.71980313921483285444e-01) (89, 7.14719111185211919413e-01) (90, 5.73662715980758464163e-01) (91, 6.28335024246921114432e-01) (92, 2.30046309324229536486e+00) (93, 7.78105244331673495672e-01) (94, 4.10781563028291996087e-01) (95, 6.25802124867190889823e-01) (96, 2.87965020410763661296e-01) (97, 5.30246194614813926016e-01) (98, 2.72700052383737512329e-01) (99, 8.27840581827477328680e-01) (100, 2.45124323459590254259e+00) (101, 7.68694082360405706034e-01) (102, 6.38381762968378008161e-01) (103, 1.13050657641345253523e+00) (104, 7.16023096364055366969e-01) (105, 8.85557553311758227643e-01) (106, -1.69046607212254257346e-01) (107, 6.56532536277522615897e-01) (108, 1.90561747424351612956e-01) (109, 6.16501264651615699108e-01) (110, 5.88463597377140601452e-01) (111, 6.61582763323535494315e-01) (112, 1.37405095265963206330e+00) (113, 2.29042544381941137743e+00) (114, 4.81072630872939666080e-01) (115, 3.11699118140535302857e-01) (116, 5.36873525956620745170e-01) (117, -1.79598685697743148948e-01) (118, 3.69997484855400848858e-01) (119, 2.90343528859364430339e-01) (120, 3.20830850176560211651e-01) (121, 2.23293248239355118789e-01) (122, 2.25722944609867970378e-01) (123, 3.68868230156647491924e-01) (124, 3.43514455728279877178e-01) (125, 8.74118915339880175885e-01) (126, 3.01714731626259613506e-01) (127, 2.58203914634930531413e-01) (128, -5.95790784518211158360e-02) (129, 2.28550570331561009318e-01) (130, 2.00749112539040486247e-01) (131, 3.11950354151474762432e-01) (132, 2.10243134073960225017e-01) (133, 3.65524439387070465557e-01) (134, 2.09392195813404957683e-01) (135, 3.07755915693985748760e-01) (136, 3.19348586969124603741e-01) (137, 7.98239833256178088483e-01) (138, 2.71332843475090901286e-01) (139, 3.36634768419014740459e-01) (140, 1.90738981835591236980e-01) (141, 1.94252176456200520427e-01) (142, 3.05261923246132660381e-01) (143, 3.01424039773690033428e-01) (144, 8.33767709359701514327e-02) (0, 1.14068073961561614049e-01) (1, 1.30186049077337717694e-01) (2, 1.39096913668936228436e-01) (3, 1.33905773792093729657e-01) (4, 1.26907972428625559491e-01) (5, 5.61648884747680959828e-02) (6, 8.14610699151214895375e-02) (7, 2.04337013695066849195e-01) (8, 1.08612267110174590123e-01) (9, 7.70537348423656759389e-02) (10, 1.74575907919233719312e-01) (11, 5.09977618191894827016e-02) (12, 2.05492896768873611890e-01) (13, -4.30834223803683413756e-01) (14, 2.73207975706804884197e-01) (15, 1.43120816132773054363e-01) (16, 1.69330740502823484661e-01) (17, 3.49984565117857915340e-01) (18, 9.77354885969814596303e-02) (19, 7.92267152999100027211e-02) (20, 1.65646506283110062085e-01) (21, 2.32215849492376724683e-01) (22, 2.25299743745153824293e-01) (23, 2.32152921888655106031e-01) (24, -7.72416802984036254820e-01) (25, 5.89308523402913148059e-02) (26, 4.96163422201332388051e-02) (27, 2.38064768236338958340e-01) (28, 2.07460331242740020352e-01) (29, 3.98219519594214421687e-01) (30, 3.84109814742880306682e-01) (31, -1.37310139124881303019e+00) (32, -8.42835574513408958275e-01) (33, -3.79579578032649633812e-01) (34, -8.18369965171549140770e-01) (35, 1.62453515264814774000e-01) (36, -7.69607390206612396177e-01) (37, 1.87529068888779709701e-01) (38, 3.88296443211667285933e-01) (39, 2.05492136809652725660e-01) (40, 2.69138301234900845227e-01) (41, 2.30157642870159051540e-02) (42, 2.20287231538122574293e-01) (43, 1.51613509092157761060e-01) (44, 9.22627018724140463002e-02) (45, -8.22766476889489062341e-02) (46, -7.38405025666687309105e-01) (47, 1.43037868473356699628e-01) (48, -6.47436015903116612868e-01) (49, -7.98174262651549504266e-02) (50, 1.24800883200452961130e-01) (51, 1.05288016052424304725e+00) (52, 4.81957654039024907533e-01) (53, -1.52502086600974001707e-01) (54, 1.32399879362867484156e-01) (55, -2.59865855416968272174e-01) (56, 6.63542225625974313452e-02) (57, 2.97877840783990821549e-01) (58, -6.61992675735844304796e-01) (59, -2.97791842219401470260e-02) (60, -7.54053178172863769468e-01) (61, 5.00663843424803189919e-01) (62, 1.74365920755690018140e-01) (63, 3.58066012243109188518e-01) (64, 1.39840200991984464629e-01) (65, 5.22251270963241254197e-02) (66, -3.55139234927821734189e-01) (67, 1.90663201544111649000e-01) (68, 1.39646610054796671552e-01) (69, 2.32264469921098171135e-01) (70, -7.54631086355182945091e-01) (71, -3.18050885771982289052e-02) (72, -8.65113208931244659361e-01) (73, 5.15963404458053553903e-01) (74, -1.09793033603068357351e+00) (75, -3.60913268460528111059e-02) (76, -8.81325828964763857698e-01) (77, -3.19192531038047733194e-01) (78, 2.00471950504606644117e-01) (79, 1.14838359687155180944e-01) (80, 1.42663059565847849530e-01) (81, 9.86297135054058776715e-02) (82, -3.57493859397273960887e-01) (83, 1.40185138020342325849e-01) (84, 8.92875136767086324818e-02) (85, 3.24930737739092423411e-01) (86, -5.12512227767265349243e-01) (87, 1.14481813210828703431e-01) (88, 7.46024697819971591151e-03) (89, 1.10865249241425295468e-01) (90, 2.38908222100485456707e-01) (91, 1.99463507315863264324e-01) (92, 5.22946739004698124553e-01) (93, 1.77071480235804212811e-01) (94, -6.32608342241453902588e-01) (95, 7.66609886620697317250e-02) (96, 9.28929800127205190785e-02) (97, 6.22698117368655768011e-01) (98, -5.58207143848507336692e-01) (99, 5.67867650112085065039e-01) (100, 4.11802695499506432597e-01) (101, 2.27319500351979036923e-01) (102, 1.08905205248669700868e-01) (103, 3.80670113349358796295e-01) (104, 3.34065919602315186676e-01) (105, 2.10876880023306290113e-01) (106, -1.64077297874922090060e+00) (107, 1.09277663562124663366e-01) (108, 1.15828370485132628454e-01) (109, 7.79487707812789309969e-02) (110, 5.81852727399571473255e-02) (111, 3.96172513345556698283e-01) (112, 3.16502010310094117340e-01) (113, 8.66015809692672555720e-01) (114, 1.72328088881131241683e-01) (115, -3.15010241402880405981e-02) (116, 2.25658980939215103589e-01) (117, -7.88184173243207386594e-03) (118, -8.59965446334637451109e-01) (119, 1.94132847521131912671e-01) (120, 1.24060874614542446248e-01) (121, 3.33490454421742493762e-02) (122, 7.50407667790111837514e-02) (123, 1.06938523981398039830e-01) (124, 3.95476778129415951213e-01) (125, 4.15913835403551868097e-01) (126, 3.21280581036882839641e-01) (127, 2.52167088071184708475e-01) (128, 7.73181848989231979008e-02) (129, 3.16199448982553921184e-01) (130, -8.64272328954495239195e-01) (131, 7.87798704538997945912e-02) (132, 6.09845871065315542348e-02) (133, 4.81164136861023244984e-02) (134, 1.51887526545351425611e-01) (135, 8.74880420003589925892e-02) (136, 2.22790641519850174390e-01) (137, 8.24292542372402486928e-02) (138, 1.60563042197054306470e-01) (139, 1.02416334483450346959e-01) (140, 1.77240280244177261793e-01) (141, 1.12273728284662657750e-01) (142, -3.17069922504354062553e-01) (143, 1.86179814669912735425e-01) (144, 1.29421113560516110041e-01) (0, 2.46199987166244083081e-01) (1, 1.15833214752990312779e-01) (2, 1.61213427119571262036e-01) (3, 1.31843566232043796216e-01) (4, 1.22355028324443407262e-01) (5, 1.19143589668590135777e-01) (6, 2.19701766305285983716e-01) (7, 2.49229497545081668530e-01) (8, 1.57981693082171970044e-01) (9, 2.90437630646545041913e-01) (10, 2.34619862668830447827e-01) (11, 2.25707314246017032300e-01) (12, 2.01631798677760654126e-01) (13, 2.87046987097426375968e-01) (14, 1.96550919943172031079e-01) (15, 1.07744827204066820348e-01) (16, 7.61197639283746618766e-02) (17, 3.63324118432611503637e-02) (18, 1.32526747219878726636e-01) (19, 2.90829218261558164471e-01) (20, 1.54812979780751758252e-01) (21, 1.83812118404227786694e-01) (22, 2.77417189710456535412e-01) (23, 2.01039566927272372876e-01) (24, 1.08172483079749651158e-01) (25, 1.53977285604639829719e-01) (26, 1.42077165924626880322e-01) (27, 1.25300199150489871558e-01) (28, 1.36987261831211154517e-01) (29, 8.92586094913095373649e-02) (30, 2.52168990009147220288e-01) (31, 1.38298920624572330151e-01) (32, -2.81748380307942025702e-01) (33, -6.19837670844368360257e-01) (34, 1.76657255273028224174e-01) (35, 1.22579223745185442174e-01) (36, 1.24862662785369463170e-01) (37, -1.16519649886961884633e+00) (38, 2.09033705651210849341e-01) (39, 1.79012677901107364331e-01) (40, 2.09843509256290500220e-01) (41, -4.03047524122297599891e-03) (42, 3.00888321631270994061e-01) (43, 1.66586979561168246899e-01) (44, 1.71634099715072208081e-01) (45, -4.74273389659481292568e-01) (46, -2.15304102544575298728e-01) (47, 1.46717901610452228223e-01) (48, 2.24808054423649761322e-01) (49, -3.28706770111617863073e-01) (50, 1.33715450101214938794e-01) (51, 2.42934415950980253651e-01) (52, -2.07136845288791948683e-01) (53, -9.54947488727956872445e-02) (54, 2.77093238466102287365e-01) (55, 2.83516473405677482678e-01) (56, 1.47100135021525912915e-01) (57, -5.52542245469646697842e-01) (58, -2.21875894610672558249e-01) (59, 1.11205574241982141359e+00) (60, 4.90487343835225186872e-01) (61, 2.65607400167347684761e-01) (62, 3.17730337915737515164e-01) (63, -1.09650581182092581034e-03) (64, -3.68327772317448010053e-01) (65, -5.11461681803356715825e-01) (66, 1.66597135899383852475e-01) (67, 1.83079727528412172788e-01) (68, 1.58558711943943331235e-01) (69, -7.90066494789676609933e-01) (70, -6.58538946737077662830e-02) (71, 3.17436514074075804004e-01) (72, 2.77516084170659094177e-01) (73, 3.60962194881933096102e-01) (74, -4.51996910431977483302e-01) (75, 1.24092868273421336189e-01) (76, -1.70762599748977256242e-01) (77, 1.34173256010520658421e-01) (78, 2.92300722830611814373e-01) (79, 1.26101657085734897290e-01) (80, 1.04237205617744035924e-01) (81, -1.64656556929142272594e+00) (82, 2.82411324336220959097e-01) (83, 2.79581195943671867443e-01) (84, 1.25653787784892612134e-01) (85, 4.26032712230652380048e-02) (86, 7.39279069560800639049e-02) (87, 1.79268691222830622856e-01) (88, -4.80957022390918975674e-01) (89, -3.51779888117163153094e-01) (90, 1.04289642803985185826e-01) (91, 1.86653658085185580884e-01) (92, 6.88533264989128757083e-02) (93, 8.87861975091730482035e-02) (94, 1.96954000275297969047e-01) (95, 1.41949731194097095166e-01) (96, 1.06438077323752947057e-01) (97, -2.80239392867857040059e-01) (98, 1.87480221967860072319e-01) (99, -6.82369790416921528919e-02) (100, 1.29212499021934573706e-01) (101, -1.83643723571150274676e-01) (102, 1.07381237353685987657e-01) (103, -4.01944725297050720059e-01) (104, -4.72960411093788390957e-01) (105, 1.31092860632258945142e-01) (106, 2.21865515690012782279e-01) (107, 1.92118182115871005688e-01) (108, 2.36134848826247745190e-01) (109, 2.10334565024538844291e-01) (110, 2.24734615068598597709e-01) (111, 2.36540383928138309155e-01) (112, 1.59397609888958041724e-01) (113, -2.31547910389950900578e-01) (114, 1.80757912803488685061e-01) (115, 2.50509518664046137992e-01) (116, 1.84297046892959170972e-01) (117, -2.18080002610474193991e-01) (118, 1.05253658526259966099e-01) (119, 2.67389319174605954998e-01) (120, 1.83255247109252505933e-01) (121, 1.16058077197237818901e-01) (122, 1.50211311214286380444e-01) (123, 2.07220240764934116040e-01) (124, 2.76004261606055900646e-01) (125, 2.32987202041465335522e-01) (126, 2.45338312619048648511e-01) (127, 2.78610668413955375744e-01) (128, -2.51339699868946664374e-01) (129, 1.18640422158557481969e-01) (130, 2.91880107753593076581e-01) (131, 2.18788727455455356274e-01) (132, 3.02307597630340207928e-01) (133, 2.80767760508376762463e-01) (134, 1.80893301301318698560e-01) (135, 1.93396493130046420728e-01) (136, 1.08028947644549913609e-01) (137, 2.88580707543212522381e-01) (138, 2.81683004730064079357e-01) (139, 2.40332133405524783765e-01) (140, 1.84737160139400058423e-01) (141, 1.92239507370311313306e-01) (142, 1.73040851288157992993e-01) (143, 2.99246437185126890057e-01) (144, 9.63386566899479962478e-02) (0, 1.27470079586332218913e-01) (1, 8.15488284085443965177e-02) (2, 1.27556029484098332194e-01) (3, -8.63734282510962222967e-03) (4, 8.29708313201120845060e-02) (5, 9.11136900637796870450e-02) (6, 7.07862337682894499080e-02) (7, 8.48507916186502925138e-02) (8, 1.37493315861051457194e-01) (9, -2.58251915122815513259e-02) (10, 5.70233797286203852872e-02) (11, 6.66488518570116789119e-02) (12, 1.15681458041494225619e-01) (13, 1.47374620277883807556e-02) (14, 9.72817277167490473966e-02) (15, 1.30490202233617680339e-01) (16, -2.44025516837762412869e-01) (17, -1.04757516522333157805e-01) (18, 1.28966126367872135905e-01) (19, -3.21311153429236148749e-03) (20, 8.93003975604227534513e-02) (21, 1.85309460018328181485e-02) (22, 9.84161869113778231544e-04) (23, -4.35228830730197691068e-02) (24, -3.61772648947920535956e-03) (25, 1.20419708414793269480e-01) (26, -4.50450817491361010791e-02) (27, 3.64271511997048769160e-01) (28, 2.86175204182927467311e-01) (29, -1.66626605082675904868e-01) (30, -1.79219061877080344802e-02) (31, -1.56387726213284943000e-02) (32, 6.50509571273329145757e-02) (33, 1.65785951249622531822e-01) (34, 8.85633133244536317752e-03) (35, -3.07565826824461541200e-01) (36, 1.01142484471624230502e-01) (37, 5.51572436148170308634e-01) (38, 1.98672797171147008655e+00) (39, 1.15271563138407265314e-01) (40, 2.50758362675969515010e-01) (41, -5.94434094320984013349e-02) (42, 3.21177416104493490545e-02) (43, 1.63594166244905969698e-01) (44, 1.65991003121775171358e-01) (45, 9.01545620532492736343e-02) (46, 1.00778398438215482935e-01) (47, -3.13249125978504738832e-01) (48, -3.61824564307014484577e-02) (49, 2.11268824451018488730e+00) (50, 4.10043974945829836631e-01) (51, 4.73067110976805649258e-01) (52, 8.06218164340646414878e-01) (53, -2.80374591531471706318e-01) (54, 2.75620811016281108685e-02) (55, -3.94623063175956745319e-02) (56, 4.36714582473953227826e-02) (57, 7.99634722213177773220e-01) (58, 1.52652012315572349621e-01) (59, -1.06054140698225940476e+00) (60, -3.25139796888111037854e-02) (61, 1.61326007758789358171e+00) (62, 1.82448356804099626194e-01) (63, 4.11645015142681314213e-01) (64, 1.95560859226011463097e-01) (65, -8.35016294895709942914e-01) (66, -3.47193813478229446057e-02) (67, 3.36496389862742939503e-01) (68, 2.55669086631980513324e-01) (69, 8.89896980772301726681e-01) (70, -1.77137129048118874275e-01) (71, -2.15522737140758147145e-01) (72, -8.86733852284636234198e-03) (73, 2.03633913372860853030e+00) (74, -1.39326675321160886600e-01) (75, 2.57528827422848327622e-01) (76, 3.39565275532768384714e-01) (77, -1.37848863847569402807e+00) (78, -2.82169181755339226747e-01) (79, -2.92114966447456048115e-01) (80, -3.12924877638919518574e-01) (81, 7.77721496453565586116e-01) (82, -1.40691703932799699883e-01) (83, -2.96992474134071038350e-01) (84, 1.05426806733434533236e-01) (85, 1.50463272145615278852e+00) (86, 1.52731033889820337623e-03) (87, 2.22972731479128410959e-01) (88, 5.52710177090451115767e-01) (89, -3.54148117852466776112e-02) (90, 5.36095236991098872403e-02) (91, 9.77133564693245804111e-03) (92, 3.69391252960030946895e-01) (93, 2.95968586477475537055e-02) (94, 2.82133985999311498460e-01) (95, -1.67402372593982329274e-01) (96, 3.91912065488610183994e-03) (97, 1.37519621736036001813e+00) (98, 1.03792202993154752955e-01) (99, -7.29964700285744109987e-03) (100, 9.64129400118892365690e-01) (101, -4.45186389637249255169e-02) (102, -1.50822838869852805105e-02) (103, 4.63494809057995726942e-01) (104, 5.15276351657196984846e-01) (105, -8.39204857166428799808e-03) (106, -6.84681014299170706550e-04) (107, -2.70627655918700804616e-01) (108, 5.23538400982073298673e-02) (109, 3.12052001002515733141e-01) (110, 6.46216993768217451422e-02) (111, 1.21242821805396902568e-01) (112, 3.84399970735375795527e-01) (113, 6.95933632608954133580e-01) (114, 3.43017553620361570488e-01) (115, 4.34778159101011571486e-02) (116, 1.58637280072611352999e-01) (117, 7.29750668297332455436e-02) (118, -3.81873363997289050342e-02) (119, 5.69118668888262263517e-02) (120, -3.97718141223737109424e-02) (121, 4.85546340782644914036e-02) (122, 1.16880539581601952670e-01) (123, 1.00335392877881859897e-01) (124, 4.10224763976725220749e-02) (125, 1.02231900736044229588e-02) (126, 1.14746869199195730693e-01) (127, 6.06383790825060359220e-02) (128, 8.79410629708769209234e-02) (129, 5.13007452343157283048e-02) (130, 2.50710656498125510072e-02) (131, 9.91735940430811396817e-02) (132, -4.74707821752377856495e-02) (133, 1.21294323131864403842e-01) (134, 1.34671214744871037272e-01) (135, 3.98083885763338557462e-02) (136, 1.36661205217664616374e-01) (137, 1.24877668959412491123e-03) (138, 1.16494003460233544467e-01) (139, 3.92123868320635310392e-02) (140, -4.12956366683789599659e-02) (141, 4.83779569719484797696e-02) (142, -2.38480234886952781326e-02) (143, 1.13820288107221459506e-01) (144, 2.38842860398609468930e-01) (0, -3.65876222397633898975e-02) (1, 2.45603507016352133607e-02) (2, 2.31460591409853450040e-02) (3, 6.35056083653620234708e-02) (4, 3.65703587983301631192e-02) (5, 1.30255270526235478190e-01) (6, 7.39311387394121638517e-02) (7, -4.76127678896733630420e-02) (8, 9.73331665251902095060e-02) (9, 2.44638731334856467103e-02) (10, 9.10648681265625870029e-03) (11, -8.05138073819365238104e-03) (12, -4.50924823428937304737e-02) (13, 2.95044423975201641763e-01) (14, 2.95796209419490890857e-02) (15, 5.64056148384264460782e-02) (16, -4.78938616769995426092e-03) (17, 1.45770882215327191034e-01) (18, 5.91321697090319148282e-02) (19, -3.32977289702245105030e-02) (20, -3.61809021388767165783e-02) (21, 3.15655881012203293201e-02) (22, -1.64011496916937615786e-01) (23, 1.32837537453000920085e-01) (24, 2.90931494869442974771e-01) (25, 4.29705490921190730313e-02) (26, 1.41739252731626408366e-01) (27, 8.99325629451509511725e-02) (28, 1.44847864446901897217e-01) (29, 1.55004893388575482049e-01) (30, 1.05351749584501122592e-01) (31, 2.82733327196912243018e-01) (32, 3.92007269137218783417e-01) (33, 5.42231445887323484922e-02) (34, 5.69844847057577180705e-02) (35, -5.02900368129489683255e-02) (36, 1.34249987043591451075e-01) (37, 1.96289042172693772859e-01) (38, 5.76284328408675605715e-01) (39, 1.64220663985652104433e-01) (40, 7.09502456465002095953e-02) (41, 1.15983748281719336454e-02) (42, 8.40242071722193256678e-02) (43, -6.42729015375928386389e-02) (44, 1.56852635821742192324e-01) (45, 2.09868392412873833175e-01) (46, 1.07130054161374901889e-01) (47, 2.71458738888027267810e-02) (48, -3.02394857575690734208e-02) (49, 4.92892323809139221158e-01) (50, -2.80219277012067502497e-01) (51, -9.99456240816226637591e-03) (52, 1.48990302978811162138e-02) (53, -5.75810798475298868393e-02) (54, -4.42596420316974659137e-02) (55, -2.60015641915517514704e-01) (56, -1.83293228614049619196e-01) (57, 7.49819336214300191656e-02) (58, 9.87992838038796228339e-01) (59, -4.82285645342590774121e-01) (60, 5.67158721936487225657e-02) (61, 1.01724205930457234359e+00) (62, -6.38433159940222406947e-03) (63, 1.20697575420962821546e-01) (64, 1.06392907140516856934e-01) (65, -1.59554455295729424869e-01) (66, -1.39726287280795922335e-02) (67, -7.73623100077388686779e-02) (68, 1.14039146745922217313e-02) (69, 8.73587787797180104210e-02) (70, 1.43093472767414797708e+00) (71, -1.42976496235060479556e-01) (72, 1.78134137727471358881e-01) (73, 2.22949258632443658712e+00) (74, -3.57879093018336064125e-02) (75, -4.83508209442314595972e-02) (76, -7.05104915635760831627e-02) (77, -9.15385357617439221478e-01) (78, 2.98826956594707565662e-02) (79, 1.79967546308757928020e-02) (80, -6.82677140986202163342e-02) (81, -1.03718362583416323641e-01) (82, 1.43690806023115436041e+00) (83, -2.27554501645544672572e-03) (84, -1.42728868738341119204e-01) (85, 3.39642112775229776389e+00) (86, 1.96563546504801678338e-01) (87, 2.18162144333945762220e-01) (88, 1.81309720938417046066e-01) (89, 4.39362039421251765470e-02) (90, 1.11843023226087426303e-01) (91, 1.23220328018491628863e-01) (92, 1.71633968291544536378e-01) (93, 7.32283403728655329923e-02) (94, 1.14619691453213023991e+00) (95, -1.40404108778166558658e-01) (96, 8.14435517047098628263e-02) (97, 1.47814048341141401899e+00) (98, 6.75755550716570646541e-02) (99, 2.84278504481619176403e-01) (100, 5.08908764173713543122e-02) (101, 1.14858511612241601108e-01) (102, 8.54103004191568843106e-02) (103, 1.15953231392168606972e-01) (104, 3.66910269239183531309e-02) (105, 1.84703127354804604032e-02) (106, 2.42965793656186673788e-01) (107, -1.13733928517031471217e-01) (108, -6.22707627671446536932e-03) (109, 1.75391900152789548262e-01) (110, -2.74601119022367112787e-02) (111, 2.27852369458304893080e-01) (112, 1.25809895036482433106e-01) (113, 1.25579008994364360596e-01) (114, 1.34296970603727916505e-01) (115, 5.82577710587980635015e-02) (116, 2.57543132514182586401e-02) (117, 1.90859350175486996992e-01) (118, -1.08467660710739891017e-01) (119, 1.36024076268499272135e-01) (120, -4.95846087481328356983e-02) (121, -4.59198827307221932315e-02) (122, 1.09441745803182458041e-01) (123, 9.67187022422007075528e-02) (124, 2.29148219139205466810e-01) (125, 2.53754312903510581556e-01) (126, 2.58661757022964011732e-01) (127, 2.62116079781702475404e-02) (128, 8.27089136098078242521e-02) (129, 4.18571492288759700040e-02) (130, 1.94537603700878289348e-02) (131, 1.20102245137517785190e-01) (132, 6.91299490672860061924e-03) (133, 7.26337020848444453458e-02) (134, 1.07248125229528895597e-02) (135, 1.82733645294359675626e-02) (136, 8.37589537356546870450e-02) (137, 1.04084212109868859408e-01) (138, 7.23090951893976680021e-02) (139, 1.27729225680654423503e-01) (140, -4.90405060308661197577e-03) (141, 1.12111229226415490268e-01) (142, -4.63708898579356931791e-02) (143, -2.19971424495456618908e-02) (144, 2.10452609298546144956e-01) (0, 2.94157610796155211119e-02) (1, 7.03432084582509414838e-02) (2, 8.00168336890400982986e-02) (3, 1.35894958820170386193e-01) (4, 1.29645203199213965295e-01) (5, 6.62382589243115799116e-02) (6, 1.36507694568461401818e-01) (7, 1.50987585034197735467e-01) (8, 2.58773387931050501132e-02) (9, 8.34237383268536664138e-02) (10, 9.57556338570775128494e-02) (11, 1.95251499261683392206e-01) (12, 5.77053324840726133971e-02) (13, 6.77879798171882819169e-01) (14, 1.28157754387682898400e-01) (15, 1.49759818758791851678e-01) (16, 1.59387995447939800897e-01) (17, 9.84573410413922406326e-02) (18, 6.87016263229267565293e-03) (19, 8.22190464995564557205e-02) (20, 1.59379501786059307733e-01) (21, 7.53408791087330914626e-02) (22, 1.61753492019833765292e-02) (23, 1.13661055412119807451e-01) (24, 1.90492684860885042042e+00) (25, 1.77036999309779452538e-01) (26, 1.58954356756037640253e-01) (27, 2.20532516890608959459e-01) (28, 1.75877313071334112626e-01) (29, 1.04726863052672300447e-01) (30, 2.27128164432706079745e-02) (31, 6.92536766131527925516e-01) (32, 6.81734609363441657059e-01) (33, 9.74190806464110825580e-01) (34, 5.88425273952846716874e-01) (35, 1.06613946106261167635e-01) (36, 1.87794612069785493702e+00) (37, 4.77336557515101900240e-01) (38, 2.67011434912315992474e-01) (39, 1.97693248238390850702e-01) (40, 1.64916778856360635164e-01) (41, 7.01926807363636995341e-01) (42, 1.93894063081568646112e-01) (43, 1.63194824900454449335e-01) (44, 1.28369738306826575158e-01) (45, 2.15688567464814928698e+00) (46, 6.19619193432693671220e-01) (47, 8.87070716880025006423e-02) (48, 1.53341563246039691570e+00) (49, 3.16037745944707737511e-01) (50, 1.71875451650446819940e-01) (51, 1.21628487654611205926e-01) (52, 2.27754108822121992262e-01) (53, 4.93059854985548717821e-01) (54, 9.73470555208386517654e-02) (55, 3.63850365428753375063e-01) (56, 4.52802346611626660433e-01) (57, 2.98217949173726848411e-01) (58, 4.87374735811116344131e-01) (59, -1.37745502844687628397e+00) (60, 1.01164806797229789304e+00) (61, -2.10476589811429182220e+00) (62, -1.93148873704161380682e-03) (63, 9.06476711486032954435e-02) (64, -3.08373081143018951122e-02) (65, 3.51827351528567977557e-01) (66, 9.95186716867231396799e-02) (67, 8.77393014771256363193e-03) (68, 1.02844346091573571322e-01) (69, 3.47926367721833995628e-01) (70, 5.28328263821895641184e-02) (71, -5.97716056212937663084e-01) (72, 1.57417210391549411419e+00) (73, -1.55044794622317638755e+00) (74, 1.04631880906887339555e-01) (75, -1.04879524131781187712e+00) (76, 3.07443746630761172156e+00) (77, 8.52320839656410922380e-01) (78, -1.89482402731731315593e-02) (79, 1.98815573897189068475e-01) (80, 5.92521400712193724303e-02) (81, 3.06295015472327758488e+00) (82, -2.57631372154005361397e-02) (83, 8.96714977962288772861e-03) (84, 4.49140341542424298416e-02) (85, 9.51309775427733872455e-01) (86, 2.76826242137117040087e-01) (87, 1.89087231077441897398e+00) (88, 2.12614582119257589099e+00) (89, 7.57408726274551358237e-01) (90, 1.31365482654398901818e-01) (91, 1.02874291088408384431e-01) (92, 4.05827344536415723919e-01) (93, 4.00482742268008895525e-01) (94, 3.73178472557427531875e-01) (95, 8.45221327207745648513e-02) (96, 1.11556594219035062898e-01) (97, 3.42028966161791991851e+00) (98, 2.00445096560010593834e+00) (99, 2.85449689406318318774e-01) (100, 6.04127002297279586118e-02) (101, 7.43676255702556576743e-01) (102, 2.06035325912304223550e-01) (103, 6.64348371372776691501e-01) (104, 2.94531718544044307517e-01) (105, 1.45804797258204388299e-01) (106, 1.91853998594174113279e+00) (107, 2.99722523949803587584e-02) (108, 8.33334447405995465408e-02) (109, 5.01666089637284595693e-02) (110, -6.07677603023047338549e-02) (111, 1.43534933175868018029e-01) (112, 2.56962056213462075593e-01) (113, 7.35646811662552108091e-02) (114, 1.37633086291144790536e-01) (115, 2.53838883287919037102e-02) (116, 9.49353547356785870681e-02) (117, 4.25586649723065438278e-02) (118, 3.42063838208325421419e-01) (119, 3.48827139995755292068e-02) (120, 7.54126207493008710037e-02) (121, -1.14372162573325077822e-02) (122, 1.38706346001452429650e-01) (123, 7.37287224791707135330e-02) (124, 1.86208357062167095819e-01) (125, 1.83374975766962933221e-01) (126, 1.59200181212252545038e-01) (127, 9.87142817638577557693e-02) (128, 5.93870045192254059074e-02) (129, 1.03642922785109434236e-01) (130, 4.33012859488137280550e-01) (131, 