FANN_FLO_2.1
num_layers=3
learning_rate=0.700000
connection_rate=1.000000
network_type=0
learning_momentum=0.000000
training_algorithm=2
train_error_function=1
train_stop_function=0
cascade_output_change_fraction=0.010000
quickprop_decay=-0.000100
quickprop_mu=1.750000
rprop_increase_factor=1.200000
rprop_decrease_factor=0.500000
rprop_delta_min=0.000000
rprop_delta_max=50.000000
rprop_delta_zero=0.100000
cascade_output_stagnation_epochs=12
cascade_candidate_change_fraction=0.010000
cascade_candidate_stagnation_epochs=12
cascade_max_out_epochs=150
cascade_min_out_epochs=50
cascade_max_cand_epochs=150
cascade_min_cand_epochs=50
cascade_num_candidate_groups=2
bit_fail_limit=3.49999999999999977796e-01
cascade_candidate_limit=1.00000000000000000000e+03
cascade_weight_multiplier=4.00000000000000022204e-01
cascade_activation_functions_count=10
cascade_activation_functions=3 5 7 8 10 11 14 15 16 17 
cascade_activation_steepnesses_count=4
cascade_activation_steepnesses=2.50000000000000000000e-01 5.00000000000000000000e-01 7.50000000000000000000e-01 1.00000000000000000000e+00 
layer_sizes=401 51 6 
scale_included=0
neurons (num_inputs, activation_function, activation_steepness)=(0, 0, 0.00000000000000000000e+00) (0, 0, 0.00000000000000000000e+00) (0, 0, 0.00000000000000000000e+00) (0, 0, 0.00000000000000000000e+00) (0, 0, 0.00000000000000000000e+00) (0, 0, 0.00000000000000000000e+00) (0, 0, 0.00000000000000000000e+00) (0, 0, 0.00000000000000000000e+00) (0, 0, 0.00000000000000000000e+00) (0, 0, 0.00000000000000000000e+00) (0, 0, 0.00000000000000000000e+00) (0, 0, 0.00000000000000000000e+00) (0, 0, 0.00000000000000000000e+00) (0, 0, 0.00000000000000000000e+00) (0, 0, 0.00000000000000000000e+00) (0, 0, 0.00000000000000000000e+00) (0, 0, 0.00000000000000000000e+00) (0, 0, 0.00000000000000000000e+00) (0, 0, 0.00000000000000000000e+00) (0, 0, 0.00000000000000000000e+00) (0, 0, 0.00000000000000000000e+00) (0, 0, 0.00000000000000000000e+00) (0, 0, 0.00000000000000000000e+00) (0, 0, 0.00000000000000000000e+00) (0, 0, 0.00000000000000000000e+00) (0, 0, 0.00000000000000000000e+00) (0, 0, 0.00000000000000000000e+00) (0, 0, 0.00000000000000000000e+00) (0, 0, 0.00000000000000000000e+00) (0, 0, 0.00000000000000000000e+00) (0, 0, 0.00000000000000000000e+00) (0, 0, 0.00000000000000000000e+00) (0, 0, 0.00000000000000000000e+00) (0, 0, 0.00000000000000000000e+00) (0, 0, 0.00000000000000000000e+00) (0, 0, 0.00000000000000000000e+00) (0, 0, 0.00000000000000000000e+00) (0, 0, 0.00000000000000000000e+00) (0, 0, 0.00000000000000000000e+00) (0, 0, 0.00000000000000000000e+00) (0, 0, 0.00000000000000000000e+00) (0, 0, 0.00000000000000000000e+00) (0, 0, 0.00000000000000000000e+00) (0, 0, 0.00000000000000000000e+00) (0, 0, 0.00000000000000000000e+00) (0, 0, 0.00000000000000000000e+00) (0, 0, 0.00000000000000000000e+00) (0, 0, 0.00000000000000000000e+00) (0, 0, 0.00000000000000000000e+00) (0, 0, 0.00000000000000000000e+00) (0, 0, 0.00000000000000000000e+00) (0, 0, 0.00000000000000000000e+00) (0, 0, 0.00000000000000000000e+00) (0, 0, 0.00000000000000000000e+00) (0, 0, 0.00000000000000000000e+00) (0, 0, 0.00000000000000000000e+00) (0, 0, 0.00000000000000000000e+00) (0, 0, 0.00000000000000000000e+00) (0, 0, 0.00000000000000000000e+00) (0, 0, 0.00000000000000000000e+00) (0, 0, 0.00000000000000000000e+00) (0, 0, 0.00000000000000000000e+00) (0, 0, 0.00000000000000000000e+00) (0, 0, 0.00000000000000000000e+00) (0, 0, 0.00000000000000000000e+00) (0, 0, 0.00000000000000000000e+00) (0, 0, 0.00000000000000000000e+00) (0, 0, 0.00000000000000000000e+00) (0, 0, 0.00000000000000000000e+00) (0, 0, 0.00000000000000000000e+00) (0, 0, 0.00000000000000000000e+00) (0, 0, 0.00000000000000000000e+00) (0, 0, 0.00000000000000000000e+00) (0, 0, 0.00000000000000000000e+00) (0, 0, 0.00000000000000000000e+00) (0, 0, 0.00000000000000000000e+00) (0, 0, 0.00000000000000000000e+00) (0, 0, 0.00000000000000000000e+00) (0, 0, 0.00000000000000000000e+00) (0, 0, 0.00000000000000000000e+00) (0, 0, 0.00000000000000000000e+00) (0, 0, 0.00000000000000000000e+00) (0, 0, 0.00000000000000000000e+00) (0, 0, 0.00000000000000000000e+00) (0, 0, 0.00000000000000000000e+00) (0, 0, 0.00000000000000000000e+00) (0, 0, 0.00000000000000000000e+00) (0, 0, 0.00000000000000000000e+00) (0, 0, 0.00000000000000000000e+00) (0, 0, 0.00000000000000000000e+00) (0, 0, 0.00000000000000000000e+00) (0, 0, 0.00000000000000000000e+00) (0, 0, 0.00000000000000000000e+00) (0, 0, 0.00000000000000000000e+00) (0, 0, 0.00000000000000000000e+00) (0, 0, 0.00000000000000000000e+00) (0, 0, 0.00000000000000000000e+00) (0, 0, 0.00000000000000000000e+00) (0, 0, 0.00000000000000000000e+00) (0, 0, 0.00000000000000000000e+00) (0, 0, 0.00000000000000000000e+00) (0, 0, 0.00000000000000000000e+00) (0, 0, 0.00000000000000000000e+00) (0, 0, 0.00000000000000000000e+00) (0, 0, 0.00000000000000000000e+00) (0, 0, 0.00000000000000000000e+00) (0, 0, 0.00000000000000000000e+00) (0, 0, 0.00000000000000000000e+00) (0, 0, 0.00000000000000000000e+00) (0, 0, 0.00000000000000000000e+00) (0, 0, 0.00000000000000000000e+00) (0, 0, 0.00000000000000000000e+00) (0, 0, 0.00000000000000000000e+00) (0, 0, 0.00000000000000000000e+00) (0, 0, 0.00000000000000000000e+00) (0, 0, 0.00000000000000000000e+00) (0, 0, 0.00000000000000000000e+00) (0, 0, 0.00000000000000000000e+00) (0, 0, 0.00000000000000000000e+00) (0, 0, 0.00000000000000000000e+00) (0, 0, 0.00000000000000000000e+00) (0, 0, 0.00000000000000000000e+00) (0, 0, 0.00000000000000000000e+00) (0, 0, 0.00000000000000000000e+00) (0, 0, 0.00000000000000000000e+00) (0, 0, 0.00000000000000000000e+00) (0, 0, 0.00000000000000000000e+00) (0, 0, 0.00000000000000000000e+00) (0, 0, 0.00000000000000000000e+00) (0, 0, 0.00000000000000000000e+00) (0, 0, 0.00000000000000000000e+00) (0, 0, 0.00000000000000000000e+00) (0, 0, 0.00000000000000000000e+00) (0, 0, 0.00000000000000000000e+00) (0, 0, 0.00000000000000000000e+00) (0, 0, 0.00000000000000000000e+00) (0, 0, 0.00000000000000000000e+00) (0, 0, 0.00000000000000000000e+00) (0, 0, 0.00000000000000000000e+00) (0, 0, 0.00000000000000000000e+00) (0, 0, 0.00000000000000000000e+00) (0, 0, 0.00000000000000000000e+00) (0, 0, 0.00000000000000000000e+00) (0, 0, 0.00000000000000000000e+00) (0, 0, 0.00000000000000000000e+00) (0, 0, 0.00000000000000000000e+00) (0, 0, 0.00000000000000000000e+00) (0, 0, 0.00000000000000000000e+00) (0, 0, 0.00000000000000000000e+00) (0, 0, 0.00000000000000000000e+00) (0, 0, 0.00000000000000000000e+00) (0, 0, 0.00000000000000000000e+00) (0, 0, 0.00000000000000000000e+00) (0, 0, 0.00000000000000000000e+00) (0, 0, 0.00000000000000000000e+00) (0, 0, 0.00000000000000000000e+00) (0, 0, 0.00000000000000000000e+00) (0, 0, 0.00000000000000000000e+00) (0, 0, 0.00000000000000000000e+00) (0, 0, 0.00000000000000000000e+00) (0, 0, 0.00000000000000000000e+00) (0, 0, 0.00000000000000000000e+00) (0, 0, 0.00000000000000000000e+00) (0, 0, 0.00000000000000000000e+00) (0, 0, 0.00000000000000000000e+00) (0, 0, 0.00000000000000000000e+00) (0, 0, 0.00000000000000000000e+00) (0, 0, 0.00000000000000000000e+00) (0, 0, 0.00000000000000000000e+00) (0, 0, 0.00000000000000000000e+00) (0, 0, 0.00000000000000000000e+00) (0, 0, 0.00000000000000000000e+00) (0, 0, 0.00000000000000000000e+00) (0, 0, 0.00000000000000000000e+00) (0, 0, 0.00000000000000000000e+00) (0, 0, 0.00000000000000000000e+00) (0, 0, 0.00000000000000000000e+00) (0, 0, 0.00000000000000000000e+00) (0, 0, 0.00000000000000000000e+00) (0, 0, 0.00000000000000000000e+00) (0, 0, 0.00000000000000000000e+00) (0, 0, 0.00000000000000000000e+00) (0, 0, 0.00000000000000000000e+00) (0, 0, 0.00000000000000000000e+00) (0, 0, 0.00000000000000000000e+00) (0, 0, 0.00000000000000000000e+00) (0, 0, 0.00000000000000000000e+00) (0, 0, 0.00000000000000000000e+00) (0, 0, 0.00000000000000000000e+00) (0, 0, 0.00000000000000000000e+00) (0, 0, 0.00000000000000000000e+00) (0, 0, 0.00000000000000000000e+00) (0, 0, 0.00000000000000000000e+00) (0, 0, 0.00000000000000000000e+00) (0, 0, 0.00000000000000000000e+00) (0, 0, 0.00000000000000000000e+00) (0, 0, 0.00000000000000000000e+00) (0, 0, 0.00000000000000000000e+00) (0, 0, 0.00000000000000000000e+00) (0, 0, 0.00000000000000000000e+00) (0, 0, 0.00000000000000000000e+00) (0, 0, 0.00000000000000000000e+00) (0, 0, 0.00000000000000000000e+00) (0, 0, 0.00000000000000000000e+00) (0, 0, 0.00000000000000000000e+00) (0, 0, 0.00000000000000000000e+00) (0, 0, 0.00000000000000000000e+00) (0, 0, 0.00000000000000000000e+00) (0, 0, 0.00000000000000000000e+00) (0, 0, 0.00000000000000000000e+00) (0, 0, 0.00000000000000000000e+00) (0, 0, 0.00000000000000000000e+00) (0, 0, 0.00000000000000000000e+00) (0, 0, 0.00000000000000000000e+00) (0, 0, 0.00000000000000000000e+00) (0, 0, 0.00000000000000000000e+00) (0, 0, 0.00000000000000000000e+00) (0, 0, 0.00000000000000000000e+00) (0, 0, 0.00000000000000000000e+00) (0, 0, 0.00000000000000000000e+00) (0, 0, 0.00000000000000000000e+00) (0, 0, 0.00000000000000000000e+00) (0, 0, 0.00000000000000000000e+00) (0, 0, 0.00000000000000000000e+00) (0, 0, 0.00000000000000000000e+00) (0, 0, 0.00000000000000000000e+00) (0, 0, 0.00000000000000000000e+00) (0, 0, 0.00000000000000000000e+00) (0, 0, 0.00000000000000000000e+00) (0, 0, 0.00000000000000000000e+00) (0, 0, 0.00000000000000000000e+00) (0, 0, 0.00000000000000000000e+00) (0, 0, 0.00000000000000000000e+00) (0, 0, 0.00000000000000000000e+00) (0, 0, 0.00000000000000000000e+00) (0, 0, 0.00000000000000000000e+00) (0, 0, 0.00000000000000000000e+00) (0, 0, 0.00000000000000000000e+00) (0, 0, 0.00000000000000000000e+00) (0, 0, 0.00000000000000000000e+00) (0, 0, 0.00000000000000000000e+00) (0, 0, 0.00000000000000000000e+00) (0, 0, 0.00000000000000000000e+00) (0, 0, 0.00000000000000000000e+00) (0, 0, 0.00000000000000000000e+00) (0, 0, 0.00000000000000000000e+00) (0, 0, 0.00000000000000000000e+00) (0, 0, 0.00000000000000000000e+00) (0, 0, 0.00000000000000000000e+00) (0, 0, 0.00000000000000000000e+00) (0, 0, 0.00000000000000000000e+00) (0, 0, 0.00000000000000000000e+00) (0, 0, 0.00000000000000000000e+00) (0, 0, 0.00000000000000000000e+00) (0, 0, 0.00000000000000000000e+00) (0, 0, 0.00000000000000000000e+00) (0, 0, 0.00000000000000000000e+00) (0, 0, 0.00000000000000000000e+00) (0, 0, 0.00000000000000000000e+00) (0, 0, 0.00000000000000000000e+00) (0, 0, 0.00000000000000000000e+00) (0, 0, 0.00000000000000000000e+00) (0, 0, 0.00000000000000000000e+00) (0, 0, 0.00000000000000000000e+00) (0, 0, 0.00000000000000000000e+00) (0, 0, 0.00000000000000000000e+00) (0, 0, 0.00000000000000000000e+00) (0, 0, 0.00000000000000000000e+00) (0, 0, 0.00000000000000000000e+00) (0, 0, 0.00000000000000000000e+00) (0, 0, 0.00000000000000000000e+00) (0, 0, 0.00000000000000000000e+00) (0, 0, 0.00000000000000000000e+00) (0, 0, 0.00000000000000000000e+00) (0, 0, 0.00000000000000000000e+00) (0, 0, 0.00000000000000000000e+00) (0, 0, 0.00000000000000000000e+00) (0, 0, 0.00000000000000000000e+00) (0, 0, 0.00000000000000000000e+00) (0, 0, 0.00000000000000000000e+00) (0, 0, 0.00000000000000000000e+00) (0, 0, 0.00000000000000000000e+00) (0, 0, 0.00000000000000000000e+00) (0, 0, 0.00000000000000000000e+00) (0, 0, 0.00000000000000000000e+00) (0, 0, 0.00000000000000000000e+00) (0, 0, 0.00000000000000000000e+00) (0, 0, 0.00000000000000000000e+00) (0, 0, 0.00000000000000000000e+00) (0, 0, 0.00000000000000000000e+00) (0, 0, 0.00000000000000000000e+00) (0, 0, 0.00000000000000000000e+00) (0, 0, 0.00000000000000000000e+00) (0, 0, 0.00000000000000000000e+00) (0, 0, 0.00000000000000000000e+00) (0, 0, 0.00000000000000000000e+00) (0, 0, 0.00000000000000000000e+00) (0, 0, 0.00000000000000000000e+00) (0, 0, 0.00000000000000000000e+00) (0, 0, 0.00000000000000000000e+00) (0, 0, 0.00000000000000000000e+00) (0, 0, 0.00000000000000000000e+00) (0, 0, 0.00000000000000000000e+00) (0, 0, 0.00000000000000000000e+00) (0, 0, 0.00000000000000000000e+00) (0, 0, 0.00000000000000000000e+00) (0, 0, 0.00000000000000000000e+00) (0, 0, 0.00000000000000000000e+00) (0, 0, 0.00000000000000000000e+00) (0, 0, 0.00000000000000000000e+00) (0, 0, 0.00000000000000000000e+00) (0, 0, 0.00000000000000000000e+00) (0, 0, 0.00000000000000000000e+00) (0, 0, 0.00000000000000000000e+00) (0, 0, 0.00000000000000000000e+00) (0, 0, 0.00000000000000000000e+00) (0, 0, 0.00000000000000000000e+00) (0, 0, 0.00000000000000000000e+00) (0, 0, 0.00000000000000000000e+00) (0, 0, 0.00000000000000000000e+00) (0, 0, 0.00000000000000000000e+00) (0, 0, 0.00000000000000000000e+00) (0, 0, 0.00000000000000000000e+00) (0, 0, 0.00000000000000000000e+00) (0, 0, 0.00000000000000000000e+00) (0, 0, 0.00000000000000000000e+00) (0, 0, 0.00000000000000000000e+00) (0, 0, 0.00000000000000000000e+00) (0, 0, 0.00000000000000000000e+00) (0, 0, 0.00000000000000000000e+00) (0, 0, 0.00000000000000000000e+00) (0, 0, 0.00000000000000000000e+00) (0, 0, 0.00000000000000000000e+00) (0, 0, 0.00000000000000000000e+00) (0, 0, 0.00000000000000000000e+00) (0, 0, 0.00000000000000000000e+00) (0, 0, 0.00000000000000000000e+00) (0, 0, 0.00000000000000000000e+00) (0, 0, 0.00000000000000000000e+00) (0, 0, 0.00000000000000000000e+00) (0, 0, 0.00000000000000000000e+00) (0, 0, 0.00000000000000000000e+00) (0, 0, 0.00000000000000000000e+00) (0, 0, 0.00000000000000000000e+00) (0, 0, 0.00000000000000000000e+00) (0, 0, 0.00000000000000000000e+00) (0, 0, 0.00000000000000000000e+00) (0, 0, 0.00000000000000000000e+00) (0, 0, 0.00000000000000000000e+00) (0, 0, 0.00000000000000000000e+00) (0, 0, 0.00000000000000000000e+00) (0, 0, 0.00000000000000000000e+00) (0, 0, 0.00000000000000000000e+00) (0, 0, 0.00000000000000000000e+00) (0, 0, 0.00000000000000000000e+00) (0, 0, 0.00000000000000000000e+00) (0, 0, 0.00000000000000000000e+00) (0, 0, 0.00000000000000000000e+00) (0, 0, 0.00000000000000000000e+00) (0, 0, 0.00000000000000000000e+00) (0, 0, 0.00000000000000000000e+00) (0, 0, 0.00000000000000000000e+00) (0, 0, 0.00000000000000000000e+00) (0, 0, 0.00000000000000000000e+00) (0, 0, 0.00000000000000000000e+00) (0, 0, 0.00000000000000000000e+00) (0, 0, 0.00000000000000000000e+00) (0, 0, 0.00000000000000000000e+00) (0, 0, 0.00000000000000000000e+00) (0, 0, 0.00000000000000000000e+00) (0, 0, 0.00000000000000000000e+00) (0, 0, 0.00000000000000000000e+00) (0, 0, 0.00000000000000000000e+00) (0, 0, 0.00000000000000000000e+00) (0, 0, 0.00000000000000000000e+00) (0, 0, 0.00000000000000000000e+00) (0, 0, 0.00000000000000000000e+00) (0, 0, 0.00000000000000000000e+00) (0, 0, 0.00000000000000000000e+00) (0, 0, 0.00000000000000000000e+00) (0, 0, 0.00000000000000000000e+00) (0, 0, 0.00000000000000000000e+00) (0, 0, 0.00000000000000000000e+00) (0, 0, 0.00000000000000000000e+00) (0, 0, 0.00000000000000000000e+00) (0, 0, 0.00000000000000000000e+00) (0, 0, 0.00000000000000000000e+00) (0, 0, 0.00000000000000000000e+00) (0, 0, 0.00000000000000000000e+00) (0, 0, 0.00000000000000000000e+00) (0, 0, 0.00000000000000000000e+00) (0, 0, 0.00000000000000000000e+00) (0, 0, 0.00000000000000000000e+00) (0, 0, 0.00000000000000000000e+00) (0, 0, 0.00000000000000000000e+00) (0, 0, 0.00000000000000000000e+00) (0, 0, 0.00000000000000000000e+00) (0, 0, 0.00000000000000000000e+00) (0, 0, 0.00000000000000000000e+00) (0, 0, 0.00000000000000000000e+00) (0, 0, 0.00000000000000000000e+00) (401, 6, 5.00000000000000000000e-01) (401, 6, 5.00000000000000000000e-01) (401, 6, 5.00000000000000000000e-01) (401, 6, 5.00000000000000000000e-01) (401, 6, 5.00000000000000000000e-01) (401, 6, 5.00000000000000000000e-01) (401, 6, 5.00000000000000000000e-01) (401, 6, 5.00000000000000000000e-01) (401, 6, 5.00000000000000000000e-01) (401, 6, 5.00000000000000000000e-01) (401, 6, 5.00000000000000000000e-01) (401, 6, 5.00000000000000000000e-01) (401, 6, 5.00000000000000000000e-01) (401, 6, 5.00000000000000000000e-01) (401, 6, 5.00000000000000000000e-01) (401, 6, 5.00000000000000000000e-01) (401, 6, 5.00000000000000000000e-01) (401, 6, 5.00000000000000000000e-01) (401, 6, 5.00000000000000000000e-01) (401, 6, 5.00000000000000000000e-01) (401, 6, 5.00000000000000000000e-01) (401, 6, 5.00000000000000000000e-01) (401, 6, 5.00000000000000000000e-01) (401, 6, 5.00000000000000000000e-01) (401, 6, 5.00000000000000000000e-01) (401, 6, 5.00000000000000000000e-01) (401, 6, 5.00000000000000000000e-01) (401, 6, 5.00000000000000000000e-01) (401, 6, 5.00000000000000000000e-01) (401, 6, 5.00000000000000000000e-01) (401, 6, 5.00000000000000000000e-01) (401, 6, 5.00000000000000000000e-01) (401, 6, 5.00000000000000000000e-01) (401, 6, 5.00000000000000000000e-01) (401, 6, 5.00000000000000000000e-01) (401, 6, 5.00000000000000000000e-01) (401, 6, 5.00000000000000000000e-01) (401, 6, 5.00000000000000000000e-01) (401, 6, 5.00000000000000000000e-01) (401, 6, 5.00000000000000000000e-01) (401, 6, 5.00000000000000000000e-01) (401, 6, 5.00000000000000000000e-01) (401, 6, 5.00000000000000000000e-01) (401, 6, 5.00000000000000000000e-01) (401, 6, 5.00000000000000000000e-01) (401, 6, 5.00000000000000000000e-01) (401, 6, 5.00000000000000000000e-01) (401, 6, 5.00000000000000000000e-01) (401, 6, 5.00000000000000000000e-01) (401, 6, 5.00000000000000000000e-01) (0, 6, 0.00000000000000000000e+00) (51, 6, 5.00000000000000000000e-01) (51, 6, 5.00000000000000000000e-01) (51, 6, 5.00000000000000000000e-01) (51, 6, 5.00000000000000000000e-01) (51, 6, 5.00000000000000000000e-01) (0, 6, 0.00000000000000000000e+00) 
connections (connected_to_neuron, weight)=(0, 5.55704137169406364727e-01) (1, 6.02394437276408623028e-01) (2, 5.95418413960025261211e-01) (3, 6.39056382559821334333e-01) (4, 5.63795169674441543073e-01) (5, 5.58053893827483382672e-01) (6, 5.80820342384860244245e-01) (7, 5.41729634486720512676e-01) (8, 6.43852611862704482526e-01) (9, 5.68929029487654891462e-01) (10, 5.76333759211585250348e-01) (11, 6.63580743454978194684e-01) (12, 6.35272068761870589704e-01) (13, 6.12372627340838859844e-01) (14, 6.63372663640067306012e-01) (15, 6.71028492831275191755e-01) (16, 6.94775713466689315290e-01) (17, 5.79149896137997832746e-01) (18, 5.81465789907262053937e-01) (19, 6.70929146789595809430e-01) (20, 6.12958012007758568096e-01) (21, 5.35325160109088371563e-01) (22, 6.61029694460913863630e-01) (23, 6.36486491047427382917e-01) (24, 6.94424075864836898297e-01) (25, 4.87126557348286526317e-01) (26, 4.00215354684057111889e-01) (27, 4.31792733195485944897e-01) (28, -3.22362692447043353017e-01) (29, -5.29252189131118488952e-01) (30, 3.72611060543141192625e-01) (31, 2.91897823808091039233e-01) (32, 2.16990337136655914163e-01) (33, 7.56436967122627090809e-01) (34, 6.73649341631007980702e-01) (35, 6.66188959795308899281e-01) (36, 7.80421458947730850575e-01) (37, 5.81464291012499745470e-01) (38, 5.84471208833739486188e-01) (39, 6.00826686107203911114e-01) (40, 5.60595108387982099529e-01) (41, 6.89709005799072016885e-01) (42, 9.39960533539191955832e-01) (43, -4.88791042516665386053e-01) (44, -3.09014254132320254076e-01) (45, -2.58062092321189984201e-01) (46, -5.03968688578941059752e-01) (47, -5.42267265649177265807e-01) (48, -1.19346641525114316451e+00) (49, -2.04079213732443554008e+00) (50, -1.03883010331031222506e+00) (51, -1.05782455387946550118e+00) (52, -1.95154763233227090957e+00) (53, -1.54667830544275530791e+00) (54, -6.44597235490597525454e-02) (55, -3.86387346233487205538e+00) (56, -1.39898906170504755409e+00) (57, 3.07017664604248619042e-01) (58, 4.64114090039793647513e-01) (59, 7.11489347600028243512e-01) (60, 1.22946573507583556406e+00) (61, 1.24752257808070421419e+00) (62, 7.06407638769695256364e-01) (63, 6.11462081064059193025e-01) (64, -9.81865062455615222881e-02) (65, -3.11450016599946255536e-01) (66, -5.40055083881524899958e-01) (67, -2.05669354063324372195e-01) (68, -6.72447544983660994156e-01) (69, -5.62132490530374528959e+00) (70, -7.42490079293513960401e-01) (71, -1.97678353013018570650e+00) (72, 4.82687105331085497539e-01) (73, 5.01314167785563813418e-01) (74, 6.03081001649390713304e-01) (75, 6.42982346752122846389e-01) (76, -4.58729923182077836685e-01) (77, 3.21129176750463152246e-01) (78, 3.53178891532482719384e-01) (79, 4.94379081225607641681e-01) (80, 1.07632451218164382212e+00) (81, 7.28904166422470023434e-01) (82, 5.60401927261177101869e-01) (83, -1.35519707212452082956e+01) (84, -8.40284373229553405160e-01) (85, -2.27619699154746168990e-01) (86, -5.03135249111264157285e-02) (87, 3.69361985664994563194e-01) (88, -1.03400828701027069911e+00) (89, -5.59400454267623903348e+00) (90, -3.32082000873656801865e-01) (91, -2.48134504934540811583e-01) (92, -2.49145474879145595315e-01) (93, -3.57784486237797572095e-01) (94, -1.54658632264759565711e-01) (95, 7.61012914408071283745e-01) (96, 3.20723674625599475263e-01) (97, -4.54719002271299410634e-01) (98, 2.33262670281988354626e-01) (99, 6.71195922278449264020e-01) (100, 9.14783334468677211682e-01) (101, -6.83859295278999301804e-02) (102, -1.34538307385746627176e+01) (103, -2.12513081343634585574e-01) (104, 1.17855791157808820202e+00) (105, -8.84521144261255387597e-01) (106, 1.90666135689589483215e-01) (107, -4.64930817439146215619e-01) (108, -1.87095245892990313941e+00) (109, -1.32094345810282174369e+01) (110, -5.68535506554763792053e+00) (111, 1.47088096622757208420e-01) (112, 1.80639069671822360963e-01) (113, 1.22683670396952937409e+00) (114, 4.22223654284103799839e-01) (115, 7.47767854257606057189e-01) (116, 1.49639699990039387600e+00) (117, 4.37892683100529256368e-01) (118, -1.71972652683144516805e-01) (119, 2.37525463315295781719e-01) (120, 7.68047734613426569261e-01) (121, -4.19990966963814001123e-03) (122, 1.51947251694600299343e-01) (123, 9.65556691803323485779e-01) (124, -6.78832062780976186467e-01) (125, -3.35293048068008792129e+00) (126, -3.19075505706358608649e+00) (127, -6.85710401251552958968e+00) (128, -2.48785559233016062564e+00) (129, -3.65130497529878468299e+01) (130, 5.18150750084174216425e-01) (131, 9.54952552707055146719e-01) (132, 6.25641877039156968365e-01) (133, 5.36314299189135978985e-01) (134, 6.06156026803538749981e-01) (135, 1.23977103064139759780e+00) (136, 1.00392594140406399283e+00) (137, 2.25578049288654075566e-01) (138, 2.84007662853029252403e-01) (139, 6.78480690743993419822e-01) (140, -1.85261563850102450868e-01) (141, 1.35285579410214018559e-01) (142, 7.63070731316687456136e-01) (143, 8.82363199787006835528e-01) (144, -5.36623689518578639301e-01) (145, 6.57707774725675431426e-02) (146, -7.08708142176953884844e-03) (147, -1.94934016153247853254e+01) (148, -4.74685544829216787832e+00) (149, -3.11195714970954506740e+00) (150, 8.54117485669538489823e-01) (151, 7.96542860360005433584e-01) (152, 5.14201658054076138349e-01) (153, 6.47622441731974807233e-01) (154, 5.94570318095967720318e-01) (155, 5.66125339561388662979e-01) (156, 3.82614891404708945544e-01) (157, 2.86015267488877178437e-01) (158, -1.63429070647909763236e-01) (159, 5.30448994066785473045e-01) (160, -1.30311162663159396669e-01) (161, -1.46268003419339986948e+00) (162, -1.55432754041414489254e-01) (163, 1.62971003055386409741e+00) (164, 6.30873972172238506317e-01) (165, 6.81198501387134225382e-01) (166, 5.11634677097637990961e-01) (167, -8.68318474099479264972e-01) (168, -1.07062886978024263129e+00) (169, 6.08968994247249151286e-01) (170, 1.06837688100135741465e+00) (171, 7.86630123372085932054e-01) (172, 6.35974355738220031853e-01) (173, 9.41366329581597383047e-01) (174, 8.39353471786835725332e-01) (175, 8.28763204576133172274e-01) (176, 1.08524829667337696648e+00) (177, 1.30030757036765254320e+00) (178, 7.60528525380739051087e+00) (179, 5.40293967750142711814e-01) (180, -1.60216206785319087436e-01) (181, -9.42646058866720426561e-02) (182, 6.86648722879884654269e-01) (183, 1.75226614921264745028e+00) (184, 7.03547202037076324643e-01) (185, 8.17205374554203944903e-01) (186, 7.22736891052015661963e-01) (187, -2.04745723367056542408e-01) (188, -5.16943955216682571319e-01) (189, 1.01844720400100641200e+00) (190, 5.64812860866785837466e-01) (191, 5.61691032763113273774e-01) (192, 4.59493684882585573526e-01) (193, 7.41574908688506062582e-01) (194, 4.84678516356264965648e-01) (195, 5.52913962123905866619e-01) (196, 9.75190547819216768666e-01) (197, -5.86154509996304362573e-01) (198, 1.65694926362129546504e+00) (199, 4.46855403035983977933e-01) (200, 6.09873639029119285482e-01) (201, 3.84010686732202954907e-01) (202, 8.31130399716548118327e-01) (203, 7.36511729803890680124e-01) (204, -2.62533673689968438669e-01) (205, 3.27537035389123154516e-01) (206, 8.33411814587267207877e-01) (207, 1.93627160612890980573e+00) (208, 7.19008150238148791011e-01) (209, 8.36883475003824262028e-02) (210, 8.05640258517161256258e-01) (211, 4.86514047587615794388e-01) (212, 6.33885434391621926942e-01) (213, 9.01109721652523787405e-01) (214, 8.42152863533356721426e-01) (215, 8.04683275313237245108e-01) (216, 1.00309583317764561272e+00) (217, -4.80944062271379979556e-01) (218, -1.45203766158488539739e-01) (219, 7.49406854242058551030e-01) (220, 4.99996460359242222982e-01) (221, -2.97800627035629122963e-03) (222, 8.73745047017997600314e-01) (223, 6.94505966527117046816e-01) (224, 1.12434472999898993351e+00) (225, 3.67551776334003391100e-02) (226, -3.00905455268157151494e-01) (227, 6.56141545207710508159e-01) (228, 2.51189055305397168638e+00) (229, 5.32084006461954861500e-01) (230, -1.68977918306195337705e-03) (231, 8.09001215424433595125e-01) (232, 7.08295665199764612474e-01) (233, 6.12465725609234734605e-01) (234, 6.07033951453444742263e-01) (235, 3.27175154451477379070e-01) (236, 6.14871247746293980718e-01) (237, -6.59506932222248831721e+00) (238, 4.84077542739714261621e-01) (239, -6.09244974820400547744e-02) (240, 5.85049492616485422580e-01) (241, 1.09959057051804887095e+00) (242, 5.17896424025377388745e-01) (243, 3.54886567940761121775e-01) (244, 2.58716455331168604381e-01) (245, 2.13700383122061680907e-02) (246, 4.31499526873232230884e-01) (247, 2.77502159971880013600e+00) (248, 2.72202118391127179109e-01) (249, 2.76618161369701520691e-01) (250, -1.92796666100253211162e+00) (251, 6.84033002551390878487e-01) (252, -5.87881552853256938995e-01) (253, 6.12865612803135006992e-01) (254, 7.96933523824079059761e-02) (255, 5.92993854865059399906e-01) (256, 6.05424987901498901088e-01) (257, -8.52441428478217488873e+00) (258, -1.36936116587376255360e-01) (259, -3.79571038658041759462e-01) (260, 7.07561013647809655680e-01) (261, 5.86007403792242476115e-01) (262, 9.02538308017288670726e+00) (263, 8.11576899694924747131e-01) (264, -1.19490733739338120256e-02) (265, 6.60033975079609036563e-01) (266, 7.06778048581066742351e-01) (267, 7.09789591869224789633e+00) (268, 8.08945102725880604844e-01) (269, 1.24191182478638306730e-01) (270, 5.92331264015204250750e-02) (271, 2.24135084235338288838e-01) (272, -1.49484155360002191060e+00) (273, -4.15775580002964662008e-01) (274, -2.59217826952220464776e+00) (275, -7.04866027588873650389e-02) (276, 6.20897406428402631740e-01) (277, -4.34017720560337671998e+00) (278, 8.07642163745950880660e-01) (279, 6.94562197494579147694e-01) (280, 6.61921934583678872599e-01) (281, 7.56049078643034278002e-01) (282, 1.46830766714310234633e+00) (283, 6.05729359162196945299e-01) (284, 3.43593658473575591650e-01) (285, -1.25925165285221185574e-01) (286, -4.17815784351833574561e+00) (287, 8.07202210091625516064e-01) (288, 1.09323492379440390110e+00) (289, 7.21759354573995426385e-01) (290, -9.40942813350021833863e-01) (291, -1.38071681449857208701e-01) (292, -9.31779144872482034678e-01) (293, -7.92990094591434213633e-01) (294, 1.85996282212154750990e-01) (295, 2.43635801639887983328e+00) (296, -8.71820522079869708598e-01) (297, -1.77893908179509718792e+00) (298, 1.21911979811479082025e-01) (299, -3.27925976327692603185e-01) (300, 7.83983354815736332988e-01) (301, 1.24262782645023284189e+00) (302, 9.47303517395469696361e-01) (303, 6.69849101570811900075e-01) (304, 3.97015051728006163057e-01) (305, -1.37113343594821213145e+00) (306, -1.54455291807315520103e+00) (307, -1.28381611182773802682e+00) (308, 1.55383501168266047188e+00) (309, 1.23790600595239919102e+00) (310, 6.91612838764644188849e-02) (311, -6.08842401425880863641e-02) (312, 2.94167283223438325024e-01) (313, 9.62405283031133818028e-01) (314, 1.17649405595388900636e+00) (315, -9.01370571772374895581e-01) (316, 1.54758369745065044176e-01) (317, 8.79239417170671777590e-01) (318, 2.08997730568121348194e-01) (319, -3.33904009274279212072e-01) (320, 7.18753022932097640485e-01) (321, 2.54264831779898670128e-01) (322, 6.66902046535015835538e-01) (323, 5.49015711084510527051e-01) (324, 6.33375371829177580274e-01) (325, 1.53121017156542943427e-01) (326, 4.54723274527108090037e-01) (327, 5.88964206956908431501e-01) (328, 5.03429195902293513676e-01) (329, 1.31741104589107571599e+00) (330, 6.18590844508681736436e-01) (331, 2.27017101970073909012e-01) (332, 2.53982094254848744797e-01) (333, 7.11821505650863772807e-01) (334, 7.08983622102710597801e-01) (335, 7.76035472543099458242e-01) (336, 7.08408447727772561109e-01) (337, 6.87166643297421941838e-01) (338, 5.77323026426981855685e-01) (339, 6.23485913359210219831e-01) (340, 5.80491604142472472638e-01) (341, 5.67903404914424148053e-01) (342, 5.19569328246628492352e-01) (343, 5.90256922340605671984e-01) (344, 7.26515916535153905009e-01) (345, 7.69557406553521672343e-01) (346, 6.09010470890090416241e-01) (347, 6.75858510517165389508e-01) (348, 6.37806480609461989850e-01) (349, 7.76277646214821870352e-01) (350, 1.17648447763717545200e+00) (351, 6.81174039592807201160e-01) (352, 2.43505801127049642529e-01) (353, 5.34533673950360888050e-01) (354, 5.32541835733579271839e-01) (355, 4.47654103558270177743e-01) (356, 4.77550950260255846480e-01) (357, 7.77306415903640579579e-01) (358, 7.34809719789100479481e-01) (359, 6.12358158313319633770e-01) (360, 6.07295853876159141826e-01) (361, 6.86637876414344039411e-01) (362, 6.93026332043692794294e-01) (363, 7.14929027341887679547e-01) (364, 7.13440267228171554059e-01) (365, 5.51526991509482811260e-01) (366, 7.17042861365363326520e-01) (367, 6.40825135492369857282e-01) (368, 7.30229509853408065290e-01) (369, 5.99459377907798240948e-01) (370, 7.30241639398619857282e-01) (371, 1.09694438141382155649e+00) (372, 1.15358605694568527866e+00) (373, 6.07591451581087738099e-01) (374, 6.68960311885443137392e-01) (375, 6.26603946852756332753e-01) (376, 6.57380432653499435780e-01) (377, 5.57338317715213027448e-01) (378, 6.79015068196341720075e-01) (379, 6.71739531539962020368e-01) (380, 5.59694317959830489606e-01) (381, 6.01137487076804588604e-01) (382, 5.60160232566878524274e-01) (383, 6.92304564498946395368e-01) (384, 7.31047658108756270856e-01) (385, 6.88078565382048812360e-01) (386, 5.48772087179706047344e-01) (387, 6.90068257831618514508e-01) (388, 6.41937589131877150983e-01) (389, 6.60134432696387496442e-01) (390, 4.63070189772164242381e-01) (391, 7.15164033555075850934e-01) (392, 6.12702896677539299297e-01) (393, 7.27313933753058639020e-01) (394, 6.96023670815512862653e-01) (395, 5.92073751472518172712e-01) (396, 5.44771520279929588604e-01) (397, 6.78997127198264327497e-01) (398, 6.98829484962508407087e-01) (399, 5.40931632601306389141e-01) (400, -2.78908330935616732837e-01) (0, 1.28401978488486945285e-01) (1, 1.69141987221657214002e-02) (2, 7.70113380508838929472e-02) (3, 1.53609538333832271184e-02) (4, 1.65242044802230481082e-01) (5, 8.01679106312214173613e-02) (6, 4.92940084891735560979e-02) (7, -1.14890499157489223148e-02) (8, 2.51135812955318865614e-02) (9, -1.30358649534762782718e-02) (10, 1.41358697669922359075e-02) (11, 9.21816663699566163359e-02) (12, 1.30549618857323176946e-02) (13, -2.76289818925441396646e-02) (14, 8.91599269466816224394e-02) (15, 1.67064128990691784793e-01) (16, -1.29262892646373195316e-02) (17, 4.51587797956882960881e-02) (18, 7.49323056893764771758e-02) (19, 1.13138733978789929324e-01) (20, 7.94463815050541199980e-02) (21, 5.60269417124210841741e-02) (22, -8.22777432628282734406e-03) (23, 7.26909251766620911894e-02) (24, 1.79812000947414812879e-02) (25, 6.10654527821503142343e-03) (26, 3.97229986874099924576e-02) (27, 1.19238895424985516525e-01) (28, -4.69163218450276628402e-02) (29, 4.07462268473922500922e-02) (30, -3.30976849469021422445e-02) (31, -8.11878382907700590909e-02) (32, 8.30429926766562132023e-02) (33, 4.12898305213657557111e-02) (34, -1.81182120585235348353e-02) (35, 9.59937068975177942853e-02) (36, -4.60119303905757587314e-02) (37, 1.05184613342803601199e-01) (38, 1.58513470168632153445e-01) (39, 5.31104640918194301213e-02) (40, 8.10090574113365158304e-02) (41, -3.84903540225986287582e-02) (42, -6.58475634964470063482e-02) (43, -7.34056559713844314352e-02) (44, -3.12067249586202404010e-02) (45, 7.75539689176510393942e-02) (46, -8.01355039022225157375e-02) (47, -1.98239610192955280354e-02) (48, -1.77549377869761021431e-01) (49, -1.01209648311512623309e+00) (50, -1.08803409361281064327e-01) (51, 8.04828309195528418529e-02) (52, 1.79538229692533413129e-01) (53, 1.33161863570955864289e-02) (54, 1.38693787387945605127e-01) (55, 4.53250581143597730538e-02) (56, 1.15946988420474364490e-01) (57, 6.88447299754825770002e-02) (58, 5.39379379826399919795e-03) (59, 1.29030643578094184054e-01) (60, 1.77051219077249410994e-01) (61, 1.61528932781358602888e-01) (62, 1.37029944534820202762e-01) (63, 6.77331077879149683757e-03) (64, -7.58891632478468081136e-02) (65, -5.65884933469475021051e-02) (66, -7.41675943730057130043e-02) (67, 1.29155935714819480875e-01) (68, -1.56510515027781169084e-02) (69, -1.44066379020776957898e-01) (70, 7.79652486428729779577e-02) (71, 1.19287323473405051932e-01) (72, 1.54407599398203837504e-01) (73, 7.85869039279831760325e-02) (74, -6.66896459490571164030e-02) (75, -1.68740838604411136359e-01) (76, 1.53326062075941405016e-01) (77, 1.90464321541661818493e-01) (78, 5.19977732065501699332e-02) (79, -1.34911519714007522089e-03) (80, 1.46823028953214529402e-01) (81, 2.62027881667528272924e-01) (82, -4.78113365185647676281e-01) (83, -3.69011668615231336332e+00) (84, -2.33102640981180636581e-01) (85, -5.15865690959061540255e-01) (86, -4.48780234857154514128e-01) (87, 2.07430007786889913923e-01) (88, -5.61430645995874971765e-02) (89, 1.04512944324048114714e-02) (90, 2.56944787177887989937e-01) (91, 1.55705124342464862330e-01) (92, 2.42497269142024213240e-01) (93, -3.40354716873236956554e-02) (94, -3.13489145852055173247e-01) (95, 7.10444537486258909098e-02) (96, -2.15501164215754409392e-01) (97, 1.09156918018707929652e-01) (98, 4.65906186464610586051e-02) (99, -4.42685808902507638152e-02) (100, 1.44381689758439901716e-01) (101, 2.49358092718442725388e-02) (102, -3.58780559651741803862e+00) (103, -5.09439877889662079413e-03) (104, 2.96023942510780790904e-01) (105, 1.85550161166119581546e-01) (106, -7.84192728482776435506e-01) (107, -4.38629605157881130584e-01) (108, 1.81283980582990222885e-01) (109, 7.72527290159187168817e-02) (110, 3.53970310096742957207e-01) (111, 1.79443384947263001594e-01) (112, 1.89131792311520094407e-02) (113, 1.37495718094831964606e-01) (114, 2.07084110641033547484e-01) (115, 1.92476302553325956390e-01) (116, 2.18294235481366588614e-01) (117, -4.28175458574496736741e-01) (118, 3.55084091493435352604e-03) (119, -1.27475848223043836116e-01) (120, 1.75344477327009085066e-01) (121, 2.61200573046572459557e-01) (122, -5.87776255006636660916e-01) (123, 1.09986058065792002836e+00) (124, -2.33652160831949139153e-02) (125, -7.96766257448065062796e-01) (126, -2.81551836196168192572e-01) (127, -2.52681031210213458138e-01) (128, -1.44567529533493299709e+00) (129, -8.29356015075139937909e-03) (130, 2.30304466821459746795e-01) (131, 9.00661809745798014326e-02) (132, 1.02395965333503369266e-01) (133, -2.61719016475261342936e-02) (134, 1.31102515931647956027e-01) (135, 2.76802283669893678386e-01) (136, 1.44870001383937774264e+00) (137, 1.53174951664325237344e-01) (138, -5.36381577117215901929e-01) (139, 7.95642050129968109173e-02) (140, -2.97807244700969316054e-02) (141, 1.08693690963319267162e-01) (142, 2.70343067610928244893e-01) (143, -6.26534953203813693712e-01) (144, -3.34090364331857056501e-02) (145, 3.24247941795435923318e-01) (146, 8.78677613716024874524e-02) (147, -9.79103320191029191655e-01) (148, -2.02002343948945922714e-01) (149, -4.57471611013298209980e-02) (150, 2.68030712280551086657e-01) (151, 9.31159393744884766875e-02) (152, 1.22891692991775172694e-01) (153, 1.03208808775466565066e-01) (154, 1.34265734429877880984e-01) (155, 1.24773083801787990077e-01) (156, 3.37533274680801298473e-01) (157, 3.90828929006891812037e-01) (158, -8.99816115703741425946e-01) (159, 5.28657013697224967275e-02) (160, 3.78762991981922703122e-02) (161, 6.15237049217744358387e-01) (162, -9.69163671265816928369e-02) (163, 1.36342264531125689775e-01) (164, 6.61130032983063053997e-01) (165, 1.62510232441114788049e-01) (166, -6.55295132768229371401e-01) (167, -5.11512698745109517517e-01) (168, 1.01943858169400325409e+00) (169, -6.97554906544137764968e-02) (170, 1.49074020972286142017e-01) (171, 2.80624309121634107900e-01) (172, 7.26419512266391897981e-02) (173, 1.53062392110103698967e-02) (174, -2.09470342760806893523e-02) (175, 1.05185416721748720148e-01) (176, -1.65438393713877834879e-01) (177, 8.97418749898750811589e-01) (178, 3.63880678879661467739e-01) (179, 9.09711109621125640912e-02) (180, -7.28083050856337260504e-02) (181, 6.19284024720135772846e-01) (182, 1.45060431942793145732e-02) (183, -3.75021004454911044412e-01) (184, 1.70063634427637111468e-01) (185, -5.45689786893204464846e-01) (186, -1.04025280690742238932e-01) (187, 3.50683622903960046102e-01) (188, 8.25155421191026916539e-01) (189, -7.34497067301131678629e-02) (190, -3.55483997797375397831e-02) (191, -5.01331279033476358287e-03) (192, -2.34533861228981288516e-01) (193, -1.17689560744703353157e-01) (194, 3.19633987008979478239e-04) (195, -2.46191768272588928923e-02) (196, 3.23521303550174110786e-02) (197, -1.50295638062599573592e-01) (198, 7.25591432672980762852e-01) (199, -3.48166780378678542007e-01) (200, 6.00681770331347508751e-01) (201, 5.82744884248841077401e-01) (202, -9.86945361396743270355e-02) (203, -6.20788259068408287966e-02) (204, -6.49886746454818253760e-01) (205, -3.08039223543501883285e-01) (206, 2.22091955581792815932e-01) (207, 3.71772689321683280639e-01) (208, 5.49261720543391063210e-01) (209, -2.99174978127635712161e-03) (210, 1.79143136662636426326e-01) (211, 2.64754241627846387264e-01) (212, 1.10485987620769984807e-02) (213, 3.04882743158893868007e-02) (214, 1.67222242126758596781e-01) (215, -2.94276370903892234288e-02) (216, 1.36062082571273806897e-01) (217, -1.06091115299416194340e+00) (218, -8.51340308526962047386e-02) (219, -3.98631644642924665156e-01) (220, 1.07223263305817342883e-01) (221, 2.72035978919514698227e-01) (222, -1.07583997080480886499e-01) (223, 1.59733356439276025229e-01) (224, 8.23865938503645783841e-02) (225, -2.34896321654464113049e-01) (226, -2.13464849683138335745e-01) (227, 7.97689978694407719750e-01) (228, 3.16718062041290715491e-01) (229, 9.09890069511067461905e-02) (230, 1.38864487869668096209e-01) (231, 2.50838450715456295903e-01) (232, 2.51704625413332272466e-01) (233, 2.60139219090852857885e-01) (234, 2.17824551196237448103e-01) (235, 1.18510736699622767909e-01) (236, 3.41598665985159644087e-01) (237, -4.25341429525306402581e-01) (238, 1.10875552058069626327e+00) (239, -4.42882464758995342269e-01) (240, 2.84302221494137224989e-02) (241, 1.06401992990016358576e+00) (242, -2.99604886643348278241e-01) (243, -8.04674086946094435646e-02) (244, 2.33164914374430903843e-01) (245, 2.90091410701354246449e-01) (246, -1.10610366213234403987e-01) (247, 8.66257684524149751404e-01) (248, 3.24083774624383424978e-01) (249, 1.74381463817034967900e-02) (250, 8.06998592632287847781e-02) (251, 8.53226942777642743954e-02) (252, 3.25697604518914232696e-02) (253, 6.85070622664475381569e-02) (254, -2.67683890342188882117e-02) (255, 1.15636958650981044872e-01) (256, -6.69835877430658976905e-02) (257, -5.14223056753750351611e-01) (258, 4.05141271331196595185e-01) (259, -1.06419060301338230801e+00) (260, 1.16246108232449699149e-01) (261, 6.18654602944652354246e-01) (262, 6.46481319896567763195e-01) (263, 4.55486304307059164387e-01) (264, -4.43966116347337513837e-01) (265, -6.00034150957189232889e-02) (266, -3.20385271040288299726e-01) (267, 4.23188612877838821191e-01) (268, 7.62478422812209566395e-01) (269, -4.13522838081722854398e-01) (270, 4.63449498328064660169e-02) (271, 3.43391278875719990760e-02) (272, -7.45941278922971129361e-01) (273, -6.15499695229943633024e-01) (274, -5.91701646733697295133e-01) (275, -1.13002643344745329346e-01) (276, -3.57748335009053286537e-01) (277, 4.49596265065910216663e-01) (278, -6.79163482947122365552e-01) (279, -8.46726398259549317693e-01) (280, 9.68181307301036603308e-02) (281, 2.68007821036080652599e-02) (282, 6.44204638493970027646e-01) (283, 4.90110647877730343236e-01) (284, 2.95761400881622449344e-01) (285, 1.32409152630586696153e-01) (286, 4.27826454921092225181e-02) (287, -7.28750624171463079470e-02) (288, 2.78609001480065732181e+00) (289, 2.71720660114240675220e-01) (290, -1.00303503180807176975e-01) (291, 1.88197017584665789169e-02) (292, -2.93875557458928501897e-02) (293, 9.73990338766047430985e-02) (294, 3.69022619868700330059e-01) (295, 5.25047942244021084712e-02) (296, 4.21918540795925695042e-02) (297, 4.50563905823500518433e-02) (298, -7.59421041830554144347e-01) (299, -1.26426887057471376563e-01) (300, 1.08621727941941428885e-01) (301, 1.73404924212106376080e-01) (302, 1.43663673277419690066e-01) (303, 3.04335383805524217760e-01) (304, 1.20483499897594409367e-01) (305, 2.57040803266639694691e-01) (306, -5.73912804267662918223e-02) (307, -6.84891848899140787132e-01) (308, -2.71531185837540878225e-01) (309, -2.71519129383937726785e-02) (310, -3.68877692037363619226e-02) (311, 8.69795940952140245184e-02) (312, 1.57081378467565611901e-02) (313, -3.76856624170957554831e-01) (314, 1.16210576449173402791e-01) (315, 1.90825596054676575875e-02) (316, -5.98583719767346811302e-01) (317, 4.55880659309860353234e-02) (318, 2.70526283994659999532e-01) (319, -3.78712309413691133875e-02) (320, 1.27699138479649074163e-02) (321, 1.23949363468297601987e-01) (322, 1.26219175396569877057e-01) (323, 1.93031884370454459576e-01) (324, 2.27827859457007286803e-01) (325, 1.97200608785620568053e-01) (326, 1.06320736059331510948e-01) (327, 2.38452079383369430765e-02) (328, -7.04358983156368623907e-03) (329, -2.17115153211062089644e-01) (330, -5.14269855669525433051e-01) (331, -1.59516743093853802238e-01) (332, -5.65859236014822131189e-01) (333, -4.99715395463445899438e-01) (334, -5.62274933378140384654e-01) (335, -5.03606881381254756214e-01) (336, -5.00905732990484908740e-01) (337, 2.51022498042722530531e-01) (338, -4.68746554696353595615e-02) (339, 1.07909365172904614383e-01) (340, 1.54815627809089306766e-01) (341, 1.36532931204360608035e-01) (342, -3.05820432814124971987e-02) (343, 6.15061731892048435544e-02) (344, 1.07999470351647544608e-01) (345, 1.44441280780743835921e-01) (346, 1.59915177698653820926e-01) (347, 5.95333637552677638616e-02) (348, 3.47872735815464573239e-02) (349, 1.93654045147629988444e-01) (350, 1.34228937012883464686e-01) (351, 3.86090520179477869611e-02) (352, -6.27207530664759760342e-01) (353, -2.47504395091327419887e-02) (354, 1.21670776919147141659e-01) (355, 1.09321418559757427974e-02) (356, 1.23149583057185790791e-01) (357, 1.04191893652698153172e-01) (358, 1.10977718547603243504e-01) (359, 5.15677841263233668889e-02) (360, 1.07072168844162471379e-02) (361, -2.91223464650691640787e-02) (362, 4.82171537237583644475e-02) (363, 1.39178840990584973270e-01) (364, 1.65493129368346814090e-01) (365, 1.62694169755500439578e-01) (366, 6.96448298054157532988e-02) (367, 9.86602442222057618437e-02) (368, 1.02304576511901501590e-01) (369, 9.67789875226436890898e-02) (370, -4.57007711253203541962e-03) (371, 2.33592982323308828718e-01) (372, 2.09784674377580526716e-01) (373, 1.71118292387051174064e-01) (374, 7.00870783882566183998e-02) (375, -6.65488374078067462802e-02) (376, -1.12310108387264125790e-02) (377, -2.38674147171558034830e-02) (378, 6.69933320837436951933e-02) (379, 9.75650684791027345000e-02) (380, 6.85670586185871400176e-02) (381, 1.00002689834159497195e-01) (382, 1.01829381542622096624e-02) (383, -2.50192670268596303873e-02) (384, 1.49261070962470654422e-01) (385, 5.86253273062100396101e-03) (386, 5.99216880159794337835e-02) (387, 1.46419464226287487918e-01) (388, -1.59367634100497819472e-02) (389, 4.49082167702137477483e-02) (390, -1.31524605067733675601e-02) (391, 2.73007923620163378553e-02) (392, 4.83162017422138698186e-02) (393, 1.11265076871436718875e-01) (394, -9.90027014690734400576e-04) (395, 4.63396670179783351506e-02) (396, 1.06489567633193615848e-01) (397, 1.01185141678374890262e-01) (398, -2.24697454018176687174e-02) (399, 1.38303686017269226310e-02) (400, 2.24194555234686898615e-01) (0, -7.14474882113213249912e-02) (1, 4.28973545206313144895e-02) (2, 8.25900927908469403849e-03) (3, 4.58011289013152134153e-02) (4, -1.40885252796339510706e-01) (5, 1.57189776075606461869e-02) (6, -9.14210717307801234988e-02) (7, -1.32222321175264834192e-01) (8, -8.47573544012779900303e-02) (9, 3.86743505371336948606e-02) (10, -3.11249311196083906783e-02) (11, -1.52224328659700869348e-01) (12, -1.18612375401186437296e-01) (13, -2.36138592588181379928e-02) (14, 2.95670737398390885697e-02) (15, -8.02195037829155632725e-02) (16, -1.31161835335421084192e-01) (17, 8.51685897238303388224e-03) (18, -6.36259357558960764178e-02) (19, -5.37232871281380502948e-02) (20, -1.28435228310751436975e-01) (21, -3.79480823152016696204e-03) (22, 2.71232535017256921883e-02) (23, 1.53601874483351823197e-02) (24, 2.77455110920195764657e-02) (25, -9.40067398475880611208e-02) (26, -3.15802575526933360095e-02) (27, -2.44993673144082782511e-02) (28, 1.79687990374243315717e-02) (29, 1.61314424846600107388e-01) (30, 1.57565292690228037076e-01) (31, 1.30824264858196814831e-01) (32, 1.51500292078638409965e-01) (33, 3.05046838063422545706e-02) (34, 4.13057904977027351423e-02) (35, 8.11452966469947412076e-02) (36, -6.37975678997864054445e-04) (37, -9.69769108753975317416e-02) (38, -1.42560202919172762659e-01) (39, 2.31215019596343225594e-02) (40, -1.49785738729166506555e-01) (41, -2.05467532502884749068e-02) (42, 2.40355540884261316414e-02) (43, -1.15259740792440862345e-01) (44, -7.69825906930665937455e-02) (45, 6.37137226757284597101e-02) (46, 6.81000965993986961955e-02) (47, 4.13952562373267052287e-02) (48, 7.88371953528510110987e-02) (49, -1.97489217181696478931e-02) (50, 1.32284323734728148647e-01) (51, 1.36093918162105975700e-01) (52, 8.27868418027800090364e-01) (53, 1.24855871101694537728e+00) (54, 1.01558942597199175495e+00) (55, 6.21043645546807021596e-01) (56, -5.13811251055804885102e-02) (57, 4.78414098058251413548e-01) (58, 5.01296079043654585483e-01) (59, -6.10451365935082285175e-02) (60, -1.49510335467981814173e-01) (61, -4.06347247630570729271e-02) (62, 4.11699521683987046394e-01) (63, 4.67854738157183369651e-01) (64, 4.34294821149219467671e-01) (65, -6.39390825777904625582e-02) (66, -1.51217489119779696649e-02) (67, -1.36622132037502702628e-01) (68, -2.01944486473423417960e-01) (69, -2.50060271962704028237e-02) (70, -1.09141248653614353348e-01) (71, 3.38101937606867797292e-01) (72, 8.20213897977687289575e-01) (73, 4.92931409317185265095e-01) (74, 1.17718363562403816047e+00) (75, 1.42033257008809465916e+00) (76, 8.61189306904715179414e-01) (77, 9.29686321703999007937e-01) (78, 5.16237085942534812411e-01) (79, -4.86293773280854074725e-02) (80, 3.53921548254538739786e-03) (81, -1.90011259997532433452e-01) (82, -2.17307763176176083064e+00) (83, -5.06035177235114375094e+00) (84, -3.42330789082529074463e+00) (85, -2.57310854333929883708e+00) (86, -2.82392430263878768670e+00) (87, -2.65508705631536168212e-01) (88, 2.57596191604623631077e-02) (89, -1.46686065676025854249e-03) (90, 4.15532034144626277739e-02) (91, 8.20752639381539750296e-01) (92, 2.04486624120402193938e+00) (93, 2.88157224985158677555e+00) (94, 1.31729500572374380596e+00) (95, 1.43041611894301512464e+00) (96, 4.46939454426502291717e-01) (97, 1.32958207207439838005e-01) (98, 2.82660950426960710935e-01) (99, 9.32494894392539228067e-03) (100, 4.59407344831799346885e-01) (101, 7.55758088497800323280e-02) (102, -9.68086952097130026829e-01) (103, 1.27843219112499006940e+00) (104, 4.83574881024127267715e-01) (105, -6.43075159416962471859e-01) (106, -1.58411701338337307376e+00) (107, -4.30173984766010208958e-01) (108, 1.70029770245699374254e-01) (109, -5.76646215844626736785e-03) (110, -4.91794808039612979522e-02) (111, 1.04819358189220523947e+00) (112, 1.63563250029542217590e+00) (113, 1.11182744716226378223e+00) (114, 1.00347281162559309742e+00) (115, 1.75134279527715674973e+00) (116, 1.37651272296409032947e+00) (117, -4.05840021090433045181e-01) (118, 5.99301242762646624307e-01) (119, -2.56166595159862731101e-01) (120, -2.69785478737174289066e-01) (121, -2.86985460253077195869e-02) (122, -1.66166282214526180028e-02) (123, 6.44462769372918381494e-02) (124, -3.69956438033610779392e-01) (125, -4.48104526025871319206e+00) (126, -9.54999790263867942564e-01) (127, -1.81434063330541350823e+00) (128, -3.88938330302754042833e-01) (129, 4.71112810160457043396e-03) (130, -2.27006912316821546360e-01) (131, 1.81453923811225083240e-02) (132, -7.59333087733625542587e-03) (133, -1.92138741838211897506e-02) (134, 2.70764424027700664754e-02) (135, 1.24758163751849587841e-01) (136, 1.86409706802880714704e+00) (137, 7.70240639724656506182e-01) (138, -3.41045348704895945335e-01) (139, 1.23319172414400102245e-01) (140, 2.04055069863203375480e-01) (141, -2.69736298184811984502e-02) (142, 2.68781981446914342015e-01) (143, 4.57179882454671338010e-01) (144, -3.50630782723119316380e-01) (145, -2.38716212762665219715e-01) (146, 2.95305084958674357587e-01) (147, -1.46923618919111476089e+00) (148, -4.84300326670805414420e-01) (149, -1.73544842812650423891e-02) (150, -2.27499403652687171018e-01) (151, 1.12090388514629268890e-01) (152, 8.00081594414389224434e-02) (153, 1.37414296043639298783e-02) (154, 1.71613504064803239213e-02) (155, 5.43136670582826774911e-01) (156, 9.46748562647057423369e-01) (157, 4.47535010890306672593e+00) (158, -1.84696400970335794511e-01) (159, 3.24497307859439865219e-02) (160, 3.06423964827659822685e-01) (161, 6.44583820403464069493e-01) (162, 2.63759398862251137619e-01) (163, 2.56969485549243148448e-01) (164, -1.59079455364430147335e-02) (165, 1.70339230697701765616e-01) (166, -2.86594450729277749890e-01) (167, -1.08459721894336169612e+00) (168, 4.18888636884209630828e-01) (169, 4.84805470400527516173e-02) (170, -1.51131224964014210244e-01) (171, -6.90599171843361558931e-02) (172, -3.48271401100480465507e-02) (173, 4.21796698940520298216e-02) (174, -2.04191546069855574264e-02) (175, 4.24645707382534820518e-01) (176, 2.22162372965993559770e-01) (177, 3.00273823263312034104e-02) (178, 7.12558766617771399687e-01) (179, 4.00923985265273993828e-02) (180, 5.30155923264353720614e-03) (181, 3.90555894481947329933e-02) (182, 5.51011541331896448348e-01) (183, 3.64364915268706873741e-02) (184, 8.48473697266535625827e-02) (185, 1.97862554219626923802e-01) (186, -3.04292807693081424070e-01) (187, -4.41279386156580133438e-01) (188, 1.26040049900010914241e-01) (189, 2.34976400034906857117e-01) (190, -1.15109830417402836389e+00) (191, -4.63621367652241489488e-01) (192, -4.80939239811323582252e-01) (193, -7.37188354322738770286e-01) (194, -6.97910711357421997825e-01) (195, -3.82594889864454473782e-02) (196, 8.85638046784437249492e-01) (197, -1.76948459737079910603e+00) (198, 3.47916383579774679546e+00) (199, -1.70701149973816884708e-01) (200, 3.13151794304165204119e-02) (201, -5.58070114217055879280e-01) (202, 3.30016183892595571514e-01) (203, -1.18502326644050207105e-01) (204, -2.45615754014313486531e-01) (205, -3.73727244370205713420e-01) (206, -1.02390474560927069447e+00) (207, 9.90939310114928029183e-02) (208, 1.09531636558889600153e+00) (209, 2.33963061795889853967e-01) (210, -2.25009275267877451032e-01) (211, -7.79633861443143200143e-02) (212, -1.00715442883799521923e-01) (213, -1.28159853952954289058e-01) (214, 4.83168257893820049520e-02) (215, 1.67797251166601386896e-02) (216, 9.28772130940660245457e-01) (217, -2.25921743104403827118e-01) (218, 9.03282451396626107076e-01) (219, -8.61554240168582730064e-02) (220, 2.44465406001852764151e-01) (221, -3.72925637822242167507e-02) (222, 4.43288884319956277835e-01) (223, 2.29326393066218131578e-01) (224, 2.12120525091922917937e-01) (225, -2.77777392238453268991e-01) (226, -7.43405068441055472128e-01) (227, 8.74166873770327867987e-01) (228, 2.06334189094227093975e+00) (229, 5.92570392712828408754e-01) (230, -9.98943856035365007617e-02) (231, -2.53219323545954902444e-02) (232, 1.08124431808480983563e-02) (233, 2.10572226466436626668e-02) (234, 6.51802576852334066004e-04) (235, -3.89300773965592303294e-02) (236, 7.59081389450588450707e-01) (237, -2.82151982442634952086e-01) (238, 8.52016354351084026497e-01) (239, -2.21924918297083717533e-01) (240, 3.92575830592488239645e-01) (241, 6.73375839920197671873e-01) (242, -4.36053918864363204699e-02) (243, -5.48907409272278573598e-02) (244, 5.16358271204452434766e-01) (245, 9.54970593696524150396e-02) (246, -2.46762595972830511837e-01) (247, 1.15953605943054061100e+00) (248, -2.61643545671453370272e-01) (249, 3.88918568567471339970e-02) (250, -4.81471901808871449724e-02) (251, 2.02096297675048053311e-01) (252, -7.96164992910202429233e-02) (253, -9.53901189844919561445e-02) (254, -1.06834057110379188060e-01) (255, -2.71494005633934443189e-01) (256, 6.87190378215680408580e-01) (257, 1.35623055505868728154e+00) (258, -1.48445063963445755828e-01) (259, -3.69329712880781035889e-01) (260, 7.18898998174672121397e-02) (261, 5.96048773264292286456e-01) (262, 4.28323857645254213455e-01) (263, 4.13985931798808659554e-01) (264, -3.36541465928314242895e-01) (265, -6.09942644715582710235e-02) (266, 9.15852985148037646024e-02) (267, -4.67144648476179258356e-01) (268, -3.53541454994439341419e-01) (269, -6.62554190467938841635e-01) (270, -8.08612222406918657036e-01) (271, -1.70441576041693215737e-01) (272, -1.37882390463945209147e-01) (273, -1.51500997240974433211e+00) (274, -1.49944833959772116927e+00) (275, 5.60075473014009173056e-01) (276, 6.28215382802186184108e+00) (277, 3.45306959633727617032e+00) (278, -4.24257975950608767768e-01) (279, -2.50409490947383739368e-01) (280, 1.15139179078102588116e-01) (281, -2.42149907304815056180e-03) (282, 3.15282133736196179541e-01) (283, 5.23185532194126029504e-02) (284, -3.59193384257282644079e-01) (285, -3.28017943540404866010e-01) (286, -1.65290088394473511091e-01) (287, -2.30936712863256543571e+00) (288, 7.88829968636118095127e-01) (289, 2.24033150588092994787e-03) (290, 3.96471980344067498336e-01) (291, 1.35058271237464444514e-01) (292, -1.65125758918005904885e-01) (293, -1.02869169386107434105e-01) (294, 1.06866020880078294031e-01) (295, 1.07352467550892421988e-01) (296, -7.24738593264286468099e-01) (297, 3.41292947892957929112e-02) (298, -1.44643466011730531529e-01) (299, -6.92886228787178704014e-02) (300, 9.95144771013264373138e-02) (301, 2.65224374484796070195e-02) (302, -6.96431254630510143677e-02) (303, -2.37757408172678125213e-02) (304, -1.00919492871611338192e-01) (305, 6.54066073031874806176e-01) (306, 8.83049461405859964502e-02) (307, -1.29467186064736328177e+00) (308, -1.66285592590017933246e-01) (309, 2.81819473768666617364e-01) (310, -5.80490460981227474058e-01) (311, -2.48222461567204982780e-01) (312, 9.47774749454937115445e-02) (313, 1.32254812268627813809e-01) (314, 4.44925054734941927137e-01) (315, -9.95831621604191474795e-01) (316, -2.88549425979296780831e-01) (317, 4.58694032722052003059e-01) (318, 4.89972382181223298225e-01) (319, -1.97028259860749128951e-02) (320, 4.32564129007582676145e-02) (321, 1.05562137777783351944e-01) (322, 1.10585921558000538356e-01) (323, -1.85273004818106795666e-01) (324, 1.95819757532853626347e-02) (325, 5.24034477245128027523e-02) (326, -1.47721868299173830774e-01) (327, -1.36039506934809206751e-01) (328, -2.42353140903642350068e-01) (329, -9.20776265304832086667e-02) (330, -3.28168815292602777944e-01) (331, -2.93135115995557249402e-01) (332, -1.54912145927102562482e-01) (333, -3.38754365339429319715e-01) (334, -4.18820696289139371427e-01) (335, -4.80189929122524838956e-01) (336, -3.41508891029289107788e-01) (337, 3.41109678520535197777e-01) (338, 4.40571642743872504688e-01) (339, -9.69210232722039211062e-02) (340, 3.73131145609145176145e-02) (341, -1.40902664803194521692e-01) (342, -1.94747417761018337679e-01) (343, -3.79999469148392596263e-02) (344, 8.42859610652970173139e-03) (345, 7.46201427254681581847e-02) (346, 3.42809666765456280690e-02) (347, -9.00324027168030727175e-02) (348, 2.39152719152693933602e-02) (349, -4.44698150383705942401e-02) (350, 4.34031595361952793333e-02) (351, -2.14697986437013266237e-01) (352, -3.96197276527481656583e-01) (353, -2.82596006585290715485e-01) (354, -3.66539969636133056152e-01) (355, -1.52381565712618349817e-01) (356, 3.82303763552283126792e-01) (357, 4.48680175763795319188e-01) (358, -1.35282706760096071985e-01) (359, 3.99306674373869907591e-02) (360, -4.01165674554581491718e-02) (361, -3.43340824472184100169e-02) (362, -1.02298949204611300257e-01) (363, -4.41232065784211008319e-02) (364, -2.21829603540177229537e-02) (365, -2.72195975410218123092e-02) (366, -3.04131026493782881392e-02) (367, 2.44545598400359338875e-02) (368, -2.11378972160096052779e-02) (369, -2.55383293258423689498e-02) (370, -1.19328093074488134073e-01) (371, -3.06864122974152449264e-02) (372, -1.33026133405442122115e-02) (373, -8.98335837320572705433e-02) (374, -7.94524774448162884877e-02) (375, 7.58860603697348885116e-03) (376, -3.88463254200692095774e-02) (377, -1.28128651820349215296e-01) (378, -1.29305418871569155481e-01) (379, -6.17926682459587900409e-02) (380, -1.94601009713883284225e-02) (381, -1.32763903878855227259e-01) (382, -8.83442427145714470615e-02) (383, -1.21757339976953954386e-01) (384, -2.72135029660935286178e-02) (385, -6.67377899514908501377e-02) (386, -1.21000532351660222696e-01) (387, 2.00622786653761979447e-02) (388, -3.97148470508332171458e-02) (389, -1.03144862048553942468e-01) (390, 1.31313313616042252885e-02) (391, -1.26693036698030947473e-01) (392, 1.56594176662688371049e-02) (393, -1.36029247485327242639e-01) (394, -1.76778624879593733443e-02) (395, -5.33851723300690500507e-02) (396, -1.01104716884369769114e-02) (397, -9.49525910543675411013e-02) (398, -7.57922346817726799717e-02) (399, -7.81100059973473259678e-02) (400, 5.54418877156052314348e-01) (0, 5.19368250006367881966e-01) (1, 6.05692152017285767585e-01) (2, 5.33833388322522361946e-01) (3, 5.46577517026593406868e-01) (4, 4.43282540970971306038e-01) (5, 4.94560364717175682259e-01) (6, 4.60869580590655525398e-01) (7, 4.68292258763243873787e-01) (8, 5.18393319183518608284e-01) (9, 5.52215281957318504524e-01) (10, 6.01970542305638733893e-01) (11, 5.38767788642575462532e-01) (12, 4.17009409600426872444e-01) (13, 4.33351565235783775520e-01) (14, 4.64692663484742363167e-01) (15, 5.03409985536267479134e-01) (16, 4.65489402496745308113e-01) (17, 4.37893319958378990364e-01) (18, 4.16833516293694694710e-01) (19, 5.15482921236684044075e-01) (20, 6.04163039559056702643e-01) (21, 4.43278860384156425667e-01) (22, 4.84280701810052116585e-01) (23, 4.21272154980828483772e-01) (24, 5.78739363783528748542e-01) (25, 5.84033910268475953131e-01) (26, 5.64300049179722984505e-01) (27, 4.36925139361550529671e-01) (28, 4.83450193723360177600e-01) (29, 4.55477717738109522116e-01) (30, 4.26131392442683443189e-01) (31, 5.75956898354987534283e-01) (32, 4.40229187333087190748e-01) (33, 5.35526075863447137415e-01) (34, 4.98095722400751006465e-01) (35, 4.59073030852880425989e-01) (36, 4.21874621414747186243e-01) (37, 5.50753468179311700403e-01) (38, 5.31959887677361686897e-01) (39, 5.44862527483632286263e-01) (40, 5.07563348942925651741e-01) (41, 5.25718573564221580696e-01) (42, 4.75418482059170921517e-01) (43, 5.16360920005967338753e-01) (44, 6.11122285775541285169e-01) (45, 5.61427870283529029116e-01) (46, 4.80032115574209661268e-01) (47, 7.07158174644825554545e-01) (48, 6.60603102575657352702e-01) (49, 5.10969922677572241376e-01) (50, 5.28125787263165835661e-01) (51, 5.73681298117595495079e-01) (52, 4.77317937483707543933e-01) (53, 6.13545981069723356249e-01) (54, 5.92662480493704069140e-01) (55, 5.39007657983171406535e-01) (56, 5.67297924393346253424e-01) (57, 4.94634589917575251405e-01) (58, 4.41682202273216195643e-01) (59, 4.20466121369530876350e-01) (60, 5.57797122830083091927e-01) (61, 3.80859730317521738563e-01) (62, 5.84790755146672669440e-01) (63, 5.99112885182153331876e-01) (64, 4.69564991602615722233e-01) (65, 5.86503360699532017009e-01) (66, 5.49083963315603718058e-01) (67, 4.44013392564517828109e-01) (68, 4.42829128438164909554e-01) (69, 6.54319511442451373640e-01) (70, 5.59421920680608919518e-01) (71, 5.71709202120706305728e-01) (72, 4.91316471332242266090e-01) (73, 4.31418515093840715391e-01) (74, -2.72169385513993840331e-02) (75, 5.38962154014156147319e-01) (76, 6.76354804851877267069e-01) (77, 4.53676983797480781746e-01) (78, 4.01841043300544265016e-01) (79, 5.16491439276864250374e-01) (80, 4.65645920568635185433e-01) (81, 2.33293013770732193812e-01) (82, 3.82950532679712019046e-01) (83, 5.34512705167371704462e-01) (84, 5.97474100329963841993e-01) (85, 3.45331023876821241458e-01) (86, 4.48900916006832406691e-01) (87, 4.02087763276367471388e-01) (88, 5.46660814517667015267e-01) (89, 6.57031940012245074811e-01) (90, 5.25215060899659857974e-01) (91, 4.95717171409501722312e-01) (92, 4.47000370653633849471e-01) (93, 4.80370165854295205765e-01) (94, 4.88822268049630914710e-01) (95, 3.66297058538627373636e-01) (96, 6.64767006256448800272e-01) (97, 5.38348314186254506275e-01) (98, 4.95089036862060294375e-01) (99, 5.86151961320569458991e-01) (100, 4.81876064175297935677e-01) (101, 2.13084702085713700859e-01) (102, 7.32944855057292454781e-01) (103, 1.95821650783918999039e-01) (104, 3.12979327026973730419e-01) (105, 5.63755311981483320238e-01) (106, 5.90731818312337342292e-01) (107, 3.32849699502145490726e-01) (108, 6.07703853481938782721e-01) (109, 2.95067705833189530829e-01) (110, 3.39973834317126577531e-01) (111, 3.69249388149182178331e-01) (112, 4.53388750126759387804e-01) (113, 4.56235685121774370288e-01) (114, 4.44253482591867143725e-01) (115, 4.12478603939500254594e-01) (116, 2.46094423775873843985e-01) (117, 4.30850584240103362532e-01) (118, 5.27825558089818902552e-01) (119, 5.40019441479375084114e-01) (120, 4.59951859050919731331e-01) (121, 2.03178616949248158630e-01) (122, 1.90907558491079709651e-01) (123, 1.70879676236443789339e-01) (124, 6.58757588844345765011e-01) (125, 9.54367817479514712886e-01) (126, 6.85618295352505402462e-01) (127, 3.75887460230156511543e-01) (128, 6.07452160527930273837e-01) (129, 6.00518785715952962967e-01) (130, 3.25295196398425856543e-01) (131, 3.81381702655507970334e-01) (132, 5.97734753125836792975e-01) (133, 5.25332171553303917122e-01) (134, 4.43155785687981196297e-01) (135, 4.17306918146928829128e-01) (136, 4.17508872944519104919e-01) (137, 4.62237369860782454367e-01) (138, 3.69033907998847165999e-01) (139, 3.95989957695161542972e-01) (140, 4.34502860826242343073e-01) (141, 3.86455087410002784409e-01) (142, 4.53224727530108895124e-01) (143, 4.12674478884997086858e-01) (144, 5.72312272120804155229e-01) (145, 4.97173283332516813271e-01) (146, 4.47083330680221935349e-01) (147, 5.00400868242691365673e-01) (148, 5.85718593409285559481e-01) (149, 5.41363724970426507532e-01) (150, 2.89398046656799690091e-01) (151, 1.66983695526997683034e-01) (152, 5.74064958923985901862e-01) (153, 4.91987016135384813698e-01) (154, 5.13169284993340690804e-01) (155, 4.58013378167082985115e-01) (156, 6.03061481697830470416e-01) (157, 1.09503036149302554469e-01) (158, 6.56614038340429417850e-01) (159, 4.89309031014596662601e-01) (160, 6.03154255372274406000e-01) (161, 2.92430883106913164227e+00) (162, 8.78655314184641933473e-01) (163, 3.72184971456451796357e-01) (164, 6.07616353863408509284e-01) (165, 3.04113550378885877379e-01) (166, 3.40909260754739484867e-01) (167, 7.45768774228357966827e-01) (168, 4.83914364354954273928e-01) (169, 4.60574106776323266565e-01) (170, 5.91154028519768753869e-02) (171, 4.04006521647130689701e-01) (172, 4.38769277268578727913e-01) (173, 3.94106957559739790042e-01) (174, 3.60344927256261549076e-01) (175, 5.79053007975860678513e-01) (176, 4.95705095349775304303e-01) (177, -1.88725035867735746464e+00) (178, -3.49332281445099313011e-01) (179, 4.55459568147813520511e-01) (180, 6.40966831723391750053e-01) (181, 6.94369536492985717224e-01) (182, 6.95572202387375937427e-01) (183, 3.80047379710517885254e-01) (184, 4.57370590501954277229e-01) (185, 4.67409256929089744759e-01) (186, 3.35496086125528059085e-01) (187, 1.05653920734405737392e+00) (188, 1.64421684293913661357e+00) (189, 3.20149193059139913764e-01) (190, 5.92679061905189596970e-01) (191, 3.95257161640140908254e-01) (192, 5.88100297041950881294e-01) (193, 4.33295791634140559090e-01) (194, 4.50933580883560725105e-01) (195, 5.88136731010663993402e-01) (196, 5.34351101548780293982e-01) (197, 7.23180849782915746715e-01) (198, -4.63036064727337937086e-02) (199, 4.59736410026704511722e-01) (200, 5.12108131294763069263e-01) (201, 9.72132524682031484708e-01) (202, -9.77337954870162728405e-02) (203, 4.11074362635095114094e-01) (204, 5.78681451929672463486e-01) (205, 4.76562230934972741458e-01) (206, 6.18050690011626824294e-01) (207, 5.60911120402889928904e-01) (208, 4.91898935144494842131e-01) (209, -1.41445464139569238027e-01) (210, 2.75974212475439073522e-01) (211, 5.09656598456917242501e-01) (212, 5.87990466588666382819e-01) (213, 4.08806360024951576104e-01) (214, 4.59614239716460426521e-01) (215, 4.37149223023583610725e-01) (216, 5.68583631249432341903e-01) (217, 4.69719063130602854095e-01) (218, 5.77523282926159176043e-01) (219, 3.50984256212865552982e-01) (220, 5.67363870926914648507e-01) (221, 2.60561547264655468670e-01) (222, 5.06896474399548435663e-01) (223, 4.30812516127657363363e-01) (224, 4.85044133244804942517e-01) (225, 5.36514213865247779900e-01) (226, 4.22228053851117390849e-01) (227, 4.29125287448000380941e-01) (228, 2.70516117511411635643e-01) (229, -8.48007261069060602754e-02) (230, 3.32713831613614563487e-01) (231, 2.55979681796919766867e-01) (232, 4.32633723561917982181e-01) (233, 3.89358799402867994388e-01) (234, 4.29646466010739525032e-01) (235, 5.64900446766545494270e-01) (236, 4.97836279498173106539e-01) (237, 8.61828097596612496822e-01) (238, 5.56392330577225480148e-01) (239, 3.33962361757909498294e-01) (240, 5.56986335748364647102e-01) (241, -3.38306148368809900262e-02) (242, 4.05331481960519046659e-01) (243, 7.14832891121035873816e-01) (244, 5.87921523952093294518e-01) (245, 5.22905281614047701133e-01) (246, 5.08106169108684890823e-01) (247, 2.30801902283260196302e-01) (248, 1.97859017109695251024e-01) (249, 2.23838821149004468802e-01) (250, 3.46644579690633891644e-01) (251, 3.15260404495852353257e-02) (252, 4.31705953085031457483e-01) (253, 4.48746373408641763270e-01) (254, 4.96302036580306860092e-01) (255, 4.39427889450768160984e-01) (256, 5.54008820809096858007e-01) (257, 7.16410815291273039840e-01) (258, 7.19903791167604611978e-01) (259, 5.51597548660499259476e-01) (260, 5.01674849623372276497e-01) (261, -7.88241542678042306225e-02) (262, -1.03361242677667295453e+01) (263, 5.30821030472997001937e-01) (264, 7.86253799363685668133e-01) (265, 4.71939363966390246219e-01) (266, 4.91221112557140682231e-01) (267, 3.52570122265708385534e-01) (268, 4.19173552226926593445e-02) (269, 3.48400888627437399503e-01) (270, 3.73307146863168792805e-01) (271, 4.34585596000813922934e-01) (272, 4.21335852687871437183e-01) (273, 5.32805114036118965259e-01) (274, 5.18021784071036828223e-01) (275, 3.06399768453135545876e-01) (276, 7.12983428814266573248e-01) (277, 3.68888923740418794850e+00) (278, 5.33078170020185648781e-01) (279, 5.05664642983605583382e-01) (280, 4.17028661900689323616e-01) (281, 3.64034117098007370394e-01) (282, -4.92552589064241708172e+00) (283, -1.15850000058772817368e+00) (284, 6.22675367917529754003e-01) (285, 5.61693899403208907195e-01) (286, 6.77818685260244357949e-01) (287, 4.86719606154177086843e-01) (288, 2.76161395937193021588e-01) (289, 4.02203117363198636713e-01) (290, 5.07906513016137761696e-01) (291, 1.17489381732812270265e+00) (292, 6.93439182065635040253e-01) (293, 6.16622355006842925995e-01) (294, 5.40622667756342267786e-01) (295, 4.33930227270394930361e-01) (296, 1.10837185981145247560e+00) (297, 6.82050689419087974308e-01) (298, 5.71741125770188984845e-01) (299, 5.09054321879079063606e-01) (300, 4.86424964004685600472e-01) (301, 3.03924290679589814701e-01) (302, 2.55418144996318985385e-01) (303, 3.93808467465778355709e-01) (304, 4.57809372610961440309e-01) (305, 6.06902837864580879668e-01) (306, 7.59271763154414469632e-01) (307, 9.07825247710715266258e-01) (308, 7.03485202179840340975e-01) (309, 2.31938875643665110005e-01) (310, 3.94398707030829465126e-01) (311, 6.51124066691445069210e-01) (312, 4.33659135331005474168e-01) (313, 6.97576991300629334347e-01) (314, 5.13602429049045960952e-01) (315, 7.55075505952881753657e-01) (316, 4.91543334742704507434e-01) (317, 4.56640143030812462044e-01) (318, 5.49215076156673864816e-01) (319, 5.74796188706090394049e-01) (320, 5.82095805638959351569e-01) (321, 4.24129676157166679573e-01) (322, 4.09538999947207549290e-01) (323, 3.92934501918452361302e-01) (324, 5.22194761866261680794e-01) (325, 5.73114235037496033698e-01) (326, 4.45293914610078056526e-01) (327, 4.54458832824160774422e-01) (328, 5.52150999029794697925e-01) (329, 4.21074959125517678249e-01) (330, 5.27871922181163300003e-01) (331, 2.74581323487611494993e-01) (332, 5.02374406006869000940e-01) (333, 4.95797534161271591380e-01) (334, 5.30867789705911641285e-01) (335, 5.05754190926706037601e-01) (336, 4.37598209911515434456e-01) (337, 4.24107957714726646614e-01) (338, 5.55091191166569908333e-01) (339, 5.05096282893349846077e-01) (340, 4.97410532170464658730e-01) (341, 4.19019941323926170540e-01) (342, 5.81411171787908021003e-01) (343, 4.97524511152436399453e-01) (344, 5.41787777179410179329e-01) (345, 5.02843435937096794319e-01) (346, 4.77790836328198631477e-01) (347, 6.03049133056333008795e-01) (348, 5.51271755331685264778e-01) (349, 4.08407930368115623665e-01) (350, 5.69633487695386353522e-01) (351, 4.42294645552789411624e-01) (352, 3.41464686637078962406e-01) (353, 4.52142808084642133792e-01) (354, 3.91060541813527784427e-01) (355, 5.38308698767354210091e-01) (356, 4.99906268054177482796e-01) (357, 5.11003699237038810921e-01) (358, 5.84555704230000916510e-01) (359, 4.21775285237958152962e-01) (360, 4.61879924023081978035e-01) (361, 5.31645197504689415169e-01) (362, 4.21857420438458641243e-01) (363, 5.60639862054516990852e-01) (364, 4.96930103832413816445e-01) (365, 5.22443231278588493538e-01) (366, 5.41043300265004356575e-01) (367, 5.26316482657124717903e-01) (368, 5.38339365357091148567e-01) (369, 4.87922664815118034554e-01) (370, 4.23200931483437736702e-01) (371, 4.27538063460519035530e-01) (372, 4.98730775052239616585e-01) (373, 5.96400264733960572272e-01) (374, 5.16850736075570305061e-01) (375, 4.32306703263451774788e-01) (376, 4.91031881505181566627e-01) (377, 5.86429748767545166999e-01) (378, 4.27144002252747734261e-01) (379, 4.34091802769829948616e-01) (380, 5.86625848048856202155e-01) (381, 5.88565651410748902350e-01) (382, 5.51035691136052330208e-01) (383, 6.02739784949948731452e-01) (384, 5.15357699328591545296e-01) (385, 4.16745480233361442757e-01) (386, 5.32836642199685295296e-01) (387, 6.07052136295964661628e-01) (388, 5.19537348383595665169e-01) (389, 5.09180527263810356331e-01) (390, 4.20615594917466362190e-01) (391, 5.73205459946324769049e-01) (392, 4.32613890701462944222e-01) (393, 4.34261184269120414925e-01) (394, 5.25633480483224113655e-01) (395, 5.21332163447072227669e-01) (396, 5.48492599362065513802e-01) (397, 4.58464942955901344490e-01) (398, 4.39436819487740715218e-01) (399, 4.78620108300378044319e-01) (400, -1.18727447954160958421e-01) (0, 4.89042316251394465487e-02) (1, 9.24246635907289282308e-02) (2, 2.31730294101831699183e-02) (3, 3.70926734679338648837e-02) (4, 2.01063568579494672539e-01) (5, 4.72679053121206477206e-02) (6, 1.19912716435730148934e-01) (7, 1.79281468378841596367e-01) (8, 6.62000727527734950106e-02) (9, 1.45792688118755592308e-01) (10, 1.57695482360660804710e-01) (11, 4.65538975470659449618e-02) (12, 8.86165526383516088949e-02) (13, 1.52223433243572486839e-01) (14, 1.53699765788852943382e-01) (15, 9.71501943343278662191e-02) (16, 7.68482488268014962696e-02) (17, 1.52540082918941749535e-01) (18, 8.47571610146735134050e-03) (19, 1.77816937553226667168e-01) (20, 1.64943839299022870781e-01) (21, 1.73469330059826093438e-01) (22, 2.02219004618465619805e-01) (23, 1.90993185030758100273e-01) (24, 9.08909764760133520589e-02) (25, 1.15339326547920395516e-01) (26, -1.49526083040894736120e-01) (27, -1.39655941296281088659e-01) (28, -1.42332434563633508651e-01) (29, -1.00026440174895481228e-01) (30, -2.17788726000782556502e-01) (31, -8.81018742149911743278e-02) (32, 9.13364970022610273004e-02) (33, 9.15106617742947187066e-02) (34, 2.71006756359509770604e-02) (35, 8.97099085980824079156e-02) (36, 1.36088409357684070322e-01) (37, 1.36306781418328221145e-01) (38, 6.63814869397279933017e-02) (39, 1.99678595053493695977e-01) (40, 8.75060286992189184652e-02) (41, -2.87390056614235722687e-01) (42, -2.47257668454801460278e-01) (43, -1.07367613483132631758e-01) (44, -5.33566312507369300278e-01) (45, -5.29366591085182802701e-01) (46, -6.56026058901535535917e-01) (47, -7.09588919760447134344e-01) (48, -1.01173697853502764232e+00) (49, -1.19276221303410556729e+00) (50, -2.57254850698524939467e-01) (51, -2.04879733489641197020e-01) (52, -4.47169871299724130953e-01) (53, -4.11052810689541248124e-01) (54, -3.35828038593860900285e-01) (55, -2.67267719252563540344e-01) (56, 1.32383013951122480156e-01) (57, -2.57337871116980088093e-01) (58, 9.39637361064442344638e-02) (59, 7.62571793668863351368e-02) (60, -1.10201212899622730257e-01) (61, -3.24186573484363249609e-01) (62, -3.16857704089243685797e-01) (63, -1.55860371718627055415e+00) (64, -2.52449664396627915242e-01) (65, -1.98060542254444665877e-01) (66, -9.05356555271116525407e-02) (67, -3.56244757874147999210e-01) (68, -2.80706280592054213674e-01) (69, -1.13851121703389890349e+00) (70, -1.65449633408993324046e-01) (71, -2.59512595508228027796e-01) (72, -2.18247933171554386877e-01) (73, -5.39978859275286215968e-01) (74, -7.59876816732945825628e-01) (75, -1.39874715073576494362e+00) (76, -2.11269103121336399020e-01) (77, -1.27570237142427933552e-01) (78, 1.14218847264338341230e-01) (79, 1.33323277222454267266e-01) (80, -1.08437772231039813997e-01) (81, 1.28141559040131941538e-01) (82, -1.59727228901362983127e-01) (83, -2.55360980810474036407e-01) (84, 4.84774773425350136158e-01) (85, 6.42272646563312732404e-02) (86, 2.66871089474297384925e-01) (87, 4.05046206095093230815e-02) (88, 1.38635741296882192275e-01) (89, -6.90212392242413153021e-01) (90, -4.69028388216116254306e-01) (91, 4.81647440908335999765e-01) (92, 2.31888105831525748179e-01) (93, -8.93473327607029743636e-02) (94, 1.87678665911336806094e-01) (95, -3.66235085763178813689e-01) (96, -1.81715643593929998545e+00) (97, -2.15811087467179724131e-01) (98, 2.09105656851817006681e-01) (99, 1.10846283721267868660e-01) (100, 1.12218843227880702568e-03) (101, -9.94944675578253168169e-02) (102, -2.53377056062150085580e+00) (103, -6.38638532129135599869e-02) (104, 2.05786906890352533361e-01) (105, 1.89998905471200213446e-01) (106, 2.51647376204144457290e-01) (107, -2.04650422110518925845e-01) (108, -2.17649680739999545898e-01) (109, 4.32323308986993670722e-01) (110, -4.65129024021798898048e-01) (111, 1.77892204375746126876e-01) (112, -2.27725603748025140494e-01) (113, 8.55772607994125522612e-02) (114, 3.36625123361962597102e-01) (115, 2.75077204344894965526e-01) (116, -2.21527764095719587045e-01) (117, -9.48375611943776952728e+00) (118, 1.70059115557928061668e-02) (119, 1.71600452982373113953e-01) (120, 6.89132480455066365188e-02) (121, 6.82573712126944287526e-01) (122, 8.20379997177826947308e-02) (123, 2.09531032965893815323e-01) (124, 2.24399957432613483821e-01) (125, 2.28763444448904645911e-01) (126, 2.45428087255132570954e-01) (127, 1.63457166095202471867e-01) (128, 1.58543612780499110215e-01) (129, 1.11183735753502821453e+00) (130, -5.17310865123870450288e-02) (131, -2.88507018215014288121e-01) (132, -1.32867136169137228796e-01) (133, 1.55168543445408119164e-01) (134, 7.38748779191480409168e-02) (135, 1.26383583435670188155e-01) (136, 3.16209967427622307135e-01) (137, 6.83464897615431499212e-01) (138, -8.44457319186001781341e-02) (139, 1.25626563452668038590e-01) (140, 3.23781379984965866914e-01) (141, 8.69832807824925335893e-01) (142, 7.27947645689094452459e-02) (143, -2.28150132259852082839e-02) (144, 2.98798209001230774540e-01) (145, 1.78843965399187426746e-01) (146, -3.29007696036229757564e-01) (147, 2.32756162195036875318e+00) (148, 4.59334149964336302396e-01) (149, -1.31731239247360187861e+00) (150, -5.11359955700397897371e-02) (151, -2.20671091205431629811e-01) (152, -2.53338121939362670432e-01) (153, 7.44395580762025887989e-02) (154, 8.03305831425783350985e-02) (155, 1.70656050431072431328e-01) (156, 2.25870712084306507483e-01) (157, 1.02068260377947717110e+00) (158, -1.04093827752104600703e-01) (159, 1.68121672593541021667e-01) (160, 4.07625117825618221712e-01) (161, 6.73305723001109024395e-01) (162, -2.04306961615210946892e-01) (163, -2.74700001052781472843e-01) (164, 1.45621622588853860680e-01) (165, 1.54943798528702603168e-01) (166, -1.61180013684730782941e+00) (167, 5.34112935515479225757e+00) (168, 1.32816099975912260689e+00) (169, -1.24887887674608188959e+00) (170, -4.13830947222771305949e-01) (171, 1.85008930834914597785e-01) (172, -4.06472838811813785842e-01) (173, -7.80669519173477072238e-02) (174, 3.54754893613483113235e-02) (175, -2.70710184063859493619e-01) (176, 2.68603124944423954368e-01) (177, -1.57069307093756410643e-01) (178, 5.62112097249583109182e-01) (179, 6.98093686957689807393e-02) (180, 8.27841560822873412384e-01) (181, 1.80481011754385534118e+00) (182, -4.77770382683546102065e-01) (183, -4.92475598586423896075e-02) (184, 2.37355820166637365709e-01) (185, 2.73543894892105329819e-02) (186, -4.80063249380441148251e-01) (187, -3.88058873065937004476e-01) (188, 2.16966484901448231071e+00) (189, -1.96163419657469306756e+00) (190, 3.54258632766290992855e-01) (191, 2.07478786366268430630e-01) (192, 2.76179509777662146597e-01) (193, 2.52871769089338283010e-01) (194, 1.82021814007398530233e-01) (195, 1.47761671412822648275e-01) (196, 6.76778570834772330578e-01) (197, 1.72290951286058779957e+00) (198, 2.42925936213528181895e+00) (199, -3.03415138376826121550e-03) (200, 5.00901777055090491331e+00) (201, 3.50384329445766606881e+00) (202, -8.48432781829686955000e-01) (203, 1.04167347997947093430e-01) (204, 5.81245903967742560958e-01) (205, 1.73904773820632130299e-01) (206, 1.43766040999043567816e-02) (207, 2.77986307962994105836e+00) (208, 2.47519645257566223151e+00) (209, -1.81808895015122717886e+00) (210, 9.54652993885027507937e-04) (211, 3.35065949588731426534e-01) (212, 1.32540355312168317559e-01) (213, -1.87318230734952934080e-01) (214, 6.88704774076220604950e-02) (215, 5.28800785834071668257e-02) (216, 1.13059013831967467012e-01) (217, -1.41939490502579090947e-01) (218, 1.79235403162880624350e+00) (219, -3.28254177935446422865e-02) (220, 1.82058315604642556584e-01) (221, 7.54507682517164934843e-01) (222, -1.96438439702849354518e+00) (223, -1.28353799742600693801e-01) (224, 3.04570476958491119512e-02) (225, 1.25711016118060658897e+00) (226, 4.11163418008439474072e-01) (227, -3.88833164880475812275e-01) (228, 3.48558336396086909659e-01) (229, -9.57265737847387887527e-01) (230, -4.37179070057930663218e-01) (231, -1.95644930645591991203e-01) (232, 1.89270947285982121810e-01) (233, -4.75265911666223478393e-02) (234, -2.92042425719568100873e-02) (235, 3.13842763067693597545e-01) (236, 5.11444346742770828557e-03) (237, 2.14712698416037350846e-01) (238, 8.23496803691705747674e-01) (239, 1.41255708167564358879e-01) (240, 2.36225347331399188056e-01) (241, 8.57971179408376638520e-02) (242, 7.12887482279575102062e-01) (243, 3.27553837753901566643e+00) (244, 3.47989507596294300740e+00) (245, 9.46320679309915813171e-01) (246, 2.38904039672250018134e-01) (247, 7.35514975883267863033e-01) (248, 1.11459430435790785019e+00) (249, -1.06515461036608538592e+00) (250, -6.53460347081530890101e-01) (251, -1.46571375219998278894e+00) (252, -1.84766962338894447093e-01) (253, -1.62679996640998025814e-01) (254, 1.72588404887316082537e-02) (255, 2.01893240741256502213e-01) (256, -1.19571328561598771989e-01) (257, -1.02061703674240655815e+00) (258, 5.89698235176009041836e-02) (259, 1.78888328079862879427e-01) (260, 1.12196542711899494016e-01) (261, 2.52495240368249378171e-02) (262, 4.25526557650470704797e-01) (263, 2.38360397757407449504e+00) (264, 3.27167972325853995130e+00) (265, 2.07117993401323552405e+00) (266, 1.13050092169137902931e-01) (267, 1.62425433291336129837e-01) (268, 1.13584241243415604572e+01) (269, 4.67920989016635924251e-01) (270, -1.80071110280034252238e-01) (271, -3.30218418841340566328e-01) (272, -1.17547244349760715565e-01) (273, 3.62485451178899242830e-01) (274, 5.97523920073346537229e-01) (275, 5.82573309376076986510e-01) (276, 7.87859836960850962173e-02) (277, -7.08710990616822189558e-01) (278, 2.93931670186561966318e-01) (279, 4.91665707756947442664e-02) (280, 9.08587578851439009453e-02) (281, -1.54932665932210444915e+00) (282, -2.75609997763207159593e+00) (283, -5.75655578544936319396e-01) (284, 5.45406367171363481994e-01) (285, -1.34744271232533519012e-01) (286, 8.75027574910466010571e-01) (287, 1.93454001722913271344e-01) (288, 1.27007398008918359622e+00) (289, -1.58250448507920138397e+00) (290, -7.27146929714885148499e-01) (291, -3.47027899666484063168e-01) (292, -2.15126880076275034392e-01) (293, -1.34299554493770845198e-01) (294, -4.89997605299419825009e-01) (295, -1.07138914936829698910e+00) (296, -7.84187824601178418149e-01) (297, -1.23677110539626089469e+00) (298, 9.79518469600433594469e-02) (299, 1.44790417872853210968e-01) (300, -2.53070851977093159296e-03) (301, -3.40878295460166624853e-01) (302, -1.05190187259984346824e+00) (303, -3.62946423467076784153e-01) (304, -6.92736627752254668922e-02) (305, -2.00836131437950038414e-01) (306, -1.93267070319996042693e-01) (307, 6.13952457730218299076e-03) (308, -4.13931980246887543107e-01) (309, -5.65166584651062287037e-01) (310, -8.21403952421938532424e-02) (311, -3.21015896996501959304e-01) (312, -2.75146574428050016969e-01) (313, -4.37889133709911115844e-01) (314, -3.03015911078296673598e-01) (315, -2.49939696545187300947e-01) (316, -9.92393147874956471632e-02) (317, 1.38429680961238810166e-01) (318, 1.92774951399831112608e-01) (319, 1.46165333115048340362e-01) (320, 1.44786978947460426292e-01) (321, -3.04932392348259639903e-01) (322, -3.23568248603965935573e-01) (323, -5.88517074467402090399e-01) (324, -6.33061897935133566229e-01) (325, -1.74405496184185743180e-01) (326, 1.47368322002231849632e-01) (327, 1.94153423296749311211e-01) (328, -2.70229912475346556455e-01) (329, -4.84427789113324902548e-01) (330, -3.02665982656012376439e-02) (331, -1.83899402943242085140e-01) (332, -1.33819407907847937045e-01) (333, -9.28279471955615997913e-01) (334, -5.04543158492738008647e-01) (335, -9.74408238895262263091e-02) (336, 1.95804825854670877527e-01) (337, 1.75680338668395913393e-01) (338, 7.80915551716259981330e-02) (339, 8.34482264392969186328e-02) (340, 1.33201907264530378106e-01) (341, 1.70851434456646161797e-01) (342, 1.03582322626757344919e-01) (343, 1.72235868900465743936e-01) (344, 8.09214491564489851738e-02) (345, -5.94776829893810862065e-03) (346, 5.34899054700110551663e-03) (347, 1.06881084727585007332e-01) (348, 1.51094551073848976097e-01) (349, 4.45066871139711689453e-02) (350, 1.46014766485506614774e-03) (351, 7.34644337796061391854e-02) (352, 2.46462186932169452502e-01) (353, 1.76128795504175678088e-01) (354, 1.65993573277794431720e-01) (355, 1.81824049738134679854e-01) (356, 9.79258264654616294997e-01) (357, 2.17398502151414457773e-01) (358, 5.08384065558384820593e-02) (359, 6.06310431533453250696e-02) (360, 1.27091514753639417412e-01) (361, 1.77721555220424848320e-01) (362, 1.45550365435421241722e-01) (363, 1.73001567708790021660e-01) (364, 6.73922252529260690235e-02) (365, 1.83630282866298871758e-01) (366, 1.98939825283825116875e-01) (367, 2.15231057875749851038e-02) (368, 6.49330679946538980030e-02) (369, 7.44214755170938546680e-02) (370, 1.02281185674011398934e-01) (371, 2.08083412532546030427e-01) (372, 5.52213368162889975399e-02) (373, 4.18809580010620213786e-02) (374, 2.03698151032373014901e-01) (375, 1.52131102405972412628e-01) (376, 4.84910303582619592322e-02) (377, 1.90287942873775678398e-01) (378, 5.29818412535783961337e-02) (379, 1.93555231081783490898e-01) (380, 1.07993009375869919442e-01) (381, 9.73077741139528051839e-02) (382, 8.40564694874879891895e-02) (383, 4.24227294200060084384e-02) (384, 1.61404128062069190941e-01) (385, 1.38017590033352094414e-01) (386, 9.57675230377313391195e-02) (387, 1.57181675421535743675e-01) (388, 1.36656890498935895684e-01) (389, 1.40575582968532813988e-01) (390, 1.51225802176592188236e-02) (391, 6.10582519941923265727e-02) (392, 1.15606988655864884041e-01) (393, 1.57982791649639381371e-01) (394, 3.13696738951799586337e-02) (395, 1.80309052454769330742e-01) (396, 1.38922924982845502617e-01) (397, 2.76193496459123874476e-02) (398, 1.99142019140064435723e-01) (399, 2.01165835248768049004e-01) (400, 2.52886396213637620889e-01) (0, 1.24487451702155776934e-01) (1, 2.19674914568462109621e-01) (2, 1.64997696369685808993e-01) (3, 1.47609210997619366701e-01) (4, 2.04613863915004468019e-01) (5, 1.11098445445098586992e-01) (6, 1.90069898456134533937e-01) (7, 1.92211657255687451418e-01) (8, 1.61390125244655291414e-01) (9, 1.80934994905986468172e-01) (10, 9.75145096478840511800e-02) (11, 5.60077572760960609721e-02) (12, 6.23012999592205962696e-02) (13, 1.37247092515029645021e-01) (14, 2.14721723884143567140e-01) (15, 1.97628735989131665285e-01) (16, 3.03244585690876956863e-02) (17, 1.69213264673747698641e-01) (18, 1.31595484405555462892e-01) (19, 1.68209909885921160555e-01) (20, 1.81645690887965838289e-01) (21, 1.89963578671016430910e-01) (22, 8.11267341075321835042e-02) (23, 1.36938340455093121584e-01) (24, 2.18643113463916516359e-01) (25, 5.87456444797894439258e-02) (26, 7.31710972783944091358e-02) (27, 4.35723061261555633106e-02) (28, 5.51975140867611846485e-02) (29, -3.51547654076418136793e-02) (30, -2.74984170008626183090e-01) (31, -2.63976585377183159409e-01) (32, 2.25047928509539488240e-03) (33, 1.61593088251096132779e-02) (34, 9.77842298564738157673e-03) (35, -2.15802102047460697687e-02) (36, 9.88132075708848672813e-02) (37, -2.85962282377737325723e-02) (38, 2.02813565224208569582e-01) (39, 9.23854629097363155843e-02) (40, 1.84520899742641186769e-01) (41, 1.94934997346381339023e-01) (42, 1.23588581513869533168e-01) (43, 3.39912484143839233042e-01) (44, 2.80870310475116791160e-01) (45, 1.05782901338609389152e-01) (46, 2.35708826049125796942e-01) (47, 2.11473425952062282773e-01) (48, 7.59020057593437491583e-02) (49, 2.37355782842197715610e-01) (50, 2.22515575100666107566e-01) (51, 3.95846617201225381422e-01) (52, 9.66618638509875033327e-02) (53, 2.19443572687542970412e-01) (54, -3.15448157681426255561e-01) (55, -3.81707266165217495857e-01) (56, 3.14792067436445111017e-01) (57, -5.22857703652653715842e-01) (58, -6.18715592112812795555e-01) (59, 3.20676113067051848926e-02) (60, -4.24678267697382594292e-02) (61, -6.60997669143271460168e-02) (62, -1.35464105530182649106e-01) (63, -2.59276699049870107405e-01) (64, -1.97529103864159755188e-01) (65, 2.25731482831105861875e-01) (66, -6.51487279041609024244e-02) (67, 1.29443687154160741448e-01) (68, 2.00409933417834973390e-01) (69, 3.14517872265378917174e-01) (70, 3.60675313495960991883e-01) (71, -6.33906544975194607972e-02) (72, -2.30866763515869738432e-01) (73, -1.86199333293835339598e-01) (74, -3.71908237500588823021e-01) (75, -4.35276814169325065862e-01) (76, -5.58213771164343564024e-01) (77, 1.05536683887042681551e-01) (78, -5.10449938860211394065e-01) (79, 2.00459598988094067629e-01) (80, -7.12811888913202906792e-02) (81, -4.71059116412218426007e-01) (82, 4.24386849088266182584e-01) (83, 4.61642484188896307096e-01) (84, 5.52245044135380780403e-01) (85, 6.29050890197258349978e-01) (86, 7.90909036774869567132e-01) (87, 7.59744869758587237918e-01) (88, 5.63712432282330699884e-01) (89, 1.13400453379661786402e-01) (90, 4.79791733482534288324e-01) (91, 6.01084498131196770521e-02) (92, -4.71791957285653817955e-01) (93, -6.28550115974503137428e-02) (94, 8.83435608183910203728e-01) (95, 2.90070704221564557024e-01) (96, 3.84067622120614737824e-01) (97, 7.41849721962997560309e-02) (98, -5.91198124375614919579e-01) (99, -4.77233129430826519268e-01) (100, -9.00931970933962489312e-02) (101, 1.48034382091174643303e-01) (102, 3.39944288391444970898e-01) (103, 2.74032975393339039982e-01) (104, 3.18467688435519757917e-01) (105, 8.49274346946328639874e-01) (106, 4.41780275868029925768e-01) (107, 3.33545279895986035434e-01) (108, 5.54194720196353851627e-01) (109, 1.04315504104800682583e+00) (110, 1.35731361959969820674e+00) (111, 2.90487859664192715758e-02) (112, 1.24758242421483152296e-02) (113, -5.46435805564713494853e-01) (114, 4.79490798746891183635e-02) (115, 1.03670162659997205923e-01) (116, 1.40560385362888840000e-01) (117, 2.68225972434397941235e-01) (118, 3.82599395928210142537e-03) (119, -3.43590597499426442241e-01) (120, -1.76552051470665938293e-01) (121, 1.80952993129744799106e+00) (122, 3.51085689074115636643e-01) (123, 3.72980653465603329000e-01) (124, 3.33121289650708141128e-01) (125, 1.31958058304977132735e+00) (126, 1.24155771560859395919e+00) (127, 7.71306190468685870520e-01) (128, 4.92208458016581196226e-01) (129, 8.56242285730627727958e+00) (130, 5.20987268100410072513e-01) (131, 2.18692973785508143481e-01) (132, 4.35173357425114593067e-02) (133, 1.38880624860324597414e-01) (134, -5.01587162602956992963e-01) (135, -6.00609319811654107646e-01) (136, -1.32159083990533221531e-01) (137, 3.59226755881477899379e-01) (138, 2.73936201259447453804e-01) (139, -3.72579689014967518901e-01) (140, -2.31817020423545128160e-01) (141, -3.68398442140000059730e-01) (142, 2.04422534407118688948e-01) (143, 8.46542459607914354880e-02) (144, 1.79221215401754951912e-01) (145, 3.56438823855356357040e-01) (146, 6.67598450185612146690e-01) (147, 7.35054417627135747715e-01) (148, 4.21817969300787964926e-01) (149, 3.27650921276734896637e-01) (150, 3.93119653540710600748e-01) (151, 2.85928634812979809432e-01) (152, 5.13221765456578216114e-02) (153, 1.02063968270816485262e-01) (154, 1.39630570500888562258e-01) (155, -4.00364014197405415629e-01) (156, -2.17187346167230961591e-02) (157, 4.05863754700666823361e-01) (158, 6.61210417885328555210e-02) (159, -3.04426918614920216655e-01) (160, -2.36500194616450554186e-01) (161, 2.17727494776927849029e-01) (162, -5.90277688607246386887e-02) (163, -1.99342139789077457679e-03) (164, 1.30354321986236310060e-01) (165, 7.62542294857880553760e-02) (166, 4.86686901361089774287e-01) (167, 4.68000309206029641018e-01) (168, 2.51545008801928093867e-01) (169, 3.86896639659192853600e-01) (170, 2.08591287809471392922e-01) (171, 4.64152561819856424030e-01) (172, 3.97866565548083472859e-01) (173, 1.80486048315630531746e-01) (174, 2.52342167054281751870e-01) (175, -4.78336456109102581280e-01) (176, -4.82854175777007368214e-03) (177, 1.19519224524383704811e+00) (178, -2.84007739410637727318e-01) (179, 2.22824617713489270265e-01) (180, 1.49719372791473487316e-01) (181, 2.55773295918807219707e+00) (182, 1.82280911103217674318e-02) (183, -1.12916668095263933447e-01) (184, -3.67994914640005665873e-01) (185, 6.39580706653973540821e-02) (186, 2.43045180493728862903e-01) (187, 3.04220421674745333807e-01) (188, 4.89168812519720011545e-02) (189, 2.37772316724383148134e-01) (190, 8.97976705705652300527e-02) (191, 1.52065632031205599795e-01) (192, -1.65658241458072008623e-01) (193, -1.91005835629834475053e-01) (194, -1.54017648048533739580e-01) (195, -6.37484698964494722606e-02) (196, -7.50557845738184181705e-01) (197, 1.38324507327156953629e+00) (198, -1.83203900051495360835e+00) (199, 2.74522594565288602375e-01) (200, 1.48677038165652863899e-01) (201, 1.35792607951883947948e+00) (202, -1.33054230440818294090e-01) (203, -7.79579478880495641002e-02) (204, 1.21147869195542934317e-01) (205, 1.16200801488153260266e-01) (206, 2.89443739752460627024e-01) (207, 5.34318014540892671782e-01) (208, -1.51060593592882907998e+00) (209, 5.30964935781405800164e-01) (210, 4.22603061425138926133e-01) (211, 5.15323965193460797884e-01) (212, 1.57400205224551892336e-01) (213, -3.73367597658913807912e-01) (214, -3.55692607660573201223e-01) (215, -4.30303466816227997427e-01) (216, -2.16911933770205622718e-01) (217, 1.03857320056217039550e+00) (218, -8.90043556357216325559e-01) (219, 2.14835084432499295870e-01) (220, 1.43434560422179419037e-01) (221, 1.61324694175866700796e+00) (222, 3.44319175897792095764e-01) (223, 3.74490374128877812065e-01) (224, -3.85360265959318715190e-01) (225, 2.49609002307396077303e-01) (226, 9.72355000845464223502e-01) (227, 1.78027315316555273528e-01) (228, -1.97814593871002175618e+00) (229, 6.17067951013256177362e+00) (230, 7.16321597749956406886e-01) (231, 4.26999641452313116741e-01) (232, 3.22702283595640126990e-01) (233, 2.47537683758747489859e-01) (234, 4.48677702431518499182e-01) (235, 4.22054433368572623486e-01) (236, -1.19960365681577113550e-01) (237, 1.13191616414269580204e+00) (238, -2.86667949425630230742e-01) (239, 4.11375062274562774967e-01) (240, 1.24439886335608693169e-01) (241, -1.49350870202408669840e-01) (242, 5.69992138200462350461e-01) (243, -1.00121000281852934322e+00) (244, -5.66412528236898249467e-01) (245, 1.81782046509235989395e-01) (246, 3.55346675127953703921e-01) (247, 1.99543083038294377651e-02) (248, 5.16420602672318374005e-01) (249, 1.24848516745217308355e+00) (250, 4.25755865924011267509e+00) (251, 4.64581707460305415314e-01) (252, 3.73351645911278173795e-01) (253, 5.56854364172616606021e-02) (254, 3.42830842461968210433e-01) (255, 2.67018666174214214237e-01) (256, -3.10238552769433323375e-02) (257, 2.87857774748059402903e-01) (258, -1.47531155636844846235e+00) (259, 2.65377464448080468973e-01) (260, 5.66688025889775237598e-02) (261, 1.22291185980506311726e-01) (262, 1.61859231400407560519e-01) (263, -3.54030200575472964175e-01) (264, 3.28525183837237999551e-01) (265, 2.88773728324186296224e-01) (266, 2.90021983563643004356e-01) (267, 3.48920396076222161241e-01) (268, 3.13646253247171047374e-01) (269, 3.54347086929087762286e+00) (270, 1.65324808005959278390e+00) (271, 4.85627996018903052011e-01) (272, 4.58773576508124225626e-01) (273, 4.26209107826311939249e-01) (274, 3.99291071598067426329e-01) (275, 2.32227060402058677058e-01) (276, -2.30521820862008075537e+00) (277, -6.63409631263767618492e-01) (278, 6.24062637386700591602e-02) (279, 1.88468098133601880129e-01) (280, 7.50175076125046691455e-02) (281, 3.39346709310727634445e-01) (282, 4.24668209703908727803e-01) (283, 2.88124924224244349791e-01) (284, 1.37599668100190197784e-01) (285, -7.45901106968930582841e-02) (286, 2.81653038850069870058e-01) (287, 4.96574949643502516761e-01) (288, 2.09840145217031981417e-01) (289, 2.76698398683930757436e-01) (290, 1.10246553260900090332e-01) (291, 5.46538330150293849563e-01) (292, 4.11734804046797187027e-01) (293, 5.33168471885370531815e-01) (294, -4.10083886765240102079e-02) (295, 4.33381712306304289761e-01) (296, -5.38235256625061442293e-01) (297, 1.50405839898930832055e-01) (298, 1.20639867573775955156e-01) (299, 1.29840068012275433595e-01) (300, 8.51277145145317715169e-02) (301, 3.49342594598398559214e-01) (302, -2.22153826783181185256e-01) (303, -1.93393867720093898255e-01) (304, 7.13120566051942822439e-02) (305, -5.33116832759652159446e-01) (306, -3.13426389056700033242e-02) (307, 1.70929565518893877840e-01) (308, -2.29505409671635768332e-01) (309, 1.08824690204654420111e-01) (310, 5.48165137893602327779e-01) (311, 2.05262396678301234365e-01) (312, 2.21490521177622218252e-01) (313, -1.06115594757715481222e+00) (314, -7.56898378468262023056e-01) (315, 2.94179678896957785827e-01) (316, 1.62500455468692461825e-01) (317, 1.20531295308219238427e-01) (318, -4.50773789424713466900e-01) (319, 9.49379051623722713948e-02) (320, 9.43968141971012753011e-02) (321, 1.17044813424148269609e-01) (322, 5.55996144709965736674e-02) (323, 1.20255000382461257891e-01) (324, 6.43366644678494414844e-02) (325, 9.46286166606327694417e-02) (326, 1.10663555055656143145e-01) (327, 9.79899684486767452718e-02) (328, 1.65160044520892779207e-01) (329, -1.59632570308076530974e-02) (330, 1.32594371261515714400e-01) (331, 4.41832677497424664015e-01) (332, 2.53651969948159583534e-01) (333, 1.69558901407037082576e-01) (334, 2.15221791952647900636e-01) (335, 3.14591159829042732454e-01) (336, 3.62720519949448649832e-01) (337, -3.14708451617773610209e-01) (338, -4.82568460393961284893e-01) (339, 1.85389816254176831301e-01) (340, 5.08624980745694121875e-02) (341, 1.50709844618835187013e-01) (342, 8.44913976786514919759e-02) (343, 1.66192203253307024813e-01) (344, 2.02894925564326977785e-01) (345, 2.07314088433780407961e-01) (346, 9.60928420124432247640e-02) (347, 1.36950827628173565920e-01) (348, -4.82798780191953991192e-01) (349, 2.70695723232010798665e-01) (350, 2.07084109019744194713e-01) (351, 2.80247836762802182697e-01) (352, 2.56233991159953822248e-01) (353, 2.50588730945148163709e-01) (354, 3.34529348501757584078e-01) (355, -3.07338557828747804823e-01) (356, -2.82691862125479698165e-01) (357, -4.42817049909647320050e-01) (358, 1.41682065516509747560e-01) (359, 3.34988305864712676563e-02) (360, 6.23670289812466582813e-02) (361, 1.12623013049163528398e-01) (362, 2.26897492497958874758e-01) (363, 3.61445764599225005664e-02) (364, 1.02327294140853564119e-01) (365, 2.13674738496341443117e-01) (366, 1.13416298717059799150e-01) (367, 2.06743955105342602785e-01) (368, 2.01291486114063000734e-01) (369, 1.33173040538825726564e-01) (370, 1.63689225405254046297e-01) (371, -3.07060311425741749858e-01) (372, -4.75331405986364696759e-01) (373, -3.11033676255758839702e-01) (374, -3.69312654126700001811e-01) (375, -5.00881033826883537152e-01) (376, 1.98605611413516736086e-01) (377, 2.91053945718190189285e-02) (378, 1.38395003467597699220e-01) (379, 2.18132033437289929445e-01) (380, 1.48305110126533246095e-01) (381, 1.13394654780425735430e-01) (382, 1.03610731154479662752e-01) (383, 1.56105100601711010988e-01) (384, 1.15549377590217300371e-01) (385, 8.08998676536461513997e-02) (386, 1.99797212570705151613e-01) (387, 1.83888181537189221437e-01) (388, 1.40408016234435772951e-01) (389, 1.13034732132949539141e-01) (390, 1.88942461699046826418e-01) (391, 1.74330517142810503817e-01) (392, 1.97213202208080029543e-01) (393, 1.87395408242740368898e-01) (394, 1.82030543178119397218e-01) (395, 7.10959541199585876026e-02) (396, 1.72625600784816424227e-01) (397, 6.70022922156235656299e-02) (398, 4.93953595457455596485e-02) (399, 1.45472555845775342043e-01) (400, 3.65611291540694050006e-01) (0, -9.24958908233474152993e-02) (1, -1.36398481694204654069e-01) (2, -7.84113579664061782770e-02) (3, -1.01204352942449893327e-01) (4, -2.03385932860119189591e-01) (5, -7.69671821269820449762e-02) (6, -1.31043294933779086442e-01) (7, -2.02725084987623538346e-01) (8, -1.67016724613649691911e-01) (9, -1.41355800000173892350e-01) (10, -8.28645252857039688044e-02) (11, -8.20666128072570083551e-02) (12, -6.61896043691466567926e-02) (13, -1.55203978088838900895e-01) (14, -1.94961788621885623307e-01) (15, -2.13734293845636691422e-01) (16, -1.83851318922979678483e-01) (17, -2.39518160489542303315e-01) (18, -1.01770820585234011979e-01) (19, -9.92611223134826081704e-02) (20, -7.90202343139479873591e-02) (21, -1.55884856847269381852e-01) (22, 